

-89.5 -179.5 -76.79 178.17
-89.5 -178.5 -76.8 179.17
-89.5 -177.5 -76.8 180.17
-89.5 -176.5 -76.81 181.17
-89.5 -175.5 -76.81 182.16
-89.5 -174.5 -76.82 183.16
-89.5 -173.5 -76.82 184.15
-89.5 -172.5 -76.83 185.14
-89.5 -171.5 -76.83 186.14
-89.5 -170.5 -76.84 187.13
-89.5 -169.5 -76.84 188.12
-89.5 -168.5 -76.84 189.11
-89.5 -167.5 -76.85 190.1
-89.5 -166.5 -76.85 191.09
-89.5 -165.5 -76.86 192.07
-89.5 -164.5 -76.86 193.06
-89.5 -163.5 -76.86 194.05
-89.5 -162.5 -76.87 195.04
-89.5 -161.5 -76.87 196.02
-89.5 -160.5 -76.87 197.01
-89.5 -159.5 -76.88 197.99
-89.5 -158.5 -76.88 198.98
-89.5 -157.5 -76.89 199.96
-89.5 -156.5 -76.89 200.95
-89.5 -155.5 -76.89 201.93
-89.5 -154.5 -76.89 202.91
-89.5 -153.5 -76.9 203.9
-89.5 -152.5 -76.9 204.88
-89.5 -151.5 -76.91 205.86
-89.5 -150.5 -76.91 206.85
-89.5 -149.5 -76.91 207.83
-89.5 -148.5 -76.91 208.81
-89.5 -147.5 -76.92 209.8
-89.5 -146.5 -76.92 210.78
-89.5 -145.5 -76.92 211.76
-89.5 -144.5 -76.93 212.75
-89.5 -143.5 -76.93 213.73
-89.5 -142.5 -76.93 214.72
-89.5 -141.5 -76.93 215.7
-89.5 -140.5 -76.94 216.69
-89.5 -139.5 -76.94 217.67
-89.5 -138.5 -76.94 218.66
-89.5 -137.5 -76.94 219.65
-89.5 -136.5 -76.95 220.63
-89.5 -135.5 -76.94 221.62
-89.5 -134.5 -76.95 222.61
-89.5 -133.5 -76.95 223.6
-89.5 -132.5 -76.95 224.59
-89.5 -131.5 -76.96 225.58
-89.5 -130.5 -76.96 226.58
-89.5 -129.5 -76.96 227.57
-89.5 -128.5 -76.96 228.56
-89.5 -127.5 -76.97 229.56
-89.5 -126.5 -76.97 230.56
-89.5 -125.5 -76.97 231.55
-89.5 -124.5 -76.97 232.55
-89.5 -123.5 -76.98 233.55
-89.5 -122.5 -76.97 234.55
-89.5 -121.5 -76.98 235.55
-89.5 -120.5 -76.98 236.56
-89.5 -119.5 -76.98 237.56
-89.5 -118.5 -76.99 238.57
-89.5 -117.5 -76.99 239.57
-89.5 -116.5 -76.99 240.58
-89.5 -115.5 -76.99 241.59
-89.5 -114.5 -76.99 242.61
-89.5 -113.5 -77.0 243.62
-89.5 -112.5 -77.0 244.63
-89.5 -111.5 -77.0 245.65
-89.5 -110.5 -77.0 246.67
-89.5 -109.5 -77.0 247.69
-89.5 -108.5 -77.0 248.71
-89.5 -107.5 -77.0 249.73
-89.5 -106.5 -77.01 250.75
-89.5 -105.5 -77.01 251.78
-89.5 -104.5 -77.01 252.81
-89.5 -103.5 -77.01 253.84
-89.5 -102.5 -77.01 254.87
-89.5 -101.5 -77.01 255.9
-89.5 -100.5 -77.01 256.94
-89.5 -99.5 -77.02 257.97
-89.5 -98.5 -77.02 259.01
-89.5 -97.5 -77.02 260.05
-89.5 -96.5 -77.02 261.09
-89.5 -95.5 -77.01 262.14
-89.5 -94.5 -77.02 263.18
-89.5 -93.5 -77.01 264.23
-89.5 -92.5 -77.02 265.27
-89.5 -91.5 -77.01 266.33
-89.5 -90.5 -77.01 267.38
-89.5 -89.5 -77.01 268.43
-89.5 -88.5 -77.01 269.49
-89.5 -87.5 -77.01 270.55
-89.5 -86.5 -77.01 271.61
-89.5 -85.5 -77.01 272.67
-89.5 -84.5 -77.01 273.73
-89.5 -83.5 -77.01 274.79
-89.5 -82.5 -77.01 275.86
-89.5 -81.5 -77.01 276.93
-89.5 -80.5 -77.0 278.0
-89.5 -79.5 -77.0 279.07
-89.5 -78.5 -77.0 280.14
-89.5 -77.5 -76.99 281.21
-89.5 -76.5 -76.99 282.29
-89.5 -75.5 -76.99 283.36
-89.5 -74.5 -76.98 284.44
-89.5 -73.5 -76.98 285.52
-89.5 -72.5 -76.98 286.6
-89.5 -71.5 -76.97 287.69
-89.5 -70.5 -76.97 288.77
-89.5 -69.5 -76.96 289.85
-89.5 -68.5 -76.96 290.94
-89.5 -67.5 -76.95 292.02
-89.5 -66.5 -76.95 293.11
-89.5 -65.5 -76.94 294.2
-89.5 -64.5 -76.94 295.29
-89.5 -63.5 -76.93 296.38
-89.5 -62.5 -76.92 297.47
-89.5 -61.5 -76.92 298.56
-89.5 -60.5 -76.91 299.65
-89.5 -59.5 -76.9 300.74
-89.5 -58.5 -76.89 301.83
-89.5 -57.5 -76.88 302.93
-89.5 -56.5 -76.87 304.02
-89.5 -55.5 -76.86 305.11
-89.5 -54.5 -76.86 306.2
-89.5 -53.5 -76.85 307.29
-89.5 -52.5 -76.84 308.39
-89.5 -51.5 -76.82 309.48
-89.5 -50.5 -76.81 310.57
-89.5 -49.5 -76.81 311.66
-89.5 -48.5 -76.8 312.75
-89.5 -47.5 -76.79 313.83
-89.5 -46.5 -76.77 314.92
-89.5 -45.5 -76.76 316.01
-89.5 -44.5 -76.74 317.1
-89.5 -43.5 -76.74 318.18
-89.5 -42.5 -76.72 319.27
-89.5 -41.5 -76.71 320.35
-89.5 -40.5 -76.69 321.44
-89.5 -39.5 -76.67 322.52
-89.5 -38.5 -76.66 323.59
-89.5 -37.5 -76.65 324.67
-89.5 -36.5 -76.63 325.74
-89.5 -35.5 -76.62 326.82
-89.5 -34.5 -76.6 327.89
-89.5 -33.5 -76.59 328.96
-89.5 -32.5 -76.56 330.03
-89.5 -31.5 -76.55 331.1
-89.5 -30.5 -76.54 332.16
-89.5 -29.5 -76.52 333.22
-89.5 -28.5 -76.51 334.28
-89.5 -27.5 -76.48 335.34
-89.5 -26.5 -76.47 336.39
-89.5 -25.5 -76.45 337.44
-89.5 -24.5 -76.44 338.49
-89.5 -23.5 -76.41 339.54
-89.5 -22.5 -76.4 340.59
-89.5 -21.5 -76.38 341.63
-89.5 -20.5 -76.36 342.67
-89.5 -19.5 -76.34 343.71
-89.5 -18.5 -76.32 344.74
-89.5 -17.5 -76.31 345.77
-89.5 -16.5 -76.28 346.8
-89.5 -15.5 -76.27 347.83
-89.5 -14.5 -76.24 348.86
-89.5 -13.5 -76.23 349.87
-89.5 -12.5 -76.21 350.9
-89.5 -11.5 -76.19 351.91
-89.5 -10.5 -76.18 352.93
-89.5 -9.5 -76.15 353.94
-89.5 -8.5 -76.13 354.95
-89.5 -7.5 -76.11 355.96
-89.5 -6.5 -76.09 356.97
-89.5 -5.5 -76.08 357.97
-89.5 -4.5 -76.06 358.97
-89.5 -3.5 -76.04 359.97
-89.5 -2.5 -76.02 0.96
-89.5 -1.5 -76.0 1.96
-89.5 -0.5 -75.98 2.95
-89.5 0.5 -75.96 3.94
-89.5 1.5 -75.94 4.93
-89.5 2.5 -75.93 5.91
-89.5 3.5 -75.9 6.9
-89.5 4.5 -75.88 7.88
-89.5 5.5 -75.87 8.86
-89.5 6.5 -75.85 9.84
-89.5 7.5 -75.83 10.81
-89.5 8.5 -75.81 11.79
-89.5 9.5 -75.79 12.76
-89.5 10.5 -75.78 13.73
-89.5 11.5 -75.76 14.7
-89.5 12.5 -75.74 15.67
-89.5 13.5 -75.72 16.64
-89.5 14.5 -75.7 17.6
-89.5 15.5 -75.68 18.57
-89.5 16.5 -75.66 19.53
-89.5 17.5 -75.65 20.49
-89.5 18.5 -75.63 21.45
-89.5 19.5 -75.61 22.41
-89.5 20.5 -75.6 23.36
-89.5 21.5 -75.58 24.32
-89.5 22.5 -75.57 25.27
-89.5 23.5 -75.54 26.23
-89.5 24.5 -75.53 27.18
-89.5 25.5 -75.52 28.13
-89.5 26.5 -75.5 29.09
-89.5 27.5 -75.49 30.03
-89.5 28.5 -75.48 30.98
-89.5 29.5 -75.46 31.93
-89.5 30.5 -75.44 32.88
-89.5 31.5 -75.43 33.82
-89.5 32.5 -75.41 34.77
-89.5 33.5 -75.41 35.72
-89.5 34.5 -75.39 36.66
-89.5 35.5 -75.38 37.61
-89.5 36.5 -75.37 38.55
-89.5 37.5 -75.35 39.49
-89.5 38.5 -75.34 40.43
-89.5 39.5 -75.33 41.37
-89.5 40.5 -75.32 42.3
-89.5 41.5 -75.3 43.24
-89.5 42.5 -75.29 44.18
-89.5 43.5 -75.28 45.12
-89.5 44.5 -75.27 46.05
-89.5 45.5 -75.26 46.99
-89.5 46.5 -75.25 47.92
-89.5 47.5 -75.24 48.85
-89.5 48.5 -75.24 49.79
-89.5 49.5 -75.22 50.72
-89.5 50.5 -75.22 51.65
-89.5 51.5 -75.21 52.58
-89.5 52.5 -75.2 53.51
-89.5 53.5 -75.18 54.45
-89.5 54.5 -75.18 55.38
-89.5 55.5 -75.18 56.31
-89.5 56.5 -75.17 57.23
-89.5 57.5 -75.16 58.16
-89.5 58.5 -75.16 59.09
-89.5 59.5 -75.15 60.02
-89.5 60.5 -75.16 60.95
-89.5 61.5 -75.16 61.87
-89.5 62.5 -75.15 62.8
-89.5 63.5 -75.15 63.73
-89.5 64.5 -75.14 64.65
-89.5 65.5 -75.15 65.58
-89.5 66.5 -75.14 66.51
-89.5 67.5 -75.14 67.43
-89.5 68.5 -75.14 68.36
-89.5 69.5 -75.15 69.29
-89.5 70.5 -75.15 70.21
-89.5 71.5 -75.15 71.14
-89.5 72.5 -75.15 72.06
-89.5 73.5 -75.16 72.99
-89.5 74.5 -75.17 73.92
-89.5 75.5 -75.17 74.85
-89.5 76.5 -75.17 75.77
-89.5 77.5 -75.18 76.7
-89.5 78.5 -75.19 77.63
-89.5 79.5 -75.2 78.56
-89.5 80.5 -75.2 79.49
-89.5 81.5 -75.21 80.42
-89.5 82.5 -75.22 81.35
-89.5 83.5 -75.23 82.28
-89.5 84.5 -75.24 83.21
-89.5 85.5 -75.25 84.15
-89.5 86.5 -75.27 85.08
-89.5 87.5 -75.27 86.02
-89.5 88.5 -75.29 86.95
-89.5 89.5 -75.3 87.89
-89.5 90.5 -75.31 88.83
-89.5 91.5 -75.33 89.77
-89.5 92.5 -75.34 90.71
-89.5 93.5 -75.36 91.65
-89.5 94.5 -75.38 92.59
-89.5 95.5 -75.4 93.54
-89.5 96.5 -75.41 94.48
-89.5 97.5 -75.43 95.43
-89.5 98.5 -75.44 96.38
-89.5 99.5 -75.46 97.33
-89.5 100.5 -75.48 98.28
-89.5 101.5 -75.5 99.24
-89.5 102.5 -75.52 100.19
-89.5 103.5 -75.54 101.15
-89.5 104.5 -75.55 102.1
-89.5 105.5 -75.58 103.07
-89.5 106.5 -75.6 104.03
-89.5 107.5 -75.62 104.99
-89.5 108.5 -75.64 105.96
-89.5 109.5 -75.66 106.92
-89.5 110.5 -75.69 107.89
-89.5 111.5 -75.7 108.86
-89.5 112.5 -75.72 109.83
-89.5 113.5 -75.75 110.81
-89.5 114.5 -75.77 111.79
-89.5 115.5 -75.8 112.77
-89.5 116.5 -75.82 113.74
-89.5 117.5 -75.84 114.72
-89.5 118.5 -75.86 115.71
-89.5 119.5 -75.88 116.69
-89.5 120.5 -75.9 117.68
-89.5 121.5 -75.93 118.67
-89.5 122.5 -75.95 119.66
-89.5 123.5 -75.98 120.65
-89.5 124.5 -75.99 121.64
-89.5 125.5 -76.02 122.64
-89.5 126.5 -76.04 123.63
-89.5 127.5 -76.06 124.63
-89.5 128.5 -76.08 125.63
-89.5 129.5 -76.1 126.63
-89.5 130.5 -76.12 127.63
-89.5 131.5 -76.15 128.63
-89.5 132.5 -76.17 129.64
-89.5 133.5 -76.19 130.65
-89.5 134.5 -76.21 131.65
-89.5 135.5 -76.23 132.66
-89.5 136.5 -76.24 133.67
-89.5 137.5 -76.27 134.68
-89.5 138.5 -76.29 135.69
-89.5 139.5 -76.3 136.7
-89.5 140.5 -76.32 137.71
-89.5 141.5 -76.34 138.73
-89.5 142.5 -76.36 139.74
-89.5 143.5 -76.38 140.75
-89.5 144.5 -76.39 141.77
-89.5 145.5 -76.41 142.79
-89.5 146.5 -76.43 143.8
-89.5 147.5 -76.45 144.82
-89.5 148.5 -76.46 145.83
-89.5 149.5 -76.48 146.85
-89.5 150.5 -76.49 147.87
-89.5 151.5 -76.51 148.88
-89.5 152.5 -76.52 149.9
-89.5 153.5 -76.54 150.92
-89.5 154.5 -76.55 151.93
-89.5 155.5 -76.56 152.95
-89.5 156.5 -76.58 153.97
-89.5 157.5 -76.58 154.98
-89.5 158.5 -76.6 156.0
-89.5 159.5 -76.61 157.01
-89.5 160.5 -76.62 158.03
-89.5 161.5 -76.64 159.04
-89.5 162.5 -76.65 160.06
-89.5 163.5 -76.66 161.07
-89.5 164.5 -76.67 162.08
-89.5 165.5 -76.68 163.09
-89.5 166.5 -76.69 164.1
-89.5 167.5 -76.69 165.11
-89.5 168.5 -76.7 166.12
-89.5 169.5 -76.71 167.13
-89.5 170.5 -76.72 168.14
-89.5 171.5 -76.73 169.15
-89.5 172.5 -76.74 170.15
-89.5 173.5 -76.75 171.16
-89.5 174.5 -76.75 172.16
-89.5 175.5 -76.76 173.17
-89.5 176.5 -76.77 174.17
-89.5 177.5 -76.77 175.17
-89.5 178.5 -76.78 176.17
-89.5 179.5 -76.78 177.17
-88.5 -179.5 -87.59 189.27
-88.5 -178.5 -87.58 190.02
-88.5 -177.5 -87.58 190.76
-88.5 -176.5 -87.57 191.5
-88.5 -175.5 -87.57 192.24
-88.5 -174.5 -87.56 192.98
-88.5 -173.5 -87.56 193.71
-88.5 -172.5 -87.55 194.45
-88.5 -171.5 -87.55 195.19
-88.5 -170.5 -87.55 195.92
-88.5 -169.5 -87.54 196.66
-88.5 -168.5 -87.54 197.4
-88.5 -167.5 -87.54 198.14
-88.5 -166.5 -87.54 198.88
-88.5 -165.5 -87.53 199.63
-88.5 -164.5 -87.53 200.37
-88.5 -163.5 -87.53 201.11
-88.5 -162.5 -87.53 201.86
-88.5 -161.5 -87.53 202.61
-88.5 -160.5 -87.53 203.37
-88.5 -159.5 -87.53 204.12
-88.5 -158.5 -87.53 204.88
-88.5 -157.5 -87.52 205.64
-88.5 -156.5 -87.52 206.41
-88.5 -155.5 -87.52 207.17
-88.5 -154.5 -87.52 207.94
-88.5 -153.5 -87.52 208.71
-88.5 -152.5 -87.52 209.49
-88.5 -151.5 -87.52 210.27
-88.5 -150.5 -87.52 211.05
-88.5 -149.5 -87.52 211.84
-88.5 -148.5 -87.52 212.63
-88.5 -147.5 -87.52 213.42
-88.5 -146.5 -87.52 214.21
-88.5 -145.5 -87.52 215.01
-88.5 -144.5 -87.52 215.82
-88.5 -143.5 -87.52 216.62
-88.5 -142.5 -87.52 217.43
-88.5 -141.5 -87.52 218.24
-88.5 -140.5 -87.52 219.05
-88.5 -139.5 -87.52 219.87
-88.5 -138.5 -87.52 220.69
-88.5 -137.5 -87.51 221.51
-88.5 -136.5 -87.51 222.34
-88.5 -135.5 -87.51 223.16
-88.5 -134.5 -87.51 223.99
-88.5 -133.5 -87.51 224.83
-88.5 -132.5 -87.51 225.66
-88.5 -131.5 -87.51 226.5
-88.5 -130.5 -87.5 227.34
-88.5 -129.5 -87.5 228.18
-88.5 -128.5 -87.5 229.02
-88.5 -127.5 -87.5 229.87
-88.5 -126.5 -87.5 230.72
-88.5 -125.5 -87.49 231.57
-88.5 -124.5 -87.49 232.42
-88.5 -123.5 -87.49 233.27
-88.5 -122.5 -87.49 234.12
-88.5 -121.5 -87.48 234.97
-88.5 -120.5 -87.48 235.83
-88.5 -119.5 -87.48 236.68
-88.5 -118.5 -87.47 237.54
-88.5 -117.5 -87.47 238.4
-88.5 -116.5 -87.47 239.25
-88.5 -115.5 -87.47 240.11
-88.5 -114.5 -87.46 240.97
-88.5 -113.5 -87.46 241.83
-88.5 -112.5 -87.46 242.69
-88.5 -111.5 -87.45 243.55
-88.5 -110.5 -87.45 244.41
-88.5 -109.5 -87.45 245.27
-88.5 -108.5 -87.44 246.12
-88.5 -107.5 -87.44 246.99
-88.5 -106.5 -87.44 247.84
-88.5 -105.5 -87.43 248.7
-88.5 -104.5 -87.43 249.56
-88.5 -103.5 -87.43 250.43
-88.5 -102.5 -87.43 251.29
-88.5 -101.5 -87.43 252.15
-88.5 -100.5 -87.42 253.01
-88.5 -99.5 -87.42 253.87
-88.5 -98.5 -87.42 254.74
-88.5 -97.5 -87.42 255.6
-88.5 -96.5 -87.42 256.47
-88.5 -95.5 -87.43 257.34
-88.5 -94.5 -87.43 258.22
-88.5 -93.5 -87.43 259.09
-88.5 -92.5 -87.44 259.97
-88.5 -91.5 -87.44 260.86
-88.5 -90.5 -87.45 261.76
-88.5 -89.5 -87.46 262.66
-88.5 -88.5 -87.47 263.57
-88.5 -87.5 -87.48 264.49
-88.5 -86.5 -87.5 265.42
-88.5 -85.5 -87.51 266.37
-88.5 -84.5 -87.53 267.34
-88.5 -83.5 -87.55 268.32
-88.5 -82.5 -87.58 269.33
-88.5 -81.5 -87.61 270.36
-88.5 -80.5 -87.64 271.43
-88.5 -79.5 -87.67 272.53
-88.5 -78.5 -87.71 273.68
-88.5 -77.5 -87.76 274.88
-88.5 -76.5 -87.81 276.14
-88.5 -75.5 -87.87 277.48
-88.5 -74.5 -87.93 278.91
-88.5 -73.5 -88.0 280.45
-88.5 -72.5 -88.08 282.14
-88.5 -71.5 -88.17 283.99
-88.5 -70.5 -88.27 286.07
-88.5 -69.5 -88.38 288.41
-88.5 -68.5 -88.51 291.16
-88.5 -67.5 -88.64 294.41
-88.5 -66.5 -88.78 298.32
-88.5 -65.5 -88.92 303.28
-88.5 -64.5 -89.03 309.43
-88.5 -63.5 -89.13 317.2
-88.5 -62.5 -89.23 327.79
-88.5 -61.5 -89.3 341.48
-88.5 -60.5 -89.31 357.23
-88.5 -59.5 -89.28 7.68
-88.5 -58.5 -89.26 7.9
-88.5 -57.5 -89.24 8.1
-88.5 -56.5 -89.22 8.43
-88.5 -55.5 -89.19 8.69
-88.5 -54.5 -89.17 9.01
-88.5 -53.5 -89.14 9.32
-88.5 -52.5 -89.12 9.71
-88.5 -51.5 -89.09 10.08
-88.5 -50.5 -89.07 10.5
-88.5 -49.5 -89.04 10.91
-88.5 -48.5 -89.01 11.34
-88.5 -47.5 -88.99 11.82
-88.5 -46.5 -88.96 12.28
-88.5 -45.5 -88.94 12.75
-88.5 -44.5 -88.91 13.26
-88.5 -43.5 -88.89 13.76
-88.5 -42.5 -88.86 14.3
-88.5 -41.5 -88.84 14.83
-88.5 -40.5 -88.82 15.37
-88.5 -39.5 -88.79 15.93
-88.5 -38.5 -88.77 16.49
-88.5 -37.5 -88.74 17.06
-88.5 -36.5 -88.72 17.63
-88.5 -35.5 -88.7 18.18
-88.5 -34.5 -88.68 18.75
-88.5 -33.5 -88.65 19.31
-88.5 -32.5 -88.63 19.87
-88.5 -31.5 -88.61 20.39
-88.5 -30.5 -88.58 20.87
-88.5 -29.5 -88.55 20.94
-88.5 -28.5 -88.5 20.77
-88.5 -27.5 -88.45 20.65
-88.5 -26.5 -88.4 20.6
-88.5 -25.5 -88.35 20.59
-88.5 -24.5 -88.3 20.65
-88.5 -23.5 -88.25 20.71
-88.5 -22.5 -88.2 20.85
-88.5 -21.5 -88.15 21.03
-88.5 -20.5 -88.1 21.24
-88.5 -19.5 -88.05 21.48
-88.5 -18.5 -88.0 21.77
-88.5 -17.5 -87.95 22.07
-88.5 -16.5 -87.9 22.42
-88.5 -15.5 -87.85 22.78
-88.5 -14.5 -87.8 23.17
-88.5 -13.5 -87.76 23.6
-88.5 -12.5 -87.71 24.05
-88.5 -11.5 -87.66 24.5
-88.5 -10.5 -87.61 24.97
-88.5 -9.5 -87.57 25.48
-88.5 -8.5 -87.52 25.99
-88.5 -7.5 -87.47 26.53
-88.5 -6.5 -87.43 27.07
-88.5 -5.5 -87.38 27.64
-88.5 -4.5 -87.34 28.22
-88.5 -3.5 -87.3 28.81
-88.5 -2.5 -87.25 29.4
-88.5 -1.5 -87.21 30.02
-88.5 -0.5 -87.17 30.65
-88.5 0.5 -87.13 31.27
-88.5 1.5 -87.09 31.9
-88.5 2.5 -87.05 32.53
-88.5 3.5 -87.01 33.16
-88.5 4.5 -86.97 33.72
-88.5 5.5 -86.92 34.29
-88.5 6.5 -86.87 34.85
-88.5 7.5 -86.83 35.43
-88.5 8.5 -86.78 36.02
-88.5 9.5 -86.74 36.61
-88.5 10.5 -86.69 37.21
-88.5 11.5 -86.65 37.8
-88.5 12.5 -86.61 38.42
-88.5 13.5 -86.57 39.04
-88.5 14.5 -86.53 39.66
-88.5 15.5 -86.5 40.28
-88.5 16.5 -86.46 40.91
-88.5 17.5 -86.43 41.54
-88.5 18.5 -86.39 42.17
-88.5 19.5 -86.36 42.81
-88.5 20.5 -86.33 43.45
-88.5 21.5 -86.3 44.1
-88.5 22.5 -86.27 44.74
-88.5 23.5 -86.24 45.39
-88.5 24.5 -86.21 46.04
-88.5 25.5 -86.19 46.69
-88.5 26.5 -86.16 47.35
-88.5 27.5 -86.14 48.0
-88.5 28.5 -86.12 48.65
-88.5 29.5 -86.1 49.31
-88.5 30.5 -86.08 49.97
-88.5 31.5 -86.06 50.62
-88.5 32.5 -86.04 51.27
-88.5 33.5 -86.03 51.93
-88.5 34.5 -86.02 52.59
-88.5 35.5 -86.0 53.25
-88.5 36.5 -85.99 53.9
-88.5 37.5 -85.98 54.56
-88.5 38.5 -85.97 55.21
-88.5 39.5 -85.97 55.87
-88.5 40.5 -85.96 56.52
-88.5 41.5 -85.95 57.17
-88.5 42.5 -85.95 57.82
-88.5 43.5 -85.95 58.47
-88.5 44.5 -85.95 59.12
-88.5 45.5 -85.95 59.76
-88.5 46.5 -85.95 60.4
-88.5 47.5 -85.95 61.04
-88.5 48.5 -85.95 61.68
-88.5 49.5 -85.96 62.32
-88.5 50.5 -85.96 62.95
-88.5 51.5 -85.97 63.59
-88.5 52.5 -85.97 64.21
-88.5 53.5 -85.98 64.84
-88.5 54.5 -85.99 65.46
-88.5 55.5 -86.0 66.08
-88.5 56.5 -86.02 66.7
-88.5 57.5 -86.03 67.31
-88.5 58.5 -86.04 67.92
-88.5 59.5 -86.06 68.53
-88.5 60.5 -86.07 69.14
-88.5 61.5 -86.09 69.74
-88.5 62.5 -86.11 70.33
-88.5 63.5 -86.13 70.92
-88.5 64.5 -86.15 71.51
-88.5 65.5 -86.17 72.09
-88.5 66.5 -86.19 72.66
-88.5 67.5 -86.21 73.23
-88.5 68.5 -86.24 73.79
-88.5 69.5 -86.27 74.34
-88.5 70.5 -86.29 74.89
-88.5 71.5 -86.32 75.44
-88.5 72.5 -86.35 75.97
-88.5 73.5 -86.38 76.51
-88.5 74.5 -86.41 77.04
-88.5 75.5 -86.44 77.56
-88.5 76.5 -86.47 78.08
-88.5 77.5 -86.5 78.59
-88.5 78.5 -86.53 79.09
-88.5 79.5 -86.56 79.59
-88.5 80.5 -86.59 80.08
-88.5 81.5 -86.63 80.57
-88.5 82.5 -86.66 81.04
-88.5 83.5 -86.69 81.51
-88.5 84.5 -86.73 81.97
-88.5 85.5 -86.76 82.43
-88.5 86.5 -86.8 82.87
-88.5 87.5 -86.81 83.32
-88.5 88.5 -86.82 83.78
-88.5 89.5 -86.82 84.23
-88.5 90.5 -86.83 84.68
-88.5 91.5 -86.83 85.13
-88.5 92.5 -86.84 85.59
-88.5 93.5 -86.84 86.04
-88.5 94.5 -86.85 86.5
-88.5 95.5 -86.85 86.94
-88.5 96.5 -86.86 87.4
-88.5 97.5 -86.86 87.86
-88.5 98.5 -86.87 88.32
-88.5 99.5 -86.88 88.78
-88.5 100.5 -86.88 89.24
-88.5 101.5 -86.89 89.71
-88.5 102.5 -86.9 90.17
-88.5 103.5 -86.91 90.63
-88.5 104.5 -86.92 91.09
-88.5 105.5 -86.93 91.55
-88.5 106.5 -86.94 92.02
-88.5 107.5 -86.95 92.48
-88.5 108.5 -86.96 92.94
-88.5 109.5 -86.97 93.41
-88.5 110.5 -86.98 93.87
-88.5 111.5 -86.99 94.33
-88.5 112.5 -87.0 94.8
-88.5 113.5 -87.02 95.26
-88.5 114.5 -87.03 95.73
-88.5 115.5 -87.05 96.19
-88.5 116.5 -87.06 96.65
-88.5 117.5 -87.07 97.12
-88.5 118.5 -87.09 97.58
-88.5 119.5 -87.1 98.04
-88.5 120.5 -87.12 98.5
-88.5 121.5 -87.14 98.96
-88.5 122.5 -87.15 99.42
-88.5 123.5 -87.17 99.88
-88.5 124.5 -87.19 100.36
-88.5 125.5 -87.21 100.81
-88.5 126.5 -87.22 101.26
-88.5 127.5 -87.29 102.25
-88.5 128.5 -87.45 104.56
-88.5 129.5 -87.59 107.02
-88.5 130.5 -87.71 109.64
-88.5 131.5 -87.82 112.4
-88.5 132.5 -87.9 115.23
-88.5 133.5 -87.98 118.16
-88.5 134.5 -88.04 121.13
-88.5 135.5 -88.08 124.08
-88.5 136.5 -88.12 127.07
-88.5 137.5 -88.15 130.05
-88.5 138.5 -88.17 132.96
-88.5 139.5 -88.18 135.77
-88.5 140.5 -88.18 138.42
-88.5 141.5 -88.18 141.04
-88.5 142.5 -88.18 143.54
-88.5 143.5 -88.17 145.94
-88.5 144.5 -88.16 148.21
-88.5 145.5 -88.14 150.37
-88.5 146.5 -88.12 152.41
-88.5 147.5 -88.1 154.34
-88.5 148.5 -88.08 156.16
-88.5 149.5 -88.06 157.92
-88.5 150.5 -88.04 159.56
-88.5 151.5 -88.02 161.11
-88.5 152.5 -88.0 162.6
-88.5 153.5 -87.97 164.03
-88.5 154.5 -87.95 165.37
-88.5 155.5 -87.93 166.66
-88.5 156.5 -87.91 167.9
-88.5 157.5 -87.89 169.08
-88.5 158.5 -87.87 170.22
-88.5 159.5 -87.85 171.32
-88.5 160.5 -87.83 172.38
-88.5 161.5 -87.81 173.4
-88.5 162.5 -87.79 174.39
-88.5 163.5 -87.78 175.36
-88.5 164.5 -87.76 176.3
-88.5 165.5 -87.75 177.21
-88.5 166.5 -87.73 178.1
-88.5 167.5 -87.72 178.98
-88.5 168.5 -87.7 179.84
-88.5 169.5 -87.69 180.68
-88.5 170.5 -87.68 181.5
-88.5 171.5 -87.67 182.32
-88.5 172.5 -87.66 183.12
-88.5 173.5 -87.64 183.92
-88.5 174.5 -87.63 184.7
-88.5 175.5 -87.63 185.48
-88.5 176.5 -87.62 186.25
-88.5 177.5 -87.61 187.01
-88.5 178.5 -87.6 187.77
-88.5 179.5 -87.59 188.52
-87.5 -179.5 -87.4 181.02
-87.5 -178.5 -87.39 182.16
-87.5 -177.5 -87.39 183.29
-87.5 -176.5 -87.39 184.41
-87.5 -175.5 -87.38 185.52
-87.5 -174.5 -87.38 186.61
-87.5 -173.5 -87.38 187.7
-87.5 -172.5 -87.37 188.77
-87.5 -171.5 -87.37 189.84
-87.5 -170.5 -87.36 190.9
-87.5 -169.5 -87.36 191.94
-87.5 -168.5 -87.36 192.98
-87.5 -167.5 -87.35 194.01
-87.5 -166.5 -87.35 195.03
-87.5 -165.5 -87.35 196.05
-87.5 -164.5 -87.34 197.06
-87.5 -163.5 -87.34 198.06
-87.5 -162.5 -87.34 199.06
-87.5 -161.5 -87.33 200.05
-87.5 -160.5 -87.33 201.04
-87.5 -159.5 -87.32 202.02
-87.5 -158.5 -87.32 203.0
-87.5 -157.5 -87.32 203.97
-87.5 -156.5 -87.32 204.94
-87.5 -155.5 -87.31 205.91
-87.5 -154.5 -87.31 206.87
-87.5 -153.5 -87.31 207.83
-87.5 -152.5 -87.3 208.79
-87.5 -151.5 -87.3 209.74
-87.5 -150.5 -87.3 210.69
-87.5 -149.5 -87.3 211.64
-87.5 -148.5 -87.29 212.59
-87.5 -147.5 -87.29 213.53
-87.5 -146.5 -87.29 214.48
-87.5 -145.5 -87.29 215.42
-87.5 -144.5 -87.29 216.36
-87.5 -143.5 -87.28 217.3
-87.5 -142.5 -87.28 218.24
-87.5 -141.5 -87.28 219.18
-87.5 -140.5 -87.28 220.12
-87.5 -139.5 -87.28 221.05
-87.5 -138.5 -87.28 221.99
-87.5 -137.5 -87.28 222.92
-87.5 -136.5 -87.27 223.86
-87.5 -135.5 -87.27 224.79
-87.5 -134.5 -87.27 225.73
-87.5 -133.5 -87.27 226.66
-87.5 -132.5 -87.27 227.59
-87.5 -131.5 -87.27 228.53
-87.5 -130.5 -87.27 229.46
-87.5 -129.5 -87.27 230.4
-87.5 -128.5 -87.27 231.33
-87.5 -127.5 -87.27 232.27
-87.5 -126.5 -87.27 233.2
-87.5 -125.5 -87.27 234.14
-87.5 -124.5 -87.27 235.07
-87.5 -123.5 -87.27 236.01
-87.5 -122.5 -87.27 236.95
-87.5 -121.5 -87.27 237.89
-87.5 -120.5 -87.27 238.82
-87.5 -119.5 -87.27 239.76
-87.5 -118.5 -87.27 240.7
-87.5 -117.5 -87.28 241.65
-87.5 -116.5 -87.28 242.59
-87.5 -115.5 -87.28 243.53
-87.5 -114.5 -87.28 244.48
-87.5 -113.5 -87.29 245.42
-87.5 -112.5 -87.29 246.37
-87.5 -111.5 -87.29 247.32
-87.5 -110.5 -87.29 248.27
-87.5 -109.5 -87.3 249.22
-87.5 -108.5 -87.3 250.17
-87.5 -107.5 -87.31 251.13
-87.5 -106.5 -87.31 252.08
-87.5 -105.5 -87.32 253.04
-87.5 -104.5 -87.32 254.0
-87.5 -103.5 -87.33 254.97
-87.5 -102.5 -87.34 255.94
-87.5 -101.5 -87.35 256.91
-87.5 -100.5 -87.35 257.88
-87.5 -99.5 -87.36 258.85
-87.5 -98.5 -87.37 259.83
-87.5 -97.5 -87.38 260.82
-87.5 -96.5 -87.39 261.8
-87.5 -95.5 -87.41 262.8
-87.5 -94.5 -87.42 263.79
-87.5 -93.5 -87.44 264.79
-87.5 -92.5 -87.45 265.79
-87.5 -91.5 -87.47 266.8
-87.5 -90.5 -87.49 267.82
-87.5 -89.5 -87.51 268.83
-87.5 -88.5 -87.53 269.86
-87.5 -87.5 -87.55 270.88
-87.5 -86.5 -87.57 271.91
-87.5 -85.5 -87.6 272.95
-87.5 -84.5 -87.63 273.98
-87.5 -83.5 -87.66 275.02
-87.5 -82.5 -87.69 276.06
-87.5 -81.5 -87.73 277.1
-87.5 -80.5 -87.76 278.13
-87.5 -79.5 -87.8 279.15
-87.5 -78.5 -87.84 280.16
-87.5 -77.5 -87.89 281.15
-87.5 -76.5 -87.94 282.1
-87.5 -75.5 -87.99 283.04
-87.5 -74.5 -87.98 284.13
-87.5 -73.5 -87.97 285.22
-87.5 -72.5 -87.96 286.34
-87.5 -71.5 -87.95 287.43
-87.5 -70.5 -87.94 288.52
-87.5 -69.5 -87.94 289.59
-87.5 -68.5 -87.93 290.67
-87.5 -67.5 -87.92 291.74
-87.5 -66.5 -87.91 292.81
-87.5 -65.5 -87.9 293.87
-87.5 -64.5 -87.89 294.93
-87.5 -63.5 -87.88 295.99
-87.5 -62.5 -87.88 297.04
-87.5 -61.5 -87.87 298.08
-87.5 -60.5 -87.86 299.13
-87.5 -59.5 -87.85 300.17
-87.5 -58.5 -87.85 301.2
-87.5 -57.5 -87.84 302.24
-87.5 -56.5 -87.83 303.27
-87.5 -55.5 -87.83 304.31
-87.5 -54.5 -87.82 305.33
-87.5 -53.5 -87.82 306.36
-87.5 -52.5 -87.81 307.39
-87.5 -51.5 -87.81 308.42
-87.5 -50.5 -87.8 309.44
-87.5 -49.5 -87.8 310.47
-87.5 -48.5 -87.8 311.5
-87.5 -47.5 -87.8 312.52
-87.5 -46.5 -87.79 313.55
-87.5 -45.5 -87.79 314.58
-87.5 -44.5 -87.79 315.62
-87.5 -43.5 -87.79 316.66
-87.5 -42.5 -87.79 317.7
-87.5 -41.5 -87.79 318.71
-87.5 -40.5 -87.79 319.75
-87.5 -39.5 -87.8 320.79
-87.5 -38.5 -87.8 321.83
-87.5 -37.5 -87.8 322.87
-87.5 -36.5 -87.8 323.91
-87.5 -35.5 -87.8 324.93
-87.5 -34.5 -87.79 325.95
-87.5 -33.5 -87.79 326.96
-87.5 -32.5 -87.78 327.93
-87.5 -31.5 -87.76 328.86
-87.5 -30.5 -87.75 329.8
-87.5 -29.5 -87.74 330.74
-87.5 -28.5 -87.72 331.69
-87.5 -27.5 -87.71 332.64
-87.5 -26.5 -87.7 333.61
-87.5 -25.5 -87.69 334.57
-87.5 -24.5 -87.68 335.53
-87.5 -23.5 -87.67 336.49
-87.5 -22.5 -87.66 337.46
-87.5 -21.5 -87.65 338.44
-87.5 -20.5 -87.65 339.43
-87.5 -19.5 -87.64 340.43
-87.5 -18.5 -87.64 341.43
-87.5 -17.5 -87.63 342.45
-87.5 -16.5 -87.63 343.49
-87.5 -15.5 -87.63 344.53
-87.5 -14.5 -87.62 345.53
-87.5 -13.5 -87.61 346.54
-87.5 -12.5 -87.61 347.56
-87.5 -11.5 -87.6 348.58
-87.5 -10.5 -87.6 349.62
-87.5 -9.5 -87.59 350.66
-87.5 -8.5 -87.59 351.71
-87.5 -7.5 -87.59 352.77
-87.5 -6.5 -87.59 353.83
-87.5 -5.5 -87.58 354.9
-87.5 -4.5 -87.58 355.99
-87.5 -3.5 -87.58 357.07
-87.5 -2.5 -87.58 358.17
-87.5 -1.5 -87.58 359.27
-87.5 -0.5 -87.58 0.37
-87.5 0.5 -87.58 1.49
-87.5 1.5 -87.57 2.61
-87.5 2.5 -87.57 3.73
-87.5 3.5 -87.57 4.86
-87.5 4.5 -87.57 5.99
-87.5 5.5 -87.57 7.12
-87.5 6.5 -87.57 8.26
-87.5 7.5 -87.56 9.39
-87.5 8.5 -87.56 10.53
-87.5 9.5 -87.56 11.68
-87.5 10.5 -87.56 12.82
-87.5 11.5 -87.55 13.96
-87.5 12.5 -87.55 15.1
-87.5 13.5 -87.55 16.24
-87.5 14.5 -87.54 17.39
-87.5 15.5 -87.54 18.53
-87.5 16.5 -87.53 19.67
-87.5 17.5 -87.52 20.81
-87.5 18.5 -87.52 21.94
-87.5 19.5 -87.51 23.08
-87.5 20.5 -87.5 24.22
-87.5 21.5 -87.5 25.36
-87.5 22.5 -87.49 26.49
-87.5 23.5 -87.48 27.62
-87.5 24.5 -87.47 28.76
-87.5 25.5 -87.46 29.89
-87.5 26.5 -87.45 31.01
-87.5 27.5 -87.44 32.14
-87.5 28.5 -87.43 33.27
-87.5 29.5 -87.41 34.39
-87.5 30.5 -87.4 35.51
-87.5 31.5 -87.39 36.63
-87.5 32.5 -87.38 37.75
-87.5 33.5 -87.36 38.87
-87.5 34.5 -87.35 39.98
-87.5 35.5 -87.34 41.1
-87.5 36.5 -87.32 42.2
-87.5 37.5 -87.31 43.31
-87.5 38.5 -87.29 44.41
-87.5 39.5 -87.28 45.49
-87.5 40.5 -87.26 46.58
-87.5 41.5 -87.25 47.66
-87.5 42.5 -87.23 48.73
-87.5 43.5 -87.21 49.8
-87.5 44.5 -87.2 50.87
-87.5 45.5 -87.18 51.93
-87.5 46.5 -87.17 52.99
-87.5 47.5 -87.15 54.04
-87.5 48.5 -87.13 55.09
-87.5 49.5 -87.12 56.12
-87.5 50.5 -87.09 57.12
-87.5 51.5 -87.07 58.12
-87.5 52.5 -87.05 59.12
-87.5 53.5 -87.03 60.11
-87.5 54.5 -87.01 61.1
-87.5 55.5 -86.99 62.08
-87.5 56.5 -86.97 63.06
-87.5 57.5 -86.95 64.02
-87.5 58.5 -86.94 64.99
-87.5 59.5 -86.92 65.94
-87.5 60.5 -86.9 66.89
-87.5 61.5 -86.89 67.84
-87.5 62.5 -86.87 68.78
-87.5 63.5 -86.86 69.71
-87.5 64.5 -86.84 70.64
-87.5 65.5 -86.83 71.57
-87.5 66.5 -86.82 72.48
-87.5 67.5 -86.81 73.4
-87.5 68.5 -86.8 74.3
-87.5 69.5 -86.79 75.21
-87.5 70.5 -86.78 76.1
-87.5 71.5 -86.77 76.99
-87.5 72.5 -86.76 77.88
-87.5 73.5 -86.75 78.76
-87.5 74.5 -86.75 79.64
-87.5 75.5 -86.74 80.51
-87.5 76.5 -86.73 81.37
-87.5 77.5 -86.73 82.23
-87.5 78.5 -86.73 83.09
-87.5 79.5 -86.72 83.94
-87.5 80.5 -86.72 84.79
-87.5 81.5 -86.72 85.63
-87.5 82.5 -86.72 86.47
-87.5 83.5 -86.72 87.3
-87.5 84.5 -86.72 88.13
-87.5 85.5 -86.72 88.95
-87.5 86.5 -86.72 89.77
-87.5 87.5 -86.73 90.58
-87.5 88.5 -86.73 91.39
-87.5 89.5 -86.73 92.2
-87.5 90.5 -86.74 93.0
-87.5 91.5 -86.75 93.8
-87.5 92.5 -86.75 94.6
-87.5 93.5 -86.76 95.39
-87.5 94.5 -86.77 96.18
-87.5 95.5 -86.78 96.96
-87.5 96.5 -86.79 97.74
-87.5 97.5 -86.79 98.52
-87.5 98.5 -86.8 99.29
-87.5 99.5 -86.82 100.07
-87.5 100.5 -86.83 100.84
-87.5 101.5 -86.83 101.62
-87.5 102.5 -86.83 102.41
-87.5 103.5 -86.84 103.21
-87.5 104.5 -86.84 104.0
-87.5 105.5 -86.84 104.8
-87.5 106.5 -86.84 105.6
-87.5 107.5 -86.83 106.41
-87.5 108.5 -86.83 107.22
-87.5 109.5 -86.83 108.03
-87.5 110.5 -86.83 108.84
-87.5 111.5 -86.83 109.63
-87.5 112.5 -86.83 110.45
-87.5 113.5 -86.83 111.26
-87.5 114.5 -86.83 112.08
-87.5 115.5 -86.83 112.9
-87.5 116.5 -86.84 113.72
-87.5 117.5 -86.84 114.54
-87.5 118.5 -86.84 115.36
-87.5 119.5 -86.84 116.18
-87.5 120.5 -86.84 117.0
-87.5 121.5 -86.85 117.82
-87.5 122.5 -86.85 118.64
-87.5 123.5 -86.85 119.47
-87.5 124.5 -86.86 120.29
-87.5 125.5 -86.86 121.11
-87.5 126.5 -86.87 121.94
-87.5 127.5 -86.87 122.76
-87.5 128.5 -86.88 123.59
-87.5 129.5 -86.88 124.42
-87.5 130.5 -86.89 125.24
-87.5 131.5 -86.89 126.07
-87.5 132.5 -86.9 126.89
-87.5 133.5 -86.91 127.72
-87.5 134.5 -86.91 128.55
-87.5 135.5 -86.92 129.38
-87.5 136.5 -86.93 130.21
-87.5 137.5 -86.94 131.03
-87.5 138.5 -86.95 131.86
-87.5 139.5 -86.95 132.69
-87.5 140.5 -86.96 133.52
-87.5 141.5 -86.97 134.35
-87.5 142.5 -86.98 135.18
-87.5 143.5 -86.99 136.02
-87.5 144.5 -87.0 136.84
-87.5 145.5 -87.01 137.68
-87.5 146.5 -87.02 138.51
-87.5 147.5 -87.03 139.34
-87.5 148.5 -87.04 140.18
-87.5 149.5 -87.05 141.01
-87.5 150.5 -87.06 141.87
-87.5 151.5 -87.07 142.7
-87.5 152.5 -87.08 143.52
-87.5 153.5 -87.09 144.36
-87.5 154.5 -87.13 145.84
-87.5 155.5 -87.17 147.32
-87.5 156.5 -87.2 148.82
-87.5 157.5 -87.23 150.32
-87.5 158.5 -87.26 151.82
-87.5 159.5 -87.28 153.31
-87.5 160.5 -87.3 154.78
-87.5 161.5 -87.32 156.25
-87.5 162.5 -87.33 157.7
-87.5 163.5 -87.35 159.14
-87.5 164.5 -87.36 160.56
-87.5 165.5 -87.37 161.97
-87.5 166.5 -87.38 163.36
-87.5 167.5 -87.38 164.73
-87.5 168.5 -87.39 166.09
-87.5 169.5 -87.4 167.42
-87.5 170.5 -87.4 168.75
-87.5 171.5 -87.4 170.04
-87.5 172.5 -87.4 171.33
-87.5 173.5 -87.4 172.6
-87.5 174.5 -87.4 173.85
-87.5 175.5 -87.4 175.08
-87.5 176.5 -87.4 176.3
-87.5 177.5 -87.4 177.5
-87.5 178.5 -87.4 178.69
-87.5 179.5 -87.4 179.86
-86.5 -179.5 -86.43 179.73
-86.5 -178.5 -86.44 180.72
-86.5 -177.5 -86.45 181.72
-86.5 -176.5 -86.45 182.73
-86.5 -175.5 -86.46 183.74
-86.5 -174.5 -86.47 184.73
-86.5 -173.5 -86.47 185.74
-86.5 -172.5 -86.48 186.76
-86.5 -171.5 -86.48 187.77
-86.5 -170.5 -86.48 188.79
-86.5 -169.5 -86.49 189.81
-86.5 -168.5 -86.49 190.82
-86.5 -167.5 -86.49 191.84
-86.5 -166.5 -86.5 192.86
-86.5 -165.5 -86.5 193.88
-86.5 -164.5 -86.5 194.9
-86.5 -163.5 -86.5 195.92
-86.5 -162.5 -86.51 196.94
-86.5 -161.5 -86.51 197.96
-86.5 -160.5 -86.51 198.98
-86.5 -159.5 -86.51 199.99
-86.5 -158.5 -86.51 201.01
-86.5 -157.5 -86.51 202.03
-86.5 -156.5 -86.51 203.04
-86.5 -155.5 -86.52 204.06
-86.5 -154.5 -86.52 205.07
-86.5 -153.5 -86.52 206.08
-86.5 -152.5 -86.52 207.09
-86.5 -151.5 -86.52 208.1
-86.5 -150.5 -86.52 209.11
-86.5 -149.5 -86.52 210.12
-86.5 -148.5 -86.52 211.12
-86.5 -147.5 -86.52 212.13
-86.5 -146.5 -86.52 213.13
-86.5 -145.5 -86.52 214.14
-86.5 -144.5 -86.52 215.14
-86.5 -143.5 -86.52 216.14
-86.5 -142.5 -86.52 217.14
-86.5 -141.5 -86.52 218.14
-86.5 -140.5 -86.52 219.13
-86.5 -139.5 -86.52 220.13
-86.5 -138.5 -86.52 221.13
-86.5 -137.5 -86.52 222.12
-86.5 -136.5 -86.52 223.11
-86.5 -135.5 -86.52 224.11
-86.5 -134.5 -86.52 225.1
-86.5 -133.5 -86.52 226.09
-86.5 -132.5 -86.52 227.08
-86.5 -131.5 -86.52 228.07
-86.5 -130.5 -86.52 229.05
-86.5 -129.5 -86.52 230.04
-86.5 -128.5 -86.52 231.02
-86.5 -127.5 -86.52 232.01
-86.5 -126.5 -86.52 232.99
-86.5 -125.5 -86.52 233.98
-86.5 -124.5 -86.52 234.96
-86.5 -123.5 -86.52 235.94
-86.5 -122.5 -86.52 236.92
-86.5 -121.5 -86.52 237.9
-86.5 -120.5 -86.52 238.88
-86.5 -119.5 -86.53 239.85
-86.5 -118.5 -86.53 240.83
-86.5 -117.5 -86.53 241.8
-86.5 -116.5 -86.53 242.78
-86.5 -115.5 -86.53 243.75
-86.5 -114.5 -86.53 244.72
-86.5 -113.5 -86.53 245.69
-86.5 -112.5 -86.53 246.66
-86.5 -111.5 -86.53 247.62
-86.5 -110.5 -86.53 248.59
-86.5 -109.5 -86.54 249.55
-86.5 -108.5 -86.54 250.51
-86.5 -107.5 -86.54 251.47
-86.5 -106.5 -86.54 252.42
-86.5 -105.5 -86.54 253.37
-86.5 -104.5 -86.54 254.32
-86.5 -103.5 -86.54 255.26
-86.5 -102.5 -86.55 256.2
-86.5 -101.5 -86.55 257.14
-86.5 -100.5 -86.55 258.07
-86.5 -99.5 -86.55 258.99
-86.5 -98.5 -86.55 259.91
-86.5 -97.5 -86.55 260.82
-86.5 -96.5 -86.55 261.72
-86.5 -95.5 -86.55 262.62
-86.5 -94.5 -86.55 263.5
-86.5 -93.5 -86.55 264.37
-86.5 -92.5 -86.55 265.24
-86.5 -91.5 -86.55 266.08
-86.5 -90.5 -86.55 266.92
-86.5 -89.5 -86.55 267.74
-86.5 -88.5 -86.54 268.54
-86.5 -87.5 -86.54 269.51
-86.5 -86.5 -86.54 270.5
-86.5 -85.5 -86.53 271.49
-86.5 -84.5 -86.53 272.47
-86.5 -83.5 -86.53 273.47
-86.5 -82.5 -86.52 274.46
-86.5 -81.5 -86.52 275.45
-86.5 -80.5 -86.52 276.43
-86.5 -79.5 -86.51 277.42
-86.5 -78.5 -86.51 278.41
-86.5 -77.5 -86.51 279.39
-86.5 -76.5 -86.5 280.38
-86.5 -75.5 -86.5 281.36
-86.5 -74.5 -86.5 282.35
-86.5 -73.5 -86.5 283.34
-86.5 -72.5 -86.49 284.32
-86.5 -71.5 -86.49 285.31
-86.5 -70.5 -86.49 286.3
-86.5 -69.5 -86.49 287.29
-86.5 -68.5 -86.49 288.28
-86.5 -67.5 -86.49 289.28
-86.5 -66.5 -86.49 290.28
-86.5 -65.5 -86.49 291.27
-86.5 -64.5 -86.49 292.28
-86.5 -63.5 -86.49 293.28
-86.5 -62.5 -86.5 294.3
-86.5 -61.5 -86.5 295.31
-86.5 -60.5 -86.5 296.34
-86.5 -59.5 -86.51 297.36
-86.5 -58.5 -86.51 298.4
-86.5 -57.5 -86.52 299.44
-86.5 -56.5 -86.53 300.5
-86.5 -55.5 -86.54 301.56
-86.5 -54.5 -86.55 302.64
-86.5 -53.5 -86.56 303.73
-86.5 -52.5 -86.57 304.83
-86.5 -51.5 -86.59 305.95
-86.5 -50.5 -86.6 307.08
-86.5 -49.5 -86.62 308.24
-86.5 -48.5 -86.64 309.42
-86.5 -47.5 -86.67 310.62
-86.5 -46.5 -86.69 311.86
-86.5 -45.5 -86.72 313.12
-86.5 -44.5 -86.75 314.42
-86.5 -43.5 -86.79 315.75
-86.5 -42.5 -86.82 317.14
-86.5 -41.5 -86.87 318.57
-86.5 -40.5 -86.91 320.06
-86.5 -39.5 -86.97 321.61
-86.5 -38.5 -87.02 323.24
-86.5 -37.5 -87.09 324.96
-86.5 -36.5 -87.16 326.77
-86.5 -35.5 -87.24 328.71
-86.5 -34.5 -87.32 330.78
-86.5 -33.5 -87.42 333.01
-86.5 -32.5 -87.52 335.44
-86.5 -31.5 -87.59 337.42
-86.5 -30.5 -87.58 338.58
-86.5 -29.5 -87.57 339.73
-86.5 -28.5 -87.57 340.89
-86.5 -27.5 -87.56 342.06
-86.5 -26.5 -87.56 343.23
-86.5 -25.5 -87.55 344.4
-86.5 -24.5 -87.55 345.56
-86.5 -23.5 -87.54 346.69
-86.5 -22.5 -87.53 347.82
-86.5 -21.5 -87.52 348.95
-86.5 -20.5 -87.51 350.08
-86.5 -19.5 -87.5 351.21
-86.5 -18.5 -87.49 352.35
-86.5 -17.5 -87.48 353.48
-86.5 -16.5 -87.48 354.62
-86.5 -15.5 -87.47 355.76
-86.5 -14.5 -87.46 356.9
-86.5 -13.5 -87.45 358.04
-86.5 -12.5 -87.45 359.18
-86.5 -11.5 -87.44 0.33
-86.5 -10.5 -87.43 1.47
-86.5 -9.5 -87.42 2.62
-86.5 -8.5 -87.42 3.77
-86.5 -7.5 -87.41 4.91
-86.5 -6.5 -87.4 6.06
-86.5 -5.5 -87.4 7.21
-86.5 -4.5 -87.39 8.34
-86.5 -3.5 -87.38 9.48
-86.5 -2.5 -87.37 10.62
-86.5 -1.5 -87.37 11.76
-86.5 -0.5 -87.36 12.9
-86.5 0.5 -87.35 14.03
-86.5 1.5 -87.34 15.15
-86.5 2.5 -87.33 16.27
-86.5 3.5 -87.32 17.39
-86.5 4.5 -87.31 18.5
-86.5 5.5 -87.3 19.6
-86.5 6.5 -87.29 20.69
-86.5 7.5 -87.28 21.77
-86.5 8.5 -87.26 22.84
-86.5 9.5 -87.25 23.91
-86.5 10.5 -87.23 24.97
-86.5 11.5 -87.21 26.02
-86.5 12.5 -87.2 27.04
-86.5 13.5 -87.18 28.06
-86.5 14.5 -87.16 29.08
-86.5 15.5 -87.14 30.1
-86.5 16.5 -87.12 31.11
-86.5 17.5 -87.1 32.12
-86.5 18.5 -87.09 33.13
-86.5 19.5 -87.07 34.11
-86.5 20.5 -87.05 35.09
-86.5 21.5 -87.04 36.07
-86.5 22.5 -87.02 37.05
-86.5 23.5 -87.0 38.01
-86.5 24.5 -86.98 38.95
-86.5 25.5 -86.97 39.88
-86.5 26.5 -86.95 40.81
-86.5 27.5 -86.93 41.74
-86.5 28.5 -86.92 42.67
-86.5 29.5 -86.9 43.6
-86.5 30.5 -86.88 44.51
-86.5 31.5 -86.87 45.43
-86.5 32.5 -86.85 46.34
-86.5 33.5 -86.84 47.26
-86.5 34.5 -86.83 48.16
-86.5 35.5 -86.81 49.04
-86.5 36.5 -86.79 49.9
-86.5 37.5 -86.78 50.76
-86.5 38.5 -86.76 51.6
-86.5 39.5 -86.74 52.44
-86.5 40.5 -86.72 53.27
-86.5 41.5 -86.7 54.08
-86.5 42.5 -86.68 54.89
-86.5 43.5 -86.66 55.69
-86.5 44.5 -86.63 56.48
-86.5 45.5 -86.61 57.27
-86.5 46.5 -86.59 58.05
-86.5 47.5 -86.57 58.82
-86.5 48.5 -86.54 59.59
-86.5 49.5 -86.52 60.36
-86.5 50.5 -86.5 61.12
-86.5 51.5 -86.47 61.88
-86.5 52.5 -86.45 62.63
-86.5 53.5 -86.43 63.38
-86.5 54.5 -86.4 64.13
-86.5 55.5 -86.38 64.87
-86.5 56.5 -86.36 65.61
-86.5 57.5 -86.34 66.35
-86.5 58.5 -86.32 67.09
-86.5 59.5 -86.3 67.83
-86.5 60.5 -86.27 68.56
-86.5 61.5 -86.25 69.3
-86.5 62.5 -86.24 70.03
-86.5 63.5 -86.22 70.76
-86.5 64.5 -86.2 71.49
-86.5 65.5 -86.18 72.22
-86.5 66.5 -86.17 72.93
-86.5 67.5 -86.15 73.65
-86.5 68.5 -86.14 74.37
-86.5 69.5 -86.13 75.08
-86.5 70.5 -86.11 75.79
-86.5 71.5 -86.1 76.5
-86.5 72.5 -86.09 77.21
-86.5 73.5 -86.08 77.92
-86.5 74.5 -86.07 78.63
-86.5 75.5 -86.06 79.34
-86.5 76.5 -86.06 80.06
-86.5 77.5 -86.05 80.77
-86.5 78.5 -86.04 81.48
-86.5 79.5 -86.03 82.2
-86.5 80.5 -86.03 82.91
-86.5 81.5 -86.02 83.63
-86.5 82.5 -86.02 84.35
-86.5 83.5 -86.01 85.06
-86.5 84.5 -86.01 85.78
-86.5 85.5 -86.04 86.48
-86.5 86.5 -86.09 87.2
-86.5 87.5 -86.13 87.98
-86.5 88.5 -86.17 88.79
-86.5 89.5 -86.21 89.65
-86.5 90.5 -86.25 90.53
-86.5 91.5 -86.28 91.45
-86.5 92.5 -86.3 92.39
-86.5 93.5 -86.33 93.35
-86.5 94.5 -86.35 94.33
-86.5 95.5 -86.37 95.33
-86.5 96.5 -86.39 96.34
-86.5 97.5 -86.41 97.36
-86.5 98.5 -86.43 98.4
-86.5 99.5 -86.44 99.44
-86.5 100.5 -86.45 100.49
-86.5 101.5 -86.46 101.55
-86.5 102.5 -86.47 102.61
-86.5 103.5 -86.48 103.67
-86.5 104.5 -86.49 104.74
-86.5 105.5 -86.5 105.81
-86.5 106.5 -86.5 106.88
-86.5 107.5 -86.51 107.96
-86.5 108.5 -86.51 109.03
-86.5 109.5 -86.51 110.1
-86.5 110.5 -86.51 111.17
-86.5 111.5 -86.52 112.24
-86.5 112.5 -86.52 113.31
-86.5 113.5 -86.52 114.38
-86.5 114.5 -86.52 115.45
-86.5 115.5 -86.52 116.51
-86.5 116.5 -86.51 117.57
-86.5 117.5 -86.51 118.63
-86.5 118.5 -86.51 119.68
-86.5 119.5 -86.51 120.73
-86.5 120.5 -86.51 121.78
-86.5 121.5 -86.5 122.83
-86.5 122.5 -86.5 123.87
-86.5 123.5 -86.5 124.9
-86.5 124.5 -86.49 125.94
-86.5 125.5 -86.49 126.97
-86.5 126.5 -86.49 127.99
-86.5 127.5 -86.48 129.01
-86.5 128.5 -86.48 130.03
-86.5 129.5 -86.48 131.05
-86.5 130.5 -86.47 132.06
-86.5 131.5 -86.47 133.06
-86.5 132.5 -86.47 134.07
-86.5 133.5 -86.46 135.07
-86.5 134.5 -86.46 136.06
-86.5 135.5 -86.45 137.05
-86.5 136.5 -86.45 138.04
-86.5 137.5 -86.45 139.03
-86.5 138.5 -86.44 140.01
-86.5 139.5 -86.44 140.99
-86.5 140.5 -86.44 141.97
-86.5 141.5 -86.43 142.94
-86.5 142.5 -86.43 143.91
-86.5 143.5 -86.43 144.88
-86.5 144.5 -86.42 145.84
-86.5 145.5 -86.42 146.8
-86.5 146.5 -86.42 147.76
-86.5 147.5 -86.42 148.72
-86.5 148.5 -86.41 149.67
-86.5 149.5 -86.41 150.63
-86.5 150.5 -86.41 151.58
-86.5 151.5 -86.41 152.52
-86.5 152.5 -86.4 153.47
-86.5 153.5 -86.4 154.41
-86.5 154.5 -86.4 155.36
-86.5 155.5 -86.4 156.3
-86.5 156.5 -86.4 157.24
-86.5 157.5 -86.4 158.17
-86.5 158.5 -86.4 159.11
-86.5 159.5 -86.4 160.04
-86.5 160.5 -86.39 160.98
-86.5 161.5 -86.39 161.91
-86.5 162.5 -86.39 162.84
-86.5 163.5 -86.39 163.77
-86.5 164.5 -86.39 164.7
-86.5 165.5 -86.39 165.63
-86.5 166.5 -86.39 166.56
-86.5 167.5 -86.39 167.48
-86.5 168.5 -86.4 168.41
-86.5 169.5 -86.4 169.34
-86.5 170.5 -86.4 170.26
-86.5 171.5 -86.4 171.2
-86.5 172.5 -86.4 172.13
-86.5 173.5 -86.4 173.05
-86.5 174.5 -86.4 173.97
-86.5 175.5 -86.4 174.89
-86.5 176.5 -86.41 175.82
-86.5 177.5 -86.41 176.77
-86.5 178.5 -86.42 177.75
-86.5 179.5 -86.43 178.73
-85.5 -179.5 -85.52 180.9
-85.5 -178.5 -85.52 181.89
-85.5 -177.5 -85.52 182.88
-85.5 -176.5 -85.52 183.86
-85.5 -175.5 -85.52 184.85
-85.5 -174.5 -85.51 185.84
-85.5 -173.5 -85.51 186.82
-85.5 -172.5 -85.51 187.81
-85.5 -171.5 -85.51 188.79
-85.5 -170.5 -85.51 189.77
-85.5 -169.5 -85.51 190.76
-85.5 -168.5 -85.51 191.74
-85.5 -167.5 -85.51 192.72
-85.5 -166.5 -85.5 193.7
-85.5 -165.5 -85.5 194.68
-85.5 -164.5 -85.5 195.66
-85.5 -163.5 -85.5 196.64
-85.5 -162.5 -85.5 197.62
-85.5 -161.5 -85.5 198.59
-85.5 -160.5 -85.5 199.57
-85.5 -159.5 -85.5 200.55
-85.5 -158.5 -85.5 201.52
-85.5 -157.5 -85.5 202.5
-85.5 -156.5 -85.5 203.47
-85.5 -155.5 -85.5 204.45
-85.5 -154.5 -85.5 205.42
-85.5 -153.5 -85.5 206.4
-85.5 -152.5 -85.5 207.37
-85.5 -151.5 -85.5 208.35
-85.5 -150.5 -85.5 209.32
-85.5 -149.5 -85.5 210.3
-85.5 -148.5 -85.5 211.27
-85.5 -147.5 -85.5 212.25
-85.5 -146.5 -85.5 213.24
-85.5 -145.5 -85.5 214.22
-85.5 -144.5 -85.5 215.2
-85.5 -143.5 -85.5 216.19
-85.5 -142.5 -85.5 217.17
-85.5 -141.5 -85.51 218.16
-85.5 -140.5 -85.51 219.15
-85.5 -139.5 -85.51 220.13
-85.5 -138.5 -85.51 221.12
-85.5 -137.5 -85.51 222.11
-85.5 -136.5 -85.51 223.09
-85.5 -135.5 -85.51 224.08
-85.5 -134.5 -85.51 225.07
-85.5 -133.5 -85.51 226.06
-85.5 -132.5 -85.51 227.04
-85.5 -131.5 -85.51 228.03
-85.5 -130.5 -85.52 229.01
-85.5 -129.5 -85.52 230.0
-85.5 -128.5 -85.52 230.98
-85.5 -127.5 -85.52 231.97
-85.5 -126.5 -85.52 232.95
-85.5 -125.5 -85.52 233.93
-85.5 -124.5 -85.52 234.92
-85.5 -123.5 -85.52 235.9
-85.5 -122.5 -85.51 236.88
-85.5 -121.5 -85.51 237.86
-85.5 -120.5 -85.51 238.83
-85.5 -119.5 -85.51 239.81
-85.5 -118.5 -85.51 240.78
-85.5 -117.5 -85.51 241.76
-85.5 -116.5 -85.51 242.73
-85.5 -115.5 -85.51 243.7
-85.5 -114.5 -85.51 244.67
-85.5 -113.5 -85.51 245.63
-85.5 -112.5 -85.5 246.6
-85.5 -111.5 -85.5 247.56
-85.5 -110.5 -85.5 248.55
-85.5 -109.5 -85.5 249.53
-85.5 -108.5 -85.5 250.52
-85.5 -107.5 -85.5 251.51
-85.5 -106.5 -85.5 252.5
-85.5 -105.5 -85.5 253.49
-85.5 -104.5 -85.5 254.48
-85.5 -103.5 -85.5 255.48
-85.5 -102.5 -85.5 256.47
-85.5 -101.5 -85.5 257.46
-85.5 -100.5 -85.5 258.45
-85.5 -99.5 -85.51 259.45
-85.5 -98.5 -85.51 260.44
-85.5 -97.5 -85.51 261.43
-85.5 -96.5 -85.51 262.43
-85.5 -95.5 -85.51 263.43
-85.5 -94.5 -85.51 264.43
-85.5 -93.5 -85.51 265.43
-85.5 -92.5 -85.51 266.42
-85.5 -91.5 -85.51 267.42
-85.5 -90.5 -85.51 268.42
-85.5 -89.5 -85.51 269.42
-85.5 -88.5 -85.52 270.42
-85.5 -87.5 -85.52 271.43
-85.5 -86.5 -85.52 272.43
-85.5 -85.5 -85.52 273.43
-85.5 -84.5 -85.52 274.44
-85.5 -83.5 -85.53 275.45
-85.5 -82.5 -85.53 276.45
-85.5 -81.5 -85.53 277.46
-85.5 -80.5 -85.54 278.47
-85.5 -79.5 -85.54 279.48
-85.5 -78.5 -85.54 280.49
-85.5 -77.5 -85.55 281.5
-85.5 -76.5 -85.55 282.51
-85.5 -75.5 -85.56 283.53
-85.5 -74.5 -85.56 284.54
-85.5 -73.5 -85.57 285.56
-85.5 -72.5 -85.57 286.57
-85.5 -71.5 -85.58 287.58
-85.5 -70.5 -85.59 288.6
-85.5 -69.5 -85.59 289.61
-85.5 -68.5 -85.6 290.63
-85.5 -67.5 -85.61 291.64
-85.5 -66.5 -85.62 292.64
-85.5 -65.5 -85.63 293.65
-85.5 -64.5 -85.64 294.65
-85.5 -63.5 -85.65 295.65
-85.5 -62.5 -85.67 296.64
-85.5 -61.5 -85.68 297.62
-85.5 -60.5 -85.69 298.6
-85.5 -59.5 -85.71 299.56
-85.5 -58.5 -85.73 300.51
-85.5 -57.5 -85.74 301.45
-85.5 -56.5 -85.76 302.36
-85.5 -55.5 -85.78 303.24
-85.5 -54.5 -85.8 304.11
-85.5 -53.5 -85.82 304.94
-85.5 -52.5 -85.83 305.86
-85.5 -51.5 -85.83 306.85
-85.5 -50.5 -85.83 307.85
-85.5 -49.5 -85.82 308.85
-85.5 -48.5 -85.82 309.85
-85.5 -47.5 -85.82 310.84
-85.5 -46.5 -85.82 311.84
-85.5 -45.5 -85.82 312.84
-85.5 -44.5 -85.82 313.85
-85.5 -43.5 -85.82 314.85
-85.5 -42.5 -85.82 315.86
-85.5 -41.5 -85.83 316.87
-85.5 -40.5 -85.83 317.88
-85.5 -39.5 -85.83 318.9
-85.5 -38.5 -85.83 319.92
-85.5 -37.5 -85.84 320.94
-85.5 -36.5 -85.84 321.97
-85.5 -35.5 -85.85 323.0
-85.5 -34.5 -85.86 324.04
-85.5 -33.5 -85.86 325.08
-85.5 -32.5 -85.87 326.13
-85.5 -31.5 -85.88 327.19
-85.5 -30.5 -85.89 328.25
-85.5 -29.5 -85.9 329.32
-85.5 -28.5 -85.91 330.4
-85.5 -27.5 -85.92 331.49
-85.5 -26.5 -85.93 332.58
-85.5 -25.5 -85.94 333.69
-85.5 -24.5 -85.95 334.8
-85.5 -23.5 -85.97 335.92
-85.5 -22.5 -85.98 337.06
-85.5 -21.5 -85.99 338.2
-85.5 -20.5 -86.01 339.36
-85.5 -19.5 -86.02 340.53
-85.5 -18.5 -86.04 341.7
-85.5 -17.5 -86.05 342.89
-85.5 -16.5 -86.07 344.09
-85.5 -15.5 -86.08 345.3
-85.5 -14.5 -86.1 346.52
-85.5 -13.5 -86.11 347.75
-85.5 -12.5 -86.13 348.98
-85.5 -11.5 -86.14 350.22
-85.5 -10.5 -86.15 351.47
-85.5 -9.5 -86.16 352.71
-85.5 -8.5 -86.17 353.97
-85.5 -7.5 -86.18 355.21
-85.5 -6.5 -86.19 356.46
-85.5 -5.5 -86.19 357.67
-85.5 -4.5 -86.19 358.85
-85.5 -3.5 -86.18 0.02
-85.5 -2.5 -86.19 1.23
-85.5 -1.5 -86.18 2.44
-85.5 -0.5 -86.18 3.65
-85.5 0.5 -86.18 4.86
-85.5 1.5 -86.18 6.07
-85.5 2.5 -86.18 7.27
-85.5 3.5 -86.18 8.48
-85.5 4.5 -86.17 9.67
-85.5 5.5 -86.17 10.85
-85.5 6.5 -86.16 12.03
-85.5 7.5 -86.16 13.19
-85.5 8.5 -86.15 14.34
-85.5 9.5 -86.14 15.48
-85.5 10.5 -86.13 16.6
-85.5 11.5 -86.12 17.71
-85.5 12.5 -86.11 18.8
-85.5 13.5 -86.09 19.87
-85.5 14.5 -86.08 20.93
-85.5 15.5 -86.07 21.96
-85.5 16.5 -86.06 22.96
-85.5 17.5 -86.04 23.95
-85.5 18.5 -86.03 24.93
-85.5 19.5 -86.02 25.89
-85.5 20.5 -86.0 26.84
-85.5 21.5 -85.99 27.78
-85.5 22.5 -85.97 28.7
-85.5 23.5 -85.96 29.62
-85.5 24.5 -85.95 30.52
-85.5 25.5 -85.93 31.43
-85.5 26.5 -85.92 32.32
-85.5 27.5 -85.9 33.22
-85.5 28.5 -85.89 34.11
-85.5 29.5 -85.88 35.0
-85.5 30.5 -85.86 35.88
-85.5 31.5 -85.85 36.78
-85.5 32.5 -85.84 37.67
-85.5 33.5 -85.82 38.57
-85.5 34.5 -85.81 39.47
-85.5 35.5 -85.8 40.38
-85.5 36.5 -85.79 41.29
-85.5 37.5 -85.77 42.21
-85.5 38.5 -85.76 43.14
-85.5 39.5 -85.75 44.07
-85.5 40.5 -85.74 45.0
-85.5 41.5 -85.73 45.95
-85.5 42.5 -85.72 46.89
-85.5 43.5 -85.7 47.85
-85.5 44.5 -85.69 48.81
-85.5 45.5 -85.68 49.77
-85.5 46.5 -85.67 50.74
-85.5 47.5 -85.66 51.71
-85.5 48.5 -85.65 52.68
-85.5 49.5 -85.64 53.66
-85.5 50.5 -85.63 54.64
-85.5 51.5 -85.62 55.62
-85.5 52.5 -85.61 56.6
-85.5 53.5 -85.6 57.58
-85.5 54.5 -85.59 58.55
-85.5 55.5 -85.59 59.52
-85.5 56.5 -85.58 60.49
-85.5 57.5 -85.57 61.46
-85.5 58.5 -85.57 62.42
-85.5 59.5 -85.56 63.39
-85.5 60.5 -85.55 64.36
-85.5 61.5 -85.55 65.32
-85.5 62.5 -85.54 66.28
-85.5 63.5 -85.54 67.24
-85.5 64.5 -85.53 68.19
-85.5 65.5 -85.53 69.14
-85.5 66.5 -85.52 70.09
-85.5 67.5 -85.52 71.04
-85.5 68.5 -85.52 71.98
-85.5 69.5 -85.52 72.92
-85.5 70.5 -85.51 73.86
-85.5 71.5 -85.51 74.79
-85.5 72.5 -85.51 75.72
-85.5 73.5 -85.51 76.63
-85.5 74.5 -85.51 77.54
-85.5 75.5 -85.51 78.44
-85.5 76.5 -85.5 79.34
-85.5 77.5 -85.49 80.24
-85.5 78.5 -85.49 81.14
-85.5 79.5 -85.48 82.04
-85.5 80.5 -85.47 82.94
-85.5 81.5 -85.47 83.84
-85.5 82.5 -85.46 84.74
-85.5 83.5 -85.45 85.64
-85.5 84.5 -85.45 86.53
-85.5 85.5 -85.44 87.44
-85.5 86.5 -85.43 88.34
-85.5 87.5 -85.43 89.24
-85.5 88.5 -85.42 90.15
-85.5 89.5 -85.42 91.05
-85.5 90.5 -85.41 91.96
-85.5 91.5 -85.41 92.87
-85.5 92.5 -85.4 93.77
-85.5 93.5 -85.4 94.68
-85.5 94.5 -85.39 95.59
-85.5 95.5 -85.39 96.5
-85.5 96.5 -85.39 97.41
-85.5 97.5 -85.38 98.33
-85.5 98.5 -85.38 99.24
-85.5 99.5 -85.38 100.15
-85.5 100.5 -85.38 101.07
-85.5 101.5 -85.37 101.98
-85.5 102.5 -85.37 102.9
-85.5 103.5 -85.37 103.82
-85.5 104.5 -85.37 104.74
-85.5 105.5 -85.37 105.66
-85.5 106.5 -85.37 106.58
-85.5 107.5 -85.36 107.5
-85.5 108.5 -85.36 108.43
-85.5 109.5 -85.36 109.35
-85.5 110.5 -85.36 110.28
-85.5 111.5 -85.36 111.21
-85.5 112.5 -85.36 112.13
-85.5 113.5 -85.36 113.06
-85.5 114.5 -85.36 113.99
-85.5 115.5 -85.36 114.92
-85.5 116.5 -85.37 115.85
-85.5 117.5 -85.37 116.79
-85.5 118.5 -85.37 117.72
-85.5 119.5 -85.37 118.66
-85.5 120.5 -85.37 119.59
-85.5 121.5 -85.37 120.53
-85.5 122.5 -85.37 121.46
-85.5 123.5 -85.38 122.41
-85.5 124.5 -85.38 123.34
-85.5 125.5 -85.39 124.32
-85.5 126.5 -85.4 125.34
-85.5 127.5 -85.42 126.36
-85.5 128.5 -85.43 127.4
-85.5 129.5 -85.44 128.44
-85.5 130.5 -85.46 129.48
-85.5 131.5 -85.47 130.53
-85.5 132.5 -85.48 131.57
-85.5 133.5 -85.49 132.62
-85.5 134.5 -85.49 133.67
-85.5 135.5 -85.5 134.73
-85.5 136.5 -85.51 135.78
-85.5 137.5 -85.52 136.83
-85.5 138.5 -85.52 137.89
-85.5 139.5 -85.53 138.94
-85.5 140.5 -85.53 139.99
-85.5 141.5 -85.54 141.05
-85.5 142.5 -85.54 142.1
-85.5 143.5 -85.54 143.15
-85.5 144.5 -85.55 144.2
-85.5 145.5 -85.55 145.25
-85.5 146.5 -85.55 146.3
-85.5 147.5 -85.55 147.34
-85.5 148.5 -85.55 148.39
-85.5 149.5 -85.56 149.43
-85.5 150.5 -85.56 150.47
-85.5 151.5 -85.56 151.51
-85.5 152.5 -85.56 152.55
-85.5 153.5 -85.56 153.58
-85.5 154.5 -85.56 154.62
-85.5 155.5 -85.56 155.65
-85.5 156.5 -85.56 156.68
-85.5 157.5 -85.56 157.71
-85.5 158.5 -85.56 158.74
-85.5 159.5 -85.55 159.76
-85.5 160.5 -85.55 160.78
-85.5 161.5 -85.55 161.81
-85.5 162.5 -85.55 162.82
-85.5 163.5 -85.55 163.84
-85.5 164.5 -85.55 164.86
-85.5 165.5 -85.55 165.87
-85.5 166.5 -85.55 166.89
-85.5 167.5 -85.54 167.9
-85.5 168.5 -85.54 168.91
-85.5 169.5 -85.54 169.91
-85.5 170.5 -85.54 170.92
-85.5 171.5 -85.54 171.92
-85.5 172.5 -85.54 172.93
-85.5 173.5 -85.53 173.93
-85.5 174.5 -85.53 174.93
-85.5 175.5 -85.53 175.92
-85.5 176.5 -85.53 176.92
-85.5 177.5 -85.53 177.92
-85.5 178.5 -85.53 178.91
-85.5 179.5 -85.52 179.9
-84.5 -179.5 -84.57 180.44
-84.5 -178.5 -84.57 181.44
-84.5 -177.5 -84.57 182.45
-84.5 -176.5 -84.57 183.46
-84.5 -175.5 -84.57 184.46
-84.5 -174.5 -84.57 185.47
-84.5 -173.5 -84.57 186.47
-84.5 -172.5 -84.57 187.48
-84.5 -171.5 -84.57 188.49
-84.5 -170.5 -84.57 189.49
-84.5 -169.5 -84.56 190.5
-84.5 -168.5 -84.56 191.5
-84.5 -167.5 -84.56 192.51
-84.5 -166.5 -84.56 193.51
-84.5 -165.5 -84.56 194.51
-84.5 -164.5 -84.56 195.52
-84.5 -163.5 -84.56 196.52
-84.5 -162.5 -84.56 197.52
-84.5 -161.5 -84.56 198.53
-84.5 -160.5 -84.56 199.53
-84.5 -159.5 -84.56 200.53
-84.5 -158.5 -84.56 201.53
-84.5 -157.5 -84.56 202.53
-84.5 -156.5 -84.56 203.53
-84.5 -155.5 -84.55 204.53
-84.5 -154.5 -84.55 205.53
-84.5 -153.5 -84.55 206.53
-84.5 -152.5 -84.55 207.53
-84.5 -151.5 -84.55 208.53
-84.5 -150.5 -84.55 209.53
-84.5 -149.5 -84.55 210.52
-84.5 -148.5 -84.55 211.52
-84.5 -147.5 -84.55 212.52
-84.5 -146.5 -84.55 213.51
-84.5 -145.5 -84.55 214.51
-84.5 -144.5 -84.55 215.5
-84.5 -143.5 -84.55 216.5
-84.5 -142.5 -84.54 217.5
-84.5 -141.5 -84.54 218.49
-84.5 -140.5 -84.54 219.48
-84.5 -139.5 -84.54 220.48
-84.5 -138.5 -84.54 221.47
-84.5 -137.5 -84.54 222.46
-84.5 -136.5 -84.54 223.46
-84.5 -135.5 -84.54 224.45
-84.5 -134.5 -84.54 225.44
-84.5 -133.5 -84.54 226.44
-84.5 -132.5 -84.54 227.43
-84.5 -131.5 -84.54 228.42
-84.5 -130.5 -84.54 229.41
-84.5 -129.5 -84.54 230.41
-84.5 -128.5 -84.54 231.4
-84.5 -127.5 -84.54 232.39
-84.5 -126.5 -84.54 233.38
-84.5 -125.5 -84.54 234.38
-84.5 -124.5 -84.54 235.37
-84.5 -123.5 -84.54 236.36
-84.5 -122.5 -84.54 237.35
-84.5 -121.5 -84.54 238.35
-84.5 -120.5 -84.54 239.34
-84.5 -119.5 -84.54 240.33
-84.5 -118.5 -84.54 241.32
-84.5 -117.5 -84.54 242.32
-84.5 -116.5 -84.54 243.31
-84.5 -115.5 -84.54 244.3
-84.5 -114.5 -84.54 245.3
-84.5 -113.5 -84.54 246.29
-84.5 -112.5 -84.54 247.28
-84.5 -111.5 -84.54 248.28
-84.5 -110.5 -84.54 249.27
-84.5 -109.5 -84.54 250.26
-84.5 -108.5 -84.54 251.26
-84.5 -107.5 -84.55 252.25
-84.5 -106.5 -84.55 253.25
-84.5 -105.5 -84.55 254.24
-84.5 -104.5 -84.55 255.24
-84.5 -103.5 -84.55 256.24
-84.5 -102.5 -84.55 257.23
-84.5 -101.5 -84.55 258.23
-84.5 -100.5 -84.55 259.22
-84.5 -99.5 -84.56 260.22
-84.5 -98.5 -84.56 261.21
-84.5 -97.5 -84.56 262.21
-84.5 -96.5 -84.56 263.2
-84.5 -95.5 -84.56 264.2
-84.5 -94.5 -84.56 265.19
-84.5 -93.5 -84.57 266.19
-84.5 -92.5 -84.57 267.18
-84.5 -91.5 -84.57 268.17
-84.5 -90.5 -84.57 269.16
-84.5 -89.5 -84.57 270.15
-84.5 -88.5 -84.57 271.14
-84.5 -87.5 -84.58 272.13
-84.5 -86.5 -84.58 273.12
-84.5 -85.5 -84.58 274.1
-84.5 -84.5 -84.58 275.09
-84.5 -83.5 -84.59 276.06
-84.5 -82.5 -84.59 277.04
-84.5 -81.5 -84.59 278.01
-84.5 -80.5 -84.59 278.98
-84.5 -79.5 -84.59 279.95
-84.5 -78.5 -84.6 280.91
-84.5 -77.5 -84.6 281.86
-84.5 -76.5 -84.6 282.81
-84.5 -75.5 -84.6 283.75
-84.5 -74.5 -84.6 284.69
-84.5 -73.5 -84.61 285.61
-84.5 -72.5 -84.61 286.53
-84.5 -71.5 -84.61 287.43
-84.5 -70.5 -84.61 288.33
-84.5 -69.5 -84.61 289.21
-84.5 -68.5 -84.61 290.16
-84.5 -67.5 -84.61 291.17
-84.5 -66.5 -84.61 292.17
-84.5 -65.5 -84.61 293.18
-84.5 -64.5 -84.61 294.19
-84.5 -63.5 -84.61 295.2
-84.5 -62.5 -84.61 296.22
-84.5 -61.5 -84.61 297.23
-84.5 -60.5 -84.61 298.24
-84.5 -59.5 -84.61 299.26
-84.5 -58.5 -84.61 300.28
-84.5 -57.5 -84.62 301.29
-84.5 -56.5 -84.62 302.31
-84.5 -55.5 -84.62 303.34
-84.5 -54.5 -84.62 304.36
-84.5 -53.5 -84.63 305.38
-84.5 -52.5 -84.63 306.41
-84.5 -51.5 -84.64 307.44
-84.5 -50.5 -84.64 308.47
-84.5 -49.5 -84.65 309.51
-84.5 -48.5 -84.65 310.54
-84.5 -47.5 -84.66 311.58
-84.5 -46.5 -84.67 312.63
-84.5 -45.5 -84.68 313.67
-84.5 -44.5 -84.69 314.72
-84.5 -43.5 -84.7 315.77
-84.5 -42.5 -84.71 316.82
-84.5 -41.5 -84.73 317.88
-84.5 -40.5 -84.74 318.93
-84.5 -39.5 -84.76 320.0
-84.5 -38.5 -84.77 321.06
-84.5 -37.5 -84.79 322.13
-84.5 -36.5 -84.81 323.2
-84.5 -35.5 -84.84 324.27
-84.5 -34.5 -84.86 325.34
-84.5 -33.5 -84.89 326.42
-84.5 -32.5 -84.92 327.49
-84.5 -31.5 -84.96 328.57
-84.5 -30.5 -85.0 329.65
-84.5 -29.5 -85.04 330.73
-84.5 -28.5 -85.09 331.81
-84.5 -27.5 -85.11 332.86
-84.5 -26.5 -85.11 333.91
-84.5 -25.5 -85.11 334.96
-84.5 -24.5 -85.12 336.01
-84.5 -23.5 -85.12 337.07
-84.5 -22.5 -85.13 338.13
-84.5 -21.5 -85.13 339.19
-84.5 -20.5 -85.14 340.26
-84.5 -19.5 -85.14 341.33
-84.5 -18.5 -85.15 342.41
-84.5 -17.5 -85.16 343.49
-84.5 -16.5 -85.16 344.58
-84.5 -15.5 -85.17 345.67
-84.5 -14.5 -85.18 346.77
-84.5 -13.5 -85.19 347.86
-84.5 -12.5 -85.19 348.97
-84.5 -11.5 -85.2 350.08
-84.5 -10.5 -85.21 351.19
-84.5 -9.5 -85.21 352.31
-84.5 -8.5 -85.22 353.43
-84.5 -7.5 -85.23 354.55
-84.5 -6.5 -85.23 355.68
-84.5 -5.5 -85.24 356.81
-84.5 -4.5 -85.24 357.95
-84.5 -3.5 -85.25 359.09
-84.5 -2.5 -85.25 0.23
-84.5 -1.5 -85.26 1.37
-84.5 -0.5 -85.26 2.51
-84.5 0.5 -85.26 3.66
-84.5 1.5 -85.26 4.8
-84.5 2.5 -85.26 5.95
-84.5 3.5 -85.26 7.09
-84.5 4.5 -85.26 8.23
-84.5 5.5 -85.26 9.37
-84.5 6.5 -85.26 10.51
-84.5 7.5 -85.26 11.64
-84.5 8.5 -85.25 12.78
-84.5 9.5 -85.25 13.91
-84.5 10.5 -85.24 15.03
-84.5 11.5 -85.23 16.15
-84.5 12.5 -85.23 17.27
-84.5 13.5 -85.22 18.38
-84.5 14.5 -85.22 19.49
-84.5 15.5 -85.21 20.59
-84.5 16.5 -85.2 21.69
-84.5 17.5 -85.2 22.78
-84.5 18.5 -85.19 23.87
-84.5 19.5 -85.18 24.95
-84.5 20.5 -85.17 26.02
-84.5 21.5 -85.16 27.09
-84.5 22.5 -85.15 28.15
-84.5 23.5 -85.13 29.21
-84.5 24.5 -85.12 30.26
-84.5 25.5 -85.11 31.3
-84.5 26.5 -85.09 32.34
-84.5 27.5 -85.08 33.37
-84.5 28.5 -85.07 34.4
-84.5 29.5 -85.05 35.41
-84.5 30.5 -85.03 36.43
-84.5 31.5 -85.02 37.43
-84.5 32.5 -85.0 38.43
-84.5 33.5 -84.98 39.43
-84.5 34.5 -84.97 40.42
-84.5 35.5 -84.95 41.4
-84.5 36.5 -84.93 42.38
-84.5 37.5 -84.91 43.35
-84.5 38.5 -84.89 44.32
-84.5 39.5 -84.87 45.29
-84.5 40.5 -84.85 46.24
-84.5 41.5 -84.83 47.2
-84.5 42.5 -84.81 48.15
-84.5 43.5 -84.8 49.1
-84.5 44.5 -84.78 50.04
-84.5 45.5 -84.76 50.98
-84.5 46.5 -84.74 51.91
-84.5 47.5 -84.72 52.84
-84.5 48.5 -84.7 53.77
-84.5 49.5 -84.68 54.69
-84.5 50.5 -84.66 55.62
-84.5 51.5 -84.64 56.53
-84.5 52.5 -84.62 57.45
-84.5 53.5 -84.6 58.36
-84.5 54.5 -84.58 59.27
-84.5 55.5 -84.56 60.18
-84.5 56.5 -84.55 61.08
-84.5 57.5 -84.53 61.98
-84.5 58.5 -84.51 62.88
-84.5 59.5 -84.49 63.78
-84.5 60.5 -84.48 64.67
-84.5 61.5 -84.46 65.56
-84.5 62.5 -84.45 66.45
-84.5 63.5 -84.43 67.34
-84.5 64.5 -84.42 68.22
-84.5 65.5 -84.4 69.11
-84.5 66.5 -84.39 69.99
-84.5 67.5 -84.37 70.87
-84.5 68.5 -84.36 71.75
-84.5 69.5 -84.35 72.62
-84.5 70.5 -84.34 73.5
-84.5 71.5 -84.33 74.32
-84.5 72.5 -84.34 75.04
-84.5 73.5 -84.35 75.8
-84.5 74.5 -84.36 76.59
-84.5 75.5 -84.37 77.4
-84.5 76.5 -84.38 78.23
-84.5 77.5 -84.4 79.08
-84.5 78.5 -84.41 79.94
-84.5 79.5 -84.42 80.83
-84.5 80.5 -84.43 81.72
-84.5 81.5 -84.44 82.63
-84.5 82.5 -84.45 83.54
-84.5 83.5 -84.46 84.46
-84.5 84.5 -84.47 85.39
-84.5 85.5 -84.48 86.33
-84.5 86.5 -84.49 87.26
-84.5 87.5 -84.49 88.21
-84.5 88.5 -84.5 89.16
-84.5 89.5 -84.51 90.12
-84.5 90.5 -84.51 91.09
-84.5 91.5 -84.52 92.05
-84.5 92.5 -84.53 93.02
-84.5 93.5 -84.53 93.99
-84.5 94.5 -84.53 94.97
-84.5 95.5 -84.54 95.95
-84.5 96.5 -84.54 96.93
-84.5 97.5 -84.55 97.92
-84.5 98.5 -84.55 98.9
-84.5 99.5 -84.55 99.89
-84.5 100.5 -84.55 100.88
-84.5 101.5 -84.56 101.87
-84.5 102.5 -84.56 102.86
-84.5 103.5 -84.56 103.86
-84.5 104.5 -84.56 104.85
-84.5 105.5 -84.56 105.85
-84.5 106.5 -84.57 106.85
-84.5 107.5 -84.57 107.84
-84.5 108.5 -84.57 108.84
-84.5 109.5 -84.57 109.84
-84.5 110.5 -84.57 110.84
-84.5 111.5 -84.57 111.84
-84.5 112.5 -84.57 112.84
-84.5 113.5 -84.57 113.84
-84.5 114.5 -84.57 114.84
-84.5 115.5 -84.57 115.84
-84.5 116.5 -84.57 116.84
-84.5 117.5 -84.57 117.84
-84.5 118.5 -84.57 118.84
-84.5 119.5 -84.57 119.84
-84.5 120.5 -84.57 120.84
-84.5 121.5 -84.56 121.84
-84.5 122.5 -84.56 122.84
-84.5 123.5 -84.56 123.83
-84.5 124.5 -84.56 124.83
-84.5 125.5 -84.56 125.83
-84.5 126.5 -84.56 126.83
-84.5 127.5 -84.56 127.83
-84.5 128.5 -84.56 128.82
-84.5 129.5 -84.56 129.82
-84.5 130.5 -84.56 130.82
-84.5 131.5 -84.55 131.81
-84.5 132.5 -84.55 132.81
-84.5 133.5 -84.55 133.8
-84.5 134.5 -84.55 134.8
-84.5 135.5 -84.55 135.79
-84.5 136.5 -84.55 136.79
-84.5 137.5 -84.55 137.78
-84.5 138.5 -84.55 138.77
-84.5 139.5 -84.55 139.76
-84.5 140.5 -84.54 140.75
-84.5 141.5 -84.54 141.74
-84.5 142.5 -84.54 142.73
-84.5 143.5 -84.54 143.72
-84.5 144.5 -84.54 144.71
-84.5 145.5 -84.54 145.7
-84.5 146.5 -84.54 146.69
-84.5 147.5 -84.54 147.68
-84.5 148.5 -84.54 148.66
-84.5 149.5 -84.54 149.65
-84.5 150.5 -84.53 150.63
-84.5 151.5 -84.53 151.62
-84.5 152.5 -84.53 152.6
-84.5 153.5 -84.53 153.59
-84.5 154.5 -84.53 154.58
-84.5 155.5 -84.53 155.56
-84.5 156.5 -84.53 156.54
-84.5 157.5 -84.53 157.52
-84.5 158.5 -84.53 158.5
-84.5 159.5 -84.53 159.48
-84.5 160.5 -84.53 160.47
-84.5 161.5 -84.54 161.46
-84.5 162.5 -84.54 162.44
-84.5 163.5 -84.54 163.43
-84.5 164.5 -84.54 164.43
-84.5 165.5 -84.55 165.42
-84.5 166.5 -84.55 166.41
-84.5 167.5 -84.55 167.4
-84.5 168.5 -84.55 168.4
-84.5 169.5 -84.55 169.4
-84.5 170.5 -84.56 170.4
-84.5 171.5 -84.56 171.4
-84.5 172.5 -84.56 172.4
-84.5 173.5 -84.56 173.41
-84.5 174.5 -84.56 174.41
-84.5 175.5 -84.56 175.41
-84.5 176.5 -84.56 176.42
-84.5 177.5 -84.56 177.42
-84.5 178.5 -84.56 178.43
-84.5 179.5 -84.56 179.43
-83.5 -179.5 -83.55 180.58
-83.5 -178.5 -83.55 181.58
-83.5 -177.5 -83.55 182.57
-83.5 -176.5 -83.55 183.57
-83.5 -175.5 -83.55 184.56
-83.5 -174.5 -83.55 185.56
-83.5 -173.5 -83.55 186.55
-83.5 -172.5 -83.55 187.54
-83.5 -171.5 -83.55 188.54
-83.5 -170.5 -83.55 189.53
-83.5 -169.5 -83.55 190.52
-83.5 -168.5 -83.55 191.51
-83.5 -167.5 -83.55 192.5
-83.5 -166.5 -83.55 193.5
-83.5 -165.5 -83.55 194.49
-83.5 -164.5 -83.55 195.48
-83.5 -163.5 -83.55 196.48
-83.5 -162.5 -83.55 197.47
-83.5 -161.5 -83.55 198.47
-83.5 -160.5 -83.56 199.46
-83.5 -159.5 -83.56 200.46
-83.5 -158.5 -83.56 201.46
-83.5 -157.5 -83.56 202.46
-83.5 -156.5 -83.56 203.45
-83.5 -155.5 -83.56 204.45
-83.5 -154.5 -83.56 205.45
-83.5 -153.5 -83.56 206.45
-83.5 -152.5 -83.56 207.45
-83.5 -151.5 -83.56 208.45
-83.5 -150.5 -83.56 209.45
-83.5 -149.5 -83.56 210.45
-83.5 -148.5 -83.56 211.45
-83.5 -147.5 -83.56 212.45
-83.5 -146.5 -83.56 213.45
-83.5 -145.5 -83.56 214.45
-83.5 -144.5 -83.56 215.45
-83.5 -143.5 -83.56 216.45
-83.5 -142.5 -83.56 217.45
-83.5 -141.5 -83.56 218.45
-83.5 -140.5 -83.56 219.45
-83.5 -139.5 -83.56 220.45
-83.5 -138.5 -83.56 221.45
-83.5 -137.5 -83.56 222.45
-83.5 -136.5 -83.56 223.44
-83.5 -135.5 -83.56 224.44
-83.5 -134.5 -83.56 225.44
-83.5 -133.5 -83.56 226.44
-83.5 -132.5 -83.56 227.44
-83.5 -131.5 -83.56 228.44
-83.5 -130.5 -83.56 229.44
-83.5 -129.5 -83.56 230.44
-83.5 -128.5 -83.56 231.43
-83.5 -127.5 -83.56 232.43
-83.5 -126.5 -83.56 233.43
-83.5 -125.5 -83.56 234.43
-83.5 -124.5 -83.56 235.42
-83.5 -123.5 -83.56 236.42
-83.5 -122.5 -83.56 237.42
-83.5 -121.5 -83.56 238.42
-83.5 -120.5 -83.56 239.41
-83.5 -119.5 -83.56 240.41
-83.5 -118.5 -83.56 241.41
-83.5 -117.5 -83.56 242.4
-83.5 -116.5 -83.56 243.4
-83.5 -115.5 -83.56 244.39
-83.5 -114.5 -83.56 245.39
-83.5 -113.5 -83.56 246.39
-83.5 -112.5 -83.56 247.38
-83.5 -111.5 -83.56 248.38
-83.5 -110.5 -83.56 249.37
-83.5 -109.5 -83.56 250.36
-83.5 -108.5 -83.56 251.36
-83.5 -107.5 -83.56 252.35
-83.5 -106.5 -83.56 253.34
-83.5 -105.5 -83.56 254.34
-83.5 -104.5 -83.57 255.33
-83.5 -103.5 -83.57 256.32
-83.5 -102.5 -83.57 257.31
-83.5 -101.5 -83.57 258.3
-83.5 -100.5 -83.57 259.29
-83.5 -99.5 -83.57 260.27
-83.5 -98.5 -83.57 261.26
-83.5 -97.5 -83.57 262.24
-83.5 -96.5 -83.57 263.23
-83.5 -95.5 -83.57 264.21
-83.5 -94.5 -83.57 265.19
-83.5 -93.5 -83.57 266.17
-83.5 -92.5 -83.56 267.15
-83.5 -91.5 -83.56 268.12
-83.5 -90.5 -83.56 269.09
-83.5 -89.5 -83.56 270.06
-83.5 -88.5 -83.56 271.03
-83.5 -87.5 -83.56 272.0
-83.5 -86.5 -83.56 272.96
-83.5 -85.5 -83.56 273.91
-83.5 -84.5 -83.56 274.91
-83.5 -83.5 -83.56 275.92
-83.5 -82.5 -83.56 276.92
-83.5 -81.5 -83.56 277.93
-83.5 -80.5 -83.56 278.94
-83.5 -79.5 -83.56 279.95
-83.5 -78.5 -83.56 280.95
-83.5 -77.5 -83.57 281.96
-83.5 -76.5 -83.57 282.97
-83.5 -75.5 -83.57 283.98
-83.5 -74.5 -83.57 284.99
-83.5 -73.5 -83.57 286.0
-83.5 -72.5 -83.57 287.01
-83.5 -71.5 -83.58 288.02
-83.5 -70.5 -83.58 289.03
-83.5 -69.5 -83.58 290.04
-83.5 -68.5 -83.58 291.05
-83.5 -67.5 -83.59 292.06
-83.5 -66.5 -83.59 293.07
-83.5 -65.5 -83.59 294.08
-83.5 -64.5 -83.6 295.08
-83.5 -63.5 -83.6 296.09
-83.5 -62.5 -83.61 297.09
-83.5 -61.5 -83.61 298.09
-83.5 -60.5 -83.62 299.09
-83.5 -59.5 -83.62 300.08
-83.5 -58.5 -83.63 301.07
-83.5 -57.5 -83.63 302.06
-83.5 -56.5 -83.64 303.04
-83.5 -55.5 -83.64 304.02
-83.5 -54.5 -83.65 304.99
-83.5 -53.5 -83.66 305.95
-83.5 -52.5 -83.67 306.9
-83.5 -51.5 -83.68 307.84
-83.5 -50.5 -83.68 308.77
-83.5 -49.5 -83.69 309.69
-83.5 -48.5 -83.71 310.6
-83.5 -47.5 -83.72 311.49
-83.5 -46.5 -83.72 312.45
-83.5 -45.5 -83.72 313.46
-83.5 -44.5 -83.72 314.47
-83.5 -43.5 -83.72 315.49
-83.5 -42.5 -83.72 316.5
-83.5 -41.5 -83.72 317.51
-83.5 -40.5 -83.72 318.53
-83.5 -39.5 -83.72 319.54
-83.5 -38.5 -83.72 320.56
-83.5 -37.5 -83.73 321.58
-83.5 -36.5 -83.73 322.6
-83.5 -35.5 -83.73 323.63
-83.5 -34.5 -83.74 324.65
-83.5 -33.5 -83.74 325.68
-83.5 -32.5 -83.74 326.71
-83.5 -31.5 -83.75 327.74
-83.5 -30.5 -83.75 328.78
-83.5 -29.5 -83.76 329.81
-83.5 -28.5 -83.77 330.85
-83.5 -27.5 -83.77 331.9
-83.5 -26.5 -83.78 332.94
-83.5 -25.5 -83.79 333.99
-83.5 -24.5 -83.8 335.05
-83.5 -23.5 -83.81 336.1
-83.5 -22.5 -83.81 337.17
-83.5 -21.5 -83.82 338.23
-83.5 -20.5 -83.84 339.3
-83.5 -19.5 -83.85 340.38
-83.5 -18.5 -83.86 341.46
-83.5 -17.5 -83.87 342.54
-83.5 -16.5 -83.88 343.63
-83.5 -15.5 -83.89 344.72
-83.5 -14.5 -83.91 345.82
-83.5 -13.5 -83.92 346.93
-83.5 -12.5 -83.93 348.04
-83.5 -11.5 -83.95 349.16
-83.5 -10.5 -83.96 350.28
-83.5 -9.5 -83.98 351.41
-83.5 -8.5 -83.99 352.54
-83.5 -7.5 -84.0 353.68
-83.5 -6.5 -84.02 354.83
-83.5 -5.5 -84.03 355.98
-83.5 -4.5 -84.04 357.13
-83.5 -3.5 -84.05 358.29
-83.5 -2.5 -84.07 359.44
-83.5 -1.5 -84.08 0.61
-83.5 -0.5 -84.08 1.77
-83.5 0.5 -84.09 2.93
-83.5 1.5 -84.1 4.1
-83.5 2.5 -84.1 5.26
-83.5 3.5 -84.11 6.42
-83.5 4.5 -84.11 7.57
-83.5 5.5 -84.11 8.72
-83.5 6.5 -84.1 9.86
-83.5 7.5 -84.1 10.99
-83.5 8.5 -84.09 12.11
-83.5 9.5 -84.08 13.22
-83.5 10.5 -84.07 14.32
-83.5 11.5 -84.06 15.41
-83.5 12.5 -84.05 16.49
-83.5 13.5 -84.04 17.56
-83.5 14.5 -84.03 18.61
-83.5 15.5 -84.02 19.64
-83.5 16.5 -84.01 20.66
-83.5 17.5 -83.99 21.67
-83.5 18.5 -83.98 22.66
-83.5 19.5 -83.96 23.63
-83.5 20.5 -83.94 24.59
-83.5 21.5 -83.93 25.55
-83.5 22.5 -83.91 26.49
-83.5 23.5 -83.89 27.41
-83.5 24.5 -83.88 28.34
-83.5 25.5 -83.86 29.25
-83.5 26.5 -83.84 30.16
-83.5 27.5 -83.83 31.07
-83.5 28.5 -83.81 31.98
-83.5 29.5 -83.8 32.88
-83.5 30.5 -83.79 33.79
-83.5 31.5 -83.77 34.7
-83.5 32.5 -83.76 35.61
-83.5 33.5 -83.75 36.52
-83.5 34.5 -83.74 37.44
-83.5 35.5 -83.73 38.36
-83.5 36.5 -83.72 39.29
-83.5 37.5 -83.71 40.22
-83.5 38.5 -83.71 41.16
-83.5 39.5 -83.7 42.1
-83.5 40.5 -83.69 43.06
-83.5 41.5 -83.69 44.01
-83.5 42.5 -83.68 44.97
-83.5 43.5 -83.68 45.94
-83.5 44.5 -83.68 46.91
-83.5 45.5 -83.67 47.89
-83.5 46.5 -83.67 48.87
-83.5 47.5 -83.67 49.85
-83.5 48.5 -83.66 50.83
-83.5 49.5 -83.66 51.82
-83.5 50.5 -83.66 52.81
-83.5 51.5 -83.66 53.8
-83.5 52.5 -83.65 54.79
-83.5 53.5 -83.65 55.78
-83.5 54.5 -83.65 56.78
-83.5 55.5 -83.65 57.77
-83.5 56.5 -83.65 58.77
-83.5 57.5 -83.65 59.75
-83.5 58.5 -83.65 60.72
-83.5 59.5 -83.64 61.69
-83.5 60.5 -83.63 62.65
-83.5 61.5 -83.63 63.61
-83.5 62.5 -83.62 64.56
-83.5 63.5 -83.61 65.52
-83.5 64.5 -83.6 66.47
-83.5 65.5 -83.59 67.43
-83.5 66.5 -83.58 68.38
-83.5 67.5 -83.57 69.34
-83.5 68.5 -83.56 70.29
-83.5 69.5 -83.55 71.25
-83.5 70.5 -83.54 72.2
-83.5 71.5 -83.53 73.16
-83.5 72.5 -83.52 74.11
-83.5 73.5 -83.52 75.07
-83.5 74.5 -83.51 76.02
-83.5 75.5 -83.5 76.97
-83.5 76.5 -83.5 77.92
-83.5 77.5 -83.5 78.87
-83.5 78.5 -83.5 79.82
-83.5 79.5 -83.49 80.77
-83.5 80.5 -83.49 81.72
-83.5 81.5 -83.49 82.67
-83.5 82.5 -83.49 83.62
-83.5 83.5 -83.49 84.57
-83.5 84.5 -83.48 85.52
-83.5 85.5 -83.48 86.47
-83.5 86.5 -83.48 87.42
-83.5 87.5 -83.48 88.37
-83.5 88.5 -83.48 89.32
-83.5 89.5 -83.47 90.27
-83.5 90.5 -83.47 91.22
-83.5 91.5 -83.47 92.17
-83.5 92.5 -83.47 93.13
-83.5 93.5 -83.47 94.08
-83.5 94.5 -83.47 95.03
-83.5 95.5 -83.47 95.99
-83.5 96.5 -83.47 96.95
-83.5 97.5 -83.47 97.9
-83.5 98.5 -83.47 98.86
-83.5 99.5 -83.47 99.82
-83.5 100.5 -83.47 100.77
-83.5 101.5 -83.47 101.73
-83.5 102.5 -83.47 102.69
-83.5 103.5 -83.47 103.66
-83.5 104.5 -83.47 104.62
-83.5 105.5 -83.47 105.58
-83.5 106.5 -83.47 106.55
-83.5 107.5 -83.47 107.51
-83.5 108.5 -83.47 108.48
-83.5 109.5 -83.47 109.44
-83.5 110.5 -83.47 110.41
-83.5 111.5 -83.48 111.39
-83.5 112.5 -83.49 112.36
-83.5 113.5 -83.49 113.35
-83.5 114.5 -83.5 114.33
-83.5 115.5 -83.5 115.32
-83.5 116.5 -83.51 116.31
-83.5 117.5 -83.52 117.3
-83.5 118.5 -83.52 118.3
-83.5 119.5 -83.53 119.3
-83.5 120.5 -83.53 120.29
-83.5 121.5 -83.53 121.29
-83.5 122.5 -83.54 122.29
-83.5 123.5 -83.54 123.3
-83.5 124.5 -83.54 124.3
-83.5 125.5 -83.55 125.3
-83.5 126.5 -83.55 126.31
-83.5 127.5 -83.55 127.32
-83.5 128.5 -83.56 128.32
-83.5 129.5 -83.56 129.33
-83.5 130.5 -83.56 130.34
-83.5 131.5 -83.56 131.34
-83.5 132.5 -83.56 132.35
-83.5 133.5 -83.57 133.36
-83.5 134.5 -83.57 134.37
-83.5 135.5 -83.57 135.38
-83.5 136.5 -83.57 136.39
-83.5 137.5 -83.57 137.39
-83.5 138.5 -83.57 138.4
-83.5 139.5 -83.57 139.41
-83.5 140.5 -83.57 140.42
-83.5 141.5 -83.57 141.43
-83.5 142.5 -83.58 142.44
-83.5 143.5 -83.58 143.45
-83.5 144.5 -83.58 144.46
-83.5 145.5 -83.58 145.46
-83.5 146.5 -83.58 146.47
-83.5 147.5 -83.58 147.48
-83.5 148.5 -83.58 148.49
-83.5 149.5 -83.58 149.5
-83.5 150.5 -83.58 150.5
-83.5 151.5 -83.58 151.51
-83.5 152.5 -83.58 152.52
-83.5 153.5 -83.57 153.52
-83.5 154.5 -83.57 154.53
-83.5 155.5 -83.57 155.54
-83.5 156.5 -83.57 156.54
-83.5 157.5 -83.57 157.55
-83.5 158.5 -83.57 158.55
-83.5 159.5 -83.57 159.56
-83.5 160.5 -83.57 160.56
-83.5 161.5 -83.57 161.57
-83.5 162.5 -83.57 162.57
-83.5 163.5 -83.57 163.58
-83.5 164.5 -83.57 164.58
-83.5 165.5 -83.57 165.58
-83.5 166.5 -83.57 166.58
-83.5 167.5 -83.57 167.59
-83.5 168.5 -83.56 168.59
-83.5 169.5 -83.56 169.59
-83.5 170.5 -83.56 170.59
-83.5 171.5 -83.56 171.59
-83.5 172.5 -83.56 172.59
-83.5 173.5 -83.56 173.59
-83.5 174.5 -83.56 174.59
-83.5 175.5 -83.56 175.59
-83.5 176.5 -83.56 176.59
-83.5 177.5 -83.56 177.59
-83.5 178.5 -83.55 178.59
-83.5 179.5 -83.55 179.58
-82.5 -179.5 -82.57 180.48
-82.5 -178.5 -82.57 181.48
-82.5 -177.5 -82.57 182.48
-82.5 -176.5 -82.57 183.48
-82.5 -175.5 -82.57 184.49
-82.5 -174.5 -82.56 185.49
-82.5 -173.5 -82.56 186.49
-82.5 -172.5 -82.56 187.49
-82.5 -171.5 -82.56 188.5
-82.5 -170.5 -82.56 189.5
-82.5 -169.5 -82.56 190.5
-82.5 -168.5 -82.56 191.51
-82.5 -167.5 -82.56 192.51
-82.5 -166.5 -82.56 193.51
-82.5 -165.5 -82.56 194.51
-82.5 -164.5 -82.56 195.51
-82.5 -163.5 -82.56 196.51
-82.5 -162.5 -82.56 197.51
-82.5 -161.5 -82.56 198.52
-82.5 -160.5 -82.56 199.52
-82.5 -159.5 -82.56 200.52
-82.5 -158.5 -82.56 201.52
-82.5 -157.5 -82.55 202.52
-82.5 -156.5 -82.55 203.52
-82.5 -155.5 -82.55 204.52
-82.5 -154.5 -82.55 205.51
-82.5 -153.5 -82.55 206.51
-82.5 -152.5 -82.55 207.51
-82.5 -151.5 -82.55 208.51
-82.5 -150.5 -82.55 209.51
-82.5 -149.5 -82.55 210.51
-82.5 -148.5 -82.55 211.5
-82.5 -147.5 -82.55 212.5
-82.5 -146.5 -82.55 213.5
-82.5 -145.5 -82.55 214.5
-82.5 -144.5 -82.55 215.49
-82.5 -143.5 -82.55 216.49
-82.5 -142.5 -82.54 217.49
-82.5 -141.5 -82.54 218.48
-82.5 -140.5 -82.54 219.48
-82.5 -139.5 -82.54 220.47
-82.5 -138.5 -82.54 221.47
-82.5 -137.5 -82.54 222.46
-82.5 -136.5 -82.54 223.46
-82.5 -135.5 -82.54 224.46
-82.5 -134.5 -82.54 225.45
-82.5 -133.5 -82.54 226.45
-82.5 -132.5 -82.54 227.44
-82.5 -131.5 -82.54 228.44
-82.5 -130.5 -82.54 229.44
-82.5 -129.5 -82.54 230.43
-82.5 -128.5 -82.54 231.43
-82.5 -127.5 -82.54 232.43
-82.5 -126.5 -82.54 233.42
-82.5 -125.5 -82.54 234.42
-82.5 -124.5 -82.54 235.41
-82.5 -123.5 -82.54 236.41
-82.5 -122.5 -82.54 237.41
-82.5 -121.5 -82.54 238.4
-82.5 -120.5 -82.54 239.4
-82.5 -119.5 -82.54 240.39
-82.5 -118.5 -82.54 241.39
-82.5 -117.5 -82.54 242.38
-82.5 -116.5 -82.54 243.38
-82.5 -115.5 -82.54 244.37
-82.5 -114.5 -82.54 245.37
-82.5 -113.5 -82.54 246.36
-82.5 -112.5 -82.54 247.35
-82.5 -111.5 -82.54 248.35
-82.5 -110.5 -82.54 249.34
-82.5 -109.5 -82.54 250.33
-82.5 -108.5 -82.54 251.33
-82.5 -107.5 -82.54 252.33
-82.5 -106.5 -82.54 253.32
-82.5 -105.5 -82.54 254.32
-82.5 -104.5 -82.54 255.32
-82.5 -103.5 -82.54 256.32
-82.5 -102.5 -82.55 257.31
-82.5 -101.5 -82.55 258.31
-82.5 -100.5 -82.55 259.31
-82.5 -99.5 -82.55 260.31
-82.5 -98.5 -82.55 261.31
-82.5 -97.5 -82.55 262.31
-82.5 -96.5 -82.55 263.31
-82.5 -95.5 -82.55 264.31
-82.5 -94.5 -82.55 265.31
-82.5 -93.5 -82.55 266.31
-82.5 -92.5 -82.55 267.31
-82.5 -91.5 -82.56 268.32
-82.5 -90.5 -82.56 269.32
-82.5 -89.5 -82.56 270.32
-82.5 -88.5 -82.56 271.32
-82.5 -87.5 -82.56 272.32
-82.5 -86.5 -82.56 273.32
-82.5 -85.5 -82.56 274.32
-82.5 -84.5 -82.56 275.32
-82.5 -83.5 -82.57 276.32
-82.5 -82.5 -82.57 277.32
-82.5 -81.5 -82.57 278.32
-82.5 -80.5 -82.57 279.32
-82.5 -79.5 -82.57 280.32
-82.5 -78.5 -82.57 281.31
-82.5 -77.5 -82.58 282.31
-82.5 -76.5 -82.58 283.3
-82.5 -75.5 -82.58 284.29
-82.5 -74.5 -82.58 285.28
-82.5 -73.5 -82.58 286.27
-82.5 -72.5 -82.59 287.26
-82.5 -71.5 -82.59 288.24
-82.5 -70.5 -82.59 289.22
-82.5 -69.5 -82.59 290.19
-82.5 -68.5 -82.59 291.16
-82.5 -67.5 -82.59 292.13
-82.5 -66.5 -82.6 293.09
-82.5 -65.5 -82.6 294.05
-82.5 -64.5 -82.6 295.0
-82.5 -63.5 -82.6 295.95
-82.5 -62.5 -82.6 296.89
-82.5 -61.5 -82.6 297.86
-82.5 -60.5 -82.6 298.87
-82.5 -59.5 -82.6 299.88
-82.5 -58.5 -82.6 300.9
-82.5 -57.5 -82.6 301.91
-82.5 -56.5 -82.61 302.93
-82.5 -55.5 -82.61 303.94
-82.5 -54.5 -82.61 304.96
-82.5 -53.5 -82.61 305.98
-82.5 -52.5 -82.61 307.0
-82.5 -51.5 -82.61 308.01
-82.5 -50.5 -82.62 309.03
-82.5 -49.5 -82.62 310.04
-82.5 -48.5 -82.62 311.06
-82.5 -47.5 -82.62 312.08
-82.5 -46.5 -82.63 313.09
-82.5 -45.5 -82.63 314.1
-82.5 -44.5 -82.64 315.12
-82.5 -43.5 -82.64 316.13
-82.5 -42.5 -82.65 317.14
-82.5 -41.5 -82.65 318.15
-82.5 -40.5 -82.66 319.16
-82.5 -39.5 -82.67 320.16
-82.5 -38.5 -82.68 321.16
-82.5 -37.5 -82.69 322.16
-82.5 -36.5 -82.7 323.16
-82.5 -35.5 -82.71 324.15
-82.5 -34.5 -82.72 325.14
-82.5 -33.5 -82.73 326.13
-82.5 -32.5 -82.75 327.11
-82.5 -31.5 -82.77 328.09
-82.5 -30.5 -82.78 329.05
-82.5 -29.5 -82.8 330.02
-82.5 -28.5 -82.82 330.98
-82.5 -27.5 -82.83 331.98
-82.5 -26.5 -82.83 332.99
-82.5 -25.5 -82.83 334.01
-82.5 -24.5 -82.83 335.03
-82.5 -23.5 -82.84 336.06
-82.5 -22.5 -82.84 337.08
-82.5 -21.5 -82.84 338.1
-82.5 -20.5 -82.84 339.13
-82.5 -19.5 -82.85 340.15
-82.5 -18.5 -82.85 341.18
-82.5 -17.5 -82.85 342.21
-82.5 -16.5 -82.86 343.25
-82.5 -15.5 -82.86 344.28
-82.5 -14.5 -82.87 345.32
-82.5 -13.5 -82.87 346.35
-82.5 -12.5 -82.87 347.39
-82.5 -11.5 -82.88 348.43
-82.5 -10.5 -82.88 349.48
-82.5 -9.5 -82.89 350.52
-82.5 -8.5 -82.89 351.57
-82.5 -7.5 -82.9 352.62
-82.5 -6.5 -82.9 353.67
-82.5 -5.5 -82.9 354.72
-82.5 -4.5 -82.91 355.78
-82.5 -3.5 -82.91 356.83
-82.5 -2.5 -82.92 357.89
-82.5 -1.5 -82.92 358.95
-82.5 -0.5 -82.92 0.01
-82.5 0.5 -82.93 1.07
-82.5 1.5 -82.93 2.14
-82.5 2.5 -82.93 3.2
-82.5 3.5 -82.93 4.27
-82.5 4.5 -82.93 5.33
-82.5 5.5 -82.93 6.4
-82.5 6.5 -82.93 7.47
-82.5 7.5 -82.93 8.53
-82.5 8.5 -82.93 9.6
-82.5 9.5 -82.93 10.67
-82.5 10.5 -82.93 11.74
-82.5 11.5 -82.93 12.81
-82.5 12.5 -82.92 13.87
-82.5 13.5 -82.92 14.94
-82.5 14.5 -82.91 16.01
-82.5 15.5 -82.91 17.08
-82.5 16.5 -82.91 18.14
-82.5 17.5 -82.91 19.2
-82.5 18.5 -82.91 20.27
-82.5 19.5 -82.91 21.33
-82.5 20.5 -82.9 22.38
-82.5 21.5 -82.9 23.44
-82.5 22.5 -82.9 24.49
-82.5 23.5 -82.89 25.54
-82.5 24.5 -82.89 26.59
-82.5 25.5 -82.88 27.64
-82.5 26.5 -82.88 28.68
-82.5 27.5 -82.87 29.72
-82.5 28.5 -82.86 30.76
-82.5 29.5 -82.86 31.8
-82.5 30.5 -82.85 32.83
-82.5 31.5 -82.84 33.87
-82.5 32.5 -82.83 34.9
-82.5 33.5 -82.82 35.92
-82.5 34.5 -82.81 36.95
-82.5 35.5 -82.8 37.97
-82.5 36.5 -82.79 38.99
-82.5 37.5 -82.78 40.01
-82.5 38.5 -82.77 41.03
-82.5 39.5 -82.75 42.04
-82.5 40.5 -82.74 43.05
-82.5 41.5 -82.73 44.06
-82.5 42.5 -82.71 45.07
-82.5 43.5 -82.7 46.07
-82.5 44.5 -82.69 47.07
-82.5 45.5 -82.67 48.07
-82.5 46.5 -82.66 49.06
-82.5 47.5 -82.65 50.06
-82.5 48.5 -82.63 51.05
-82.5 49.5 -82.62 52.03
-82.5 50.5 -82.6 53.02
-82.5 51.5 -82.59 54.0
-82.5 52.5 -82.57 54.98
-82.5 53.5 -82.56 55.95
-82.5 54.5 -82.55 56.93
-82.5 55.5 -82.53 57.9
-82.5 56.5 -82.52 58.87
-82.5 57.5 -82.5 59.83
-82.5 58.5 -82.49 60.79
-82.5 59.5 -82.48 61.75
-82.5 60.5 -82.47 62.71
-82.5 61.5 -82.46 63.56
-82.5 62.5 -82.45 64.39
-82.5 63.5 -82.45 65.24
-82.5 64.5 -82.45 66.11
-82.5 65.5 -82.45 67.0
-82.5 66.5 -82.45 67.89
-82.5 67.5 -82.45 68.8
-82.5 68.5 -82.45 69.72
-82.5 69.5 -82.45 70.65
-82.5 70.5 -82.45 71.59
-82.5 71.5 -82.46 72.53
-82.5 72.5 -82.46 73.48
-82.5 73.5 -82.46 74.42
-82.5 74.5 -82.47 75.36
-82.5 75.5 -82.48 76.31
-82.5 76.5 -82.49 77.26
-82.5 77.5 -82.49 78.21
-82.5 78.5 -82.5 79.17
-82.5 79.5 -82.5 80.13
-82.5 80.5 -82.51 81.1
-82.5 81.5 -82.51 82.06
-82.5 82.5 -82.52 83.03
-82.5 83.5 -82.52 84.0
-82.5 84.5 -82.52 84.97
-82.5 85.5 -82.53 85.95
-82.5 86.5 -82.53 86.92
-82.5 87.5 -82.53 87.9
-82.5 88.5 -82.54 88.88
-82.5 89.5 -82.54 89.86
-82.5 90.5 -82.54 90.84
-82.5 91.5 -82.54 91.82
-82.5 92.5 -82.54 92.81
-82.5 93.5 -82.55 93.79
-82.5 94.5 -82.55 94.78
-82.5 95.5 -82.55 95.76
-82.5 96.5 -82.55 96.75
-82.5 97.5 -82.55 97.74
-82.5 98.5 -82.55 98.73
-82.5 99.5 -82.55 99.72
-82.5 100.5 -82.56 100.71
-82.5 101.5 -82.56 101.7
-82.5 102.5 -82.56 102.69
-82.5 103.5 -82.56 103.68
-82.5 104.5 -82.56 104.67
-82.5 105.5 -82.56 105.66
-82.5 106.5 -82.56 106.66
-82.5 107.5 -82.56 107.65
-82.5 108.5 -82.56 108.64
-82.5 109.5 -82.56 109.64
-82.5 110.5 -82.56 110.63
-82.5 111.5 -82.56 111.63
-82.5 112.5 -82.56 112.62
-82.5 113.5 -82.56 113.62
-82.5 114.5 -82.56 114.61
-82.5 115.5 -82.56 115.61
-82.5 116.5 -82.56 116.6
-82.5 117.5 -82.56 117.6
-82.5 118.5 -82.56 118.6
-82.5 119.5 -82.56 119.59
-82.5 120.5 -82.56 120.59
-82.5 121.5 -82.56 121.59
-82.5 122.5 -82.56 122.59
-82.5 123.5 -82.56 123.58
-82.5 124.5 -82.56 124.58
-82.5 125.5 -82.56 125.58
-82.5 126.5 -82.56 126.58
-82.5 127.5 -82.56 127.57
-82.5 128.5 -82.56 128.57
-82.5 129.5 -82.56 129.57
-82.5 130.5 -82.56 130.57
-82.5 131.5 -82.56 131.56
-82.5 132.5 -82.56 132.56
-82.5 133.5 -82.56 133.56
-82.5 134.5 -82.56 134.56
-82.5 135.5 -82.56 135.56
-82.5 136.5 -82.56 136.55
-82.5 137.5 -82.56 137.55
-82.5 138.5 -82.56 138.55
-82.5 139.5 -82.56 139.55
-82.5 140.5 -82.56 140.54
-82.5 141.5 -82.56 141.54
-82.5 142.5 -82.56 142.54
-82.5 143.5 -82.56 143.54
-82.5 144.5 -82.56 144.53
-82.5 145.5 -82.56 145.53
-82.5 146.5 -82.56 146.53
-82.5 147.5 -82.56 147.53
-82.5 148.5 -82.56 148.52
-82.5 149.5 -82.56 149.52
-82.5 150.5 -82.56 150.51
-82.5 151.5 -82.56 151.51
-82.5 152.5 -82.56 152.51
-82.5 153.5 -82.56 153.5
-82.5 154.5 -82.56 154.49
-82.5 155.5 -82.56 155.49
-82.5 156.5 -82.56 156.48
-82.5 157.5 -82.56 157.48
-82.5 158.5 -82.56 158.48
-82.5 159.5 -82.56 159.47
-82.5 160.5 -82.56 160.47
-82.5 161.5 -82.56 161.47
-82.5 162.5 -82.56 162.46
-82.5 163.5 -82.56 163.46
-82.5 164.5 -82.56 164.46
-82.5 165.5 -82.56 165.46
-82.5 166.5 -82.56 166.46
-82.5 167.5 -82.57 167.46
-82.5 168.5 -82.57 168.46
-82.5 169.5 -82.57 169.46
-82.5 170.5 -82.57 170.46
-82.5 171.5 -82.57 171.46
-82.5 172.5 -82.57 172.46
-82.5 173.5 -82.57 173.46
-82.5 174.5 -82.57 174.46
-82.5 175.5 -82.57 175.46
-82.5 176.5 -82.57 176.47
-82.5 177.5 -82.57 177.47
-82.5 178.5 -82.57 178.47
-82.5 179.5 -82.57 179.47
-81.5 -179.5 -81.55 180.52
-81.5 -178.5 -81.55 181.52
-81.5 -177.5 -81.55 182.52
-81.5 -176.5 -81.55 183.52
-81.5 -175.5 -81.55 184.52
-81.5 -174.5 -81.55 185.51
-81.5 -173.5 -81.55 186.51
-81.5 -172.5 -81.55 187.5
-81.5 -171.5 -81.55 188.5
-81.5 -170.5 -81.55 189.5
-81.5 -169.5 -81.55 190.49
-81.5 -168.5 -81.55 191.49
-81.5 -167.5 -81.55 192.49
-81.5 -166.5 -81.56 193.49
-81.5 -165.5 -81.56 194.49
-81.5 -164.5 -81.56 195.49
-81.5 -163.5 -81.56 196.48
-81.5 -162.5 -81.56 197.48
-81.5 -161.5 -81.56 198.48
-81.5 -160.5 -81.56 199.48
-81.5 -159.5 -81.56 200.48
-81.5 -158.5 -81.56 201.48
-81.5 -157.5 -81.56 202.48
-81.5 -156.5 -81.56 203.48
-81.5 -155.5 -81.56 204.48
-81.5 -154.5 -81.56 205.48
-81.5 -153.5 -81.56 206.49
-81.5 -152.5 -81.56 207.49
-81.5 -151.5 -81.56 208.49
-81.5 -150.5 -81.56 209.49
-81.5 -149.5 -81.56 210.49
-81.5 -148.5 -81.56 211.49
-81.5 -147.5 -81.56 212.49
-81.5 -146.5 -81.56 213.49
-81.5 -145.5 -81.56 214.49
-81.5 -144.5 -81.56 215.49
-81.5 -143.5 -81.55 216.49
-81.5 -142.5 -81.55 217.49
-81.5 -141.5 -81.55 218.49
-81.5 -140.5 -81.55 219.49
-81.5 -139.5 -81.55 220.49
-81.5 -138.5 -81.55 221.49
-81.5 -137.5 -81.55 222.49
-81.5 -136.5 -81.55 223.49
-81.5 -135.5 -81.55 224.49
-81.5 -134.5 -81.55 225.49
-81.5 -133.5 -81.55 226.49
-81.5 -132.5 -81.55 227.49
-81.5 -131.5 -81.55 228.49
-81.5 -130.5 -81.55 229.49
-81.5 -129.5 -81.55 230.49
-81.5 -128.5 -81.55 231.48
-81.5 -127.5 -81.55 232.48
-81.5 -126.5 -81.55 233.48
-81.5 -125.5 -81.55 234.48
-81.5 -124.5 -81.55 235.48
-81.5 -123.5 -81.55 236.48
-81.5 -122.5 -81.55 237.48
-81.5 -121.5 -81.55 238.47
-81.5 -120.5 -81.55 239.47
-81.5 -119.5 -81.55 240.47
-81.5 -118.5 -81.55 241.47
-81.5 -117.5 -81.55 242.47
-81.5 -116.5 -81.55 243.47
-81.5 -115.5 -81.55 244.46
-81.5 -114.5 -81.55 245.46
-81.5 -113.5 -81.55 246.46
-81.5 -112.5 -81.55 247.46
-81.5 -111.5 -81.55 248.46
-81.5 -110.5 -81.55 249.46
-81.5 -109.5 -81.55 250.45
-81.5 -108.5 -81.55 251.45
-81.5 -107.5 -81.55 252.45
-81.5 -106.5 -81.55 253.45
-81.5 -105.5 -81.55 254.45
-81.5 -104.5 -81.55 255.45
-81.5 -103.5 -81.55 256.44
-81.5 -102.5 -81.55 257.44
-81.5 -101.5 -81.56 258.44
-81.5 -100.5 -81.56 259.44
-81.5 -99.5 -81.56 260.44
-81.5 -98.5 -81.56 261.43
-81.5 -97.5 -81.56 262.43
-81.5 -96.5 -81.56 263.43
-81.5 -95.5 -81.56 264.43
-81.5 -94.5 -81.56 265.42
-81.5 -93.5 -81.56 266.42
-81.5 -92.5 -81.56 267.41
-81.5 -91.5 -81.56 268.41
-81.5 -90.5 -81.56 269.4
-81.5 -89.5 -81.56 270.4
-81.5 -88.5 -81.56 271.39
-81.5 -87.5 -81.56 272.38
-81.5 -86.5 -81.56 273.37
-81.5 -85.5 -81.56 274.36
-81.5 -84.5 -81.56 275.35
-81.5 -83.5 -81.56 276.34
-81.5 -82.5 -81.56 277.32
-81.5 -81.5 -81.56 278.31
-81.5 -80.5 -81.56 279.29
-81.5 -79.5 -81.56 280.27
-81.5 -78.5 -81.56 281.25
-81.5 -77.5 -81.56 282.22
-81.5 -76.5 -81.56 283.2
-81.5 -75.5 -81.56 284.18
-81.5 -74.5 -81.56 285.19
-81.5 -73.5 -81.56 286.2
-81.5 -72.5 -81.57 287.21
-81.5 -71.5 -81.57 288.22
-81.5 -70.5 -81.57 289.23
-81.5 -69.5 -81.57 290.24
-81.5 -68.5 -81.57 291.24
-81.5 -67.5 -81.57 292.25
-81.5 -66.5 -81.57 293.26
-81.5 -65.5 -81.57 294.27
-81.5 -64.5 -81.58 295.28
-81.5 -63.5 -81.58 296.28
-81.5 -62.5 -81.58 297.29
-81.5 -61.5 -81.58 298.29
-81.5 -60.5 -81.58 299.29
-81.5 -59.5 -81.59 300.3
-81.5 -58.5 -81.59 301.3
-81.5 -57.5 -81.59 302.29
-81.5 -56.5 -81.6 303.29
-81.5 -55.5 -81.6 304.28
-81.5 -54.5 -81.6 305.27
-81.5 -53.5 -81.61 306.25
-81.5 -52.5 -81.61 307.23
-81.5 -51.5 -81.61 308.21
-81.5 -50.5 -81.62 309.18
-81.5 -49.5 -81.62 310.15
-81.5 -48.5 -81.63 311.11
-81.5 -47.5 -81.63 312.06
-81.5 -46.5 -81.64 313.01
-81.5 -45.5 -81.64 313.95
-81.5 -44.5 -81.65 314.94
-81.5 -43.5 -81.65 315.95
-81.5 -42.5 -81.65 316.97
-81.5 -41.5 -81.65 317.98
-81.5 -40.5 -81.65 319.0
-81.5 -39.5 -81.65 320.01
-81.5 -38.5 -81.65 321.03
-81.5 -37.5 -81.65 322.04
-81.5 -36.5 -81.65 323.06
-81.5 -35.5 -81.65 324.08
-81.5 -34.5 -81.65 325.09
-81.5 -33.5 -81.66 326.11
-81.5 -32.5 -81.66 327.13
-81.5 -31.5 -81.66 328.14
-81.5 -30.5 -81.66 329.16
-81.5 -29.5 -81.67 330.18
-81.5 -28.5 -81.67 331.2
-81.5 -27.5 -81.68 332.21
-81.5 -26.5 -81.68 333.23
-81.5 -25.5 -81.69 334.25
-81.5 -24.5 -81.69 335.27
-81.5 -23.5 -81.7 336.29
-81.5 -22.5 -81.7 337.31
-81.5 -21.5 -81.71 338.33
-81.5 -20.5 -81.72 339.35
-81.5 -19.5 -81.73 340.38
-81.5 -18.5 -81.74 341.4
-81.5 -17.5 -81.75 342.43
-81.5 -16.5 -81.76 343.46
-81.5 -15.5 -81.77 344.48
-81.5 -14.5 -81.78 345.51
-81.5 -13.5 -81.79 346.55
-81.5 -12.5 -81.8 347.58
-81.5 -11.5 -81.81 348.62
-81.5 -10.5 -81.82 349.66
-81.5 -9.5 -81.84 350.71
-81.5 -8.5 -81.85 351.75
-81.5 -7.5 -81.86 352.8
-81.5 -6.5 -81.87 353.86
-81.5 -5.5 -81.89 354.91
-81.5 -4.5 -81.9 355.97
-81.5 -3.5 -81.91 357.04
-81.5 -2.5 -81.92 358.1
-81.5 -1.5 -81.93 359.17
-81.5 -0.5 -81.93 0.22
-81.5 0.5 -81.93 1.27
-81.5 1.5 -81.93 2.33
-81.5 2.5 -81.93 3.38
-81.5 3.5 -81.93 4.44
-81.5 4.5 -81.93 5.5
-81.5 5.5 -81.92 6.56
-81.5 6.5 -81.92 7.62
-81.5 7.5 -81.92 8.68
-81.5 8.5 -81.91 9.74
-81.5 9.5 -81.91 10.8
-81.5 10.5 -81.9 11.87
-81.5 11.5 -81.9 12.93
-81.5 12.5 -81.89 14.0
-81.5 13.5 -81.88 15.06
-81.5 14.5 -81.87 16.13
-81.5 15.5 -81.86 17.2
-81.5 16.5 -81.86 18.26
-81.5 17.5 -81.84 19.33
-81.5 18.5 -81.84 20.4
-81.5 19.5 -81.83 21.46
-81.5 20.5 -81.82 22.49
-81.5 21.5 -81.8 23.48
-81.5 22.5 -81.79 24.46
-81.5 23.5 -81.77 25.44
-81.5 24.5 -81.76 26.41
-81.5 25.5 -81.74 27.38
-81.5 26.5 -81.73 28.34
-81.5 27.5 -81.72 29.3
-81.5 28.5 -81.7 30.26
-81.5 29.5 -81.69 31.22
-81.5 30.5 -81.68 32.18
-81.5 31.5 -81.67 33.14
-81.5 32.5 -81.67 34.1
-81.5 33.5 -81.66 35.06
-81.5 34.5 -81.65 36.03
-81.5 35.5 -81.65 37.0
-81.5 36.5 -81.64 37.98
-81.5 37.5 -81.64 38.95
-81.5 38.5 -81.64 39.94
-81.5 39.5 -81.64 40.92
-81.5 40.5 -81.64 41.92
-81.5 41.5 -81.64 42.93
-81.5 42.5 -81.64 43.92
-81.5 43.5 -81.64 44.92
-81.5 44.5 -81.64 45.9
-81.5 45.5 -81.63 46.88
-81.5 46.5 -81.63 47.87
-81.5 47.5 -81.62 48.85
-81.5 48.5 -81.62 49.83
-81.5 49.5 -81.61 50.8
-81.5 50.5 -81.61 51.78
-81.5 51.5 -81.6 52.76
-81.5 52.5 -81.6 53.74
-81.5 53.5 -81.59 54.73
-81.5 54.5 -81.58 55.71
-81.5 55.5 -81.58 56.69
-81.5 56.5 -81.57 57.67
-81.5 57.5 -81.56 58.65
-81.5 58.5 -81.56 59.64
-81.5 59.5 -81.55 60.62
-81.5 60.5 -81.54 61.6
-81.5 61.5 -81.54 62.59
-81.5 62.5 -81.53 63.57
-81.5 63.5 -81.52 64.55
-81.5 64.5 -81.51 65.53
-81.5 65.5 -81.51 66.51
-81.5 66.5 -81.5 67.49
-81.5 67.5 -81.49 68.47
-81.5 68.5 -81.48 69.45
-81.5 69.5 -81.48 70.43
-81.5 70.5 -81.48 71.41
-81.5 71.5 -81.48 72.38
-81.5 72.5 -81.48 73.35
-81.5 73.5 -81.48 74.33
-81.5 74.5 -81.48 75.3
-81.5 75.5 -81.48 76.27
-81.5 76.5 -81.48 77.24
-81.5 77.5 -81.48 78.21
-81.5 78.5 -81.48 79.19
-81.5 79.5 -81.48 80.16
-81.5 80.5 -81.48 81.13
-81.5 81.5 -81.47 82.1
-81.5 82.5 -81.47 83.07
-81.5 83.5 -81.47 84.04
-81.5 84.5 -81.47 85.01
-81.5 85.5 -81.47 85.98
-81.5 86.5 -81.47 86.95
-81.5 87.5 -81.47 87.92
-81.5 88.5 -81.47 88.89
-81.5 89.5 -81.47 89.86
-81.5 90.5 -81.47 90.84
-81.5 91.5 -81.47 91.81
-81.5 92.5 -81.47 92.78
-81.5 93.5 -81.47 93.75
-81.5 94.5 -81.48 94.72
-81.5 95.5 -81.48 95.69
-81.5 96.5 -81.49 96.66
-81.5 97.5 -81.49 97.63
-81.5 98.5 -81.49 98.61
-81.5 99.5 -81.5 99.59
-81.5 100.5 -81.5 100.57
-81.5 101.5 -81.51 101.55
-81.5 102.5 -81.51 102.54
-81.5 103.5 -81.51 103.52
-81.5 104.5 -81.52 104.51
-81.5 105.5 -81.52 105.5
-81.5 106.5 -81.52 106.49
-81.5 107.5 -81.53 107.48
-81.5 108.5 -81.53 108.47
-81.5 109.5 -81.53 109.46
-81.5 110.5 -81.53 110.45
-81.5 111.5 -81.54 111.45
-81.5 112.5 -81.54 112.44
-81.5 113.5 -81.54 113.44
-81.5 114.5 -81.54 114.44
-81.5 115.5 -81.54 115.43
-81.5 116.5 -81.55 116.43
-81.5 117.5 -81.55 117.43
-81.5 118.5 -81.55 118.43
-81.5 119.5 -81.55 119.43
-81.5 120.5 -81.55 120.42
-81.5 121.5 -81.55 121.42
-81.5 122.5 -81.55 122.42
-81.5 123.5 -81.56 123.42
-81.5 124.5 -81.56 124.42
-81.5 125.5 -81.56 125.42
-81.5 126.5 -81.56 126.43
-81.5 127.5 -81.56 127.43
-81.5 128.5 -81.56 128.43
-81.5 129.5 -81.56 129.43
-81.5 130.5 -81.56 130.43
-81.5 131.5 -81.56 131.43
-81.5 132.5 -81.56 132.43
-81.5 133.5 -81.56 133.43
-81.5 134.5 -81.56 134.44
-81.5 135.5 -81.56 135.44
-81.5 136.5 -81.57 136.44
-81.5 137.5 -81.57 137.44
-81.5 138.5 -81.57 138.44
-81.5 139.5 -81.57 139.45
-81.5 140.5 -81.57 140.45
-81.5 141.5 -81.57 141.45
-81.5 142.5 -81.57 142.45
-81.5 143.5 -81.57 143.46
-81.5 144.5 -81.57 144.46
-81.5 145.5 -81.57 145.46
-81.5 146.5 -81.57 146.46
-81.5 147.5 -81.57 147.47
-81.5 148.5 -81.57 148.47
-81.5 149.5 -81.57 149.47
-81.5 150.5 -81.57 150.47
-81.5 151.5 -81.57 151.47
-81.5 152.5 -81.57 152.48
-81.5 153.5 -81.57 153.48
-81.5 154.5 -81.57 154.48
-81.5 155.5 -81.57 155.48
-81.5 156.5 -81.57 156.49
-81.5 157.5 -81.57 157.49
-81.5 158.5 -81.56 158.49
-81.5 159.5 -81.56 159.49
-81.5 160.5 -81.56 160.5
-81.5 161.5 -81.56 161.5
-81.5 162.5 -81.56 162.5
-81.5 163.5 -81.56 163.5
-81.5 164.5 -81.56 164.5
-81.5 165.5 -81.56 165.5
-81.5 166.5 -81.56 166.51
-81.5 167.5 -81.56 167.51
-81.5 168.5 -81.56 168.51
-81.5 169.5 -81.56 169.51
-81.5 170.5 -81.56 170.51
-81.5 171.5 -81.56 171.52
-81.5 172.5 -81.56 172.52
-81.5 173.5 -81.56 173.52
-81.5 174.5 -81.56 174.52
-81.5 175.5 -81.56 175.52
-81.5 176.5 -81.56 176.52
-81.5 177.5 -81.56 177.52
-81.5 178.5 -81.55 178.52
-81.5 179.5 -81.55 179.52
-80.5 -179.5 -80.56 180.48
-80.5 -178.5 -80.56 181.48
-80.5 -177.5 -80.56 182.48
-80.5 -176.5 -80.56 183.49
-80.5 -175.5 -80.56 184.49
-80.5 -174.5 -80.56 185.49
-80.5 -173.5 -80.56 186.49
-80.5 -172.5 -80.55 187.49
-80.5 -171.5 -80.55 188.49
-80.5 -170.5 -80.55 189.5
-80.5 -169.5 -80.55 190.5
-80.5 -168.5 -80.55 191.5
-80.5 -167.5 -80.55 192.5
-80.5 -166.5 -80.55 193.5
-80.5 -165.5 -80.55 194.5
-80.5 -164.5 -80.55 195.5
-80.5 -163.5 -80.55 196.5
-80.5 -162.5 -80.55 197.51
-80.5 -161.5 -80.55 198.51
-80.5 -160.5 -80.55 199.51
-80.5 -159.5 -80.55 200.51
-80.5 -158.5 -80.55 201.51
-80.5 -157.5 -80.55 202.51
-80.5 -156.5 -80.55 203.51
-80.5 -155.5 -80.55 204.51
-80.5 -154.5 -80.55 205.51
-80.5 -153.5 -80.55 206.51
-80.5 -152.5 -80.54 207.51
-80.5 -151.5 -80.54 208.51
-80.5 -150.5 -80.54 209.51
-80.5 -149.5 -80.54 210.5
-80.5 -148.5 -80.54 211.5
-80.5 -147.5 -80.54 212.5
-80.5 -146.5 -80.54 213.5
-80.5 -145.5 -80.54 214.5
-80.5 -144.5 -80.55 215.49
-80.5 -143.5 -80.55 216.49
-80.5 -142.5 -80.55 217.49
-80.5 -141.5 -80.55 218.49
-80.5 -140.5 -80.55 219.49
-80.5 -139.5 -80.55 220.49
-80.5 -138.5 -80.55 221.49
-80.5 -137.5 -80.55 222.49
-80.5 -136.5 -80.55 223.49
-80.5 -135.5 -80.55 224.49
-80.5 -134.5 -80.55 225.48
-80.5 -133.5 -80.55 226.48
-80.5 -132.5 -80.55 227.48
-80.5 -131.5 -80.55 228.48
-80.5 -130.5 -80.55 229.48
-80.5 -129.5 -80.55 230.48
-80.5 -128.5 -80.55 231.48
-80.5 -127.5 -80.55 232.48
-80.5 -126.5 -80.55 233.48
-80.5 -125.5 -80.55 234.48
-80.5 -124.5 -80.55 235.48
-80.5 -123.5 -80.55 236.48
-80.5 -122.5 -80.55 237.48
-80.5 -121.5 -80.55 238.48
-80.5 -120.5 -80.55 239.47
-80.5 -119.5 -80.55 240.47
-80.5 -118.5 -80.55 241.47
-80.5 -117.5 -80.55 242.47
-80.5 -116.5 -80.55 243.47
-80.5 -115.5 -80.55 244.47
-80.5 -114.5 -80.55 245.47
-80.5 -113.5 -80.55 246.47
-80.5 -112.5 -80.55 247.46
-80.5 -111.5 -80.55 248.46
-80.5 -110.5 -80.55 249.46
-80.5 -109.5 -80.55 250.46
-80.5 -108.5 -80.55 251.46
-80.5 -107.5 -80.55 252.45
-80.5 -106.5 -80.55 253.45
-80.5 -105.5 -80.55 254.45
-80.5 -104.5 -80.55 255.44
-80.5 -103.5 -80.55 256.44
-80.5 -102.5 -80.55 257.44
-80.5 -101.5 -80.55 258.43
-80.5 -100.5 -80.55 259.43
-80.5 -99.5 -80.55 260.42
-80.5 -98.5 -80.55 261.42
-80.5 -97.5 -80.55 262.41
-80.5 -96.5 -80.55 263.41
-80.5 -95.5 -80.55 264.4
-80.5 -94.5 -80.55 265.39
-80.5 -93.5 -80.55 266.38
-80.5 -92.5 -80.54 267.37
-80.5 -91.5 -80.54 268.36
-80.5 -90.5 -80.54 269.36
-80.5 -89.5 -80.55 270.36
-80.5 -88.5 -80.55 271.37
-80.5 -87.5 -80.55 272.37
-80.5 -86.5 -80.55 273.37
-80.5 -85.5 -80.55 274.38
-80.5 -84.5 -80.55 275.38
-80.5 -83.5 -80.55 276.38
-80.5 -82.5 -80.55 277.38
-80.5 -81.5 -80.55 278.39
-80.5 -80.5 -80.55 279.39
-80.5 -79.5 -80.56 280.39
-80.5 -78.5 -80.56 281.4
-80.5 -77.5 -80.56 282.4
-80.5 -76.5 -80.56 283.4
-80.5 -75.5 -80.56 284.4
-80.5 -74.5 -80.56 285.4
-80.5 -73.5 -80.56 286.4
-80.5 -72.5 -80.56 287.4
-80.5 -71.5 -80.57 288.39
-80.5 -70.5 -80.57 289.39
-80.5 -69.5 -80.57 290.38
-80.5 -68.5 -80.57 291.38
-80.5 -67.5 -80.57 292.37
-80.5 -66.5 -80.57 293.36
-80.5 -65.5 -80.57 294.34
-80.5 -64.5 -80.57 295.33
-80.5 -63.5 -80.58 296.31
-80.5 -62.5 -80.58 297.28
-80.5 -61.5 -80.58 298.26
-80.5 -60.5 -80.58 299.23
-80.5 -59.5 -80.58 300.2
-80.5 -58.5 -80.58 301.16
-80.5 -57.5 -80.58 302.18
-80.5 -56.5 -80.58 303.19
-80.5 -55.5 -80.58 304.2
-80.5 -54.5 -80.58 305.21
-80.5 -53.5 -80.58 306.23
-80.5 -52.5 -80.59 307.24
-80.5 -51.5 -80.59 308.25
-80.5 -50.5 -80.59 309.26
-80.5 -49.5 -80.59 310.27
-80.5 -48.5 -80.59 311.28
-80.5 -47.5 -80.59 312.29
-80.5 -46.5 -80.59 313.3
-80.5 -45.5 -80.6 314.3
-80.5 -44.5 -80.6 315.31
-80.5 -43.5 -80.6 316.31
-80.5 -42.5 -80.61 317.31
-80.5 -41.5 -80.61 318.31
-80.5 -40.5 -80.61 319.31
-80.5 -39.5 -80.62 320.3
-80.5 -38.5 -80.62 321.29
-80.5 -37.5 -80.63 322.28
-80.5 -36.5 -80.63 323.27
-80.5 -35.5 -80.64 324.25
-80.5 -34.5 -80.65 325.23
-80.5 -33.5 -80.65 326.21
-80.5 -32.5 -80.66 327.18
-80.5 -31.5 -80.67 328.15
-80.5 -30.5 -80.68 329.11
-80.5 -29.5 -80.69 330.09
-80.5 -28.5 -80.69 331.1
-80.5 -27.5 -80.69 332.11
-80.5 -26.5 -80.69 333.12
-80.5 -25.5 -80.69 334.14
-80.5 -24.5 -80.69 335.15
-80.5 -23.5 -80.69 336.16
-80.5 -22.5 -80.69 337.18
-80.5 -21.5 -80.69 338.19
-80.5 -20.5 -80.69 339.2
-80.5 -19.5 -80.7 340.22
-80.5 -18.5 -80.7 341.23
-80.5 -17.5 -80.7 342.25
-80.5 -16.5 -80.7 343.27
-80.5 -15.5 -80.7 344.28
-80.5 -14.5 -80.7 345.3
-80.5 -13.5 -80.71 346.32
-80.5 -12.5 -80.71 347.33
-80.5 -11.5 -80.71 348.35
-80.5 -10.5 -80.71 349.37
-80.5 -9.5 -80.72 350.39
-80.5 -8.5 -80.72 351.41
-80.5 -7.5 -80.72 352.43
-80.5 -6.5 -80.72 353.46
-80.5 -5.5 -80.73 354.48
-80.5 -4.5 -80.73 355.5
-80.5 -3.5 -80.73 356.52
-80.5 -2.5 -80.73 357.55
-80.5 -1.5 -80.74 358.57
-80.5 -0.5 -80.74 359.6
-80.5 0.5 -80.74 0.63
-80.5 1.5 -80.74 1.65
-80.5 2.5 -80.74 2.68
-80.5 3.5 -80.74 3.71
-80.5 4.5 -80.74 4.73
-80.5 5.5 -80.74 5.76
-80.5 6.5 -80.75 6.79
-80.5 7.5 -80.75 7.82
-80.5 8.5 -80.74 8.85
-80.5 9.5 -80.74 9.87
-80.5 10.5 -80.74 10.9
-80.5 11.5 -80.74 11.93
-80.5 12.5 -80.74 12.96
-80.5 13.5 -80.74 13.99
-80.5 14.5 -80.74 15.02
-80.5 15.5 -80.73 16.05
-80.5 16.5 -80.73 17.08
-80.5 17.5 -80.73 18.11
-80.5 18.5 -80.72 19.14
-80.5 19.5 -80.72 20.17
-80.5 20.5 -80.71 21.2
-80.5 21.5 -80.71 22.23
-80.5 22.5 -80.7 23.26
-80.5 23.5 -80.7 24.29
-80.5 24.5 -80.69 25.32
-80.5 25.5 -80.69 26.35
-80.5 26.5 -80.68 27.39
-80.5 27.5 -80.68 28.41
-80.5 28.5 -80.68 29.44
-80.5 29.5 -80.68 30.47
-80.5 30.5 -80.67 31.5
-80.5 31.5 -80.67 32.53
-80.5 32.5 -80.66 33.56
-80.5 33.5 -80.66 34.59
-80.5 34.5 -80.65 35.61
-80.5 35.5 -80.65 36.64
-80.5 36.5 -80.64 37.67
-80.5 37.5 -80.63 38.69
-80.5 38.5 -80.63 39.72
-80.5 39.5 -80.62 40.74
-80.5 40.5 -80.61 41.76
-80.5 41.5 -80.6 42.78
-80.5 42.5 -80.59 43.8
-80.5 43.5 -80.59 44.82
-80.5 44.5 -80.58 45.83
-80.5 45.5 -80.57 46.85
-80.5 46.5 -80.56 47.86
-80.5 47.5 -80.55 48.87
-80.5 48.5 -80.54 49.88
-80.5 49.5 -80.53 50.89
-80.5 50.5 -80.51 51.89
-80.5 51.5 -80.5 52.89
-80.5 52.5 -80.49 53.86
-80.5 53.5 -80.48 54.76
-80.5 54.5 -80.48 55.68
-80.5 55.5 -80.47 56.6
-80.5 56.5 -80.47 57.53
-80.5 57.5 -80.47 58.48
-80.5 58.5 -80.47 59.43
-80.5 59.5 -80.47 60.39
-80.5 60.5 -80.46 61.34
-80.5 61.5 -80.46 62.3
-80.5 62.5 -80.46 63.25
-80.5 63.5 -80.46 64.21
-80.5 64.5 -80.47 65.17
-80.5 65.5 -80.47 66.14
-80.5 66.5 -80.48 67.1
-80.5 67.5 -80.48 68.07
-80.5 68.5 -80.49 69.04
-80.5 69.5 -80.49 70.01
-80.5 70.5 -80.49 70.98
-80.5 71.5 -80.5 71.96
-80.5 72.5 -80.5 72.94
-80.5 73.5 -80.5 73.91
-80.5 74.5 -80.51 74.89
-80.5 75.5 -80.51 75.88
-80.5 76.5 -80.51 76.86
-80.5 77.5 -80.51 77.84
-80.5 78.5 -80.52 78.83
-80.5 79.5 -80.52 79.81
-80.5 80.5 -80.52 80.8
-80.5 81.5 -80.52 81.78
-80.5 82.5 -80.52 82.77
-80.5 83.5 -80.52 83.76
-80.5 84.5 -80.53 84.74
-80.5 85.5 -80.53 85.73
-80.5 86.5 -80.53 86.72
-80.5 87.5 -80.53 87.71
-80.5 88.5 -80.53 88.7
-80.5 89.5 -80.53 89.69
-80.5 90.5 -80.53 90.68
-80.5 91.5 -80.53 91.67
-80.5 92.5 -80.53 92.66
-80.5 93.5 -80.53 93.65
-80.5 94.5 -80.54 94.64
-80.5 95.5 -80.54 95.63
-80.5 96.5 -80.54 96.63
-80.5 97.5 -80.54 97.62
-80.5 98.5 -80.54 98.61
-80.5 99.5 -80.54 99.6
-80.5 100.5 -80.54 100.6
-80.5 101.5 -80.54 101.59
-80.5 102.5 -80.54 102.58
-80.5 103.5 -80.54 103.58
-80.5 104.5 -80.54 104.57
-80.5 105.5 -80.54 105.56
-80.5 106.5 -80.54 106.56
-80.5 107.5 -80.55 107.55
-80.5 108.5 -80.55 108.55
-80.5 109.5 -80.55 109.55
-80.5 110.5 -80.55 110.54
-80.5 111.5 -80.55 111.54
-80.5 112.5 -80.55 112.53
-80.5 113.5 -80.55 113.53
-80.5 114.5 -80.55 114.53
-80.5 115.5 -80.55 115.52
-80.5 116.5 -80.55 116.52
-80.5 117.5 -80.55 117.52
-80.5 118.5 -80.55 118.52
-80.5 119.5 -80.55 119.51
-80.5 120.5 -80.55 120.51
-80.5 121.5 -80.55 121.51
-80.5 122.5 -80.55 122.51
-80.5 123.5 -80.55 123.51
-80.5 124.5 -80.55 124.51
-80.5 125.5 -80.55 125.5
-80.5 126.5 -80.55 126.5
-80.5 127.5 -80.55 127.5
-80.5 128.5 -80.55 128.5
-80.5 129.5 -80.55 129.5
-80.5 130.5 -80.55 130.5
-80.5 131.5 -80.55 131.5
-80.5 132.5 -80.56 132.5
-80.5 133.5 -80.56 133.5
-80.5 134.5 -80.56 134.5
-80.5 135.5 -80.56 135.5
-80.5 136.5 -80.56 136.49
-80.5 137.5 -80.56 137.49
-80.5 138.5 -80.56 138.49
-80.5 139.5 -80.56 139.49
-80.5 140.5 -80.56 140.49
-80.5 141.5 -80.56 141.49
-80.5 142.5 -80.56 142.49
-80.5 143.5 -80.56 143.49
-80.5 144.5 -80.56 144.49
-80.5 145.5 -80.55 145.49
-80.5 146.5 -80.55 146.49
-80.5 147.5 -80.55 147.49
-80.5 148.5 -80.55 148.49
-80.5 149.5 -80.55 149.49
-80.5 150.5 -80.55 150.49
-80.5 151.5 -80.55 151.49
-80.5 152.5 -80.55 152.49
-80.5 153.5 -80.55 153.49
-80.5 154.5 -80.55 154.48
-80.5 155.5 -80.55 155.48
-80.5 156.5 -80.55 156.48
-80.5 157.5 -80.55 157.48
-80.5 158.5 -80.56 158.48
-80.5 159.5 -80.56 159.48
-80.5 160.5 -80.56 160.48
-80.5 161.5 -80.56 161.47
-80.5 162.5 -80.56 162.47
-80.5 163.5 -80.56 163.47
-80.5 164.5 -80.56 164.47
-80.5 165.5 -80.56 165.47
-80.5 166.5 -80.56 166.47
-80.5 167.5 -80.56 167.47
-80.5 168.5 -80.56 168.47
-80.5 169.5 -80.56 169.47
-80.5 170.5 -80.56 170.47
-80.5 171.5 -80.56 171.47
-80.5 172.5 -80.56 172.47
-80.5 173.5 -80.56 173.47
-80.5 174.5 -80.56 174.47
-80.5 175.5 -80.56 175.48
-80.5 176.5 -80.56 176.48
-80.5 177.5 -80.56 177.48
-80.5 178.5 -80.56 178.48
-80.5 179.5 -80.56 179.48
-79.5 -179.5 -79.55 180.5
-79.5 -178.5 -79.55 181.5
-79.5 -177.5 -79.55 182.5
-79.5 -176.5 -79.55 183.5
-79.5 -175.5 -79.55 184.51
-79.5 -174.5 -79.55 185.5
-79.5 -173.5 -79.55 186.5
-79.5 -172.5 -79.55 187.5
-79.5 -171.5 -79.55 188.5
-79.5 -170.5 -79.55 189.5
-79.5 -169.5 -79.55 190.49
-79.5 -168.5 -79.55 191.49
-79.5 -167.5 -79.55 192.49
-79.5 -166.5 -79.55 193.49
-79.5 -165.5 -79.55 194.49
-79.5 -164.5 -79.55 195.49
-79.5 -163.5 -79.55 196.49
-79.5 -162.5 -79.55 197.49
-79.5 -161.5 -79.55 198.49
-79.5 -160.5 -79.55 199.49
-79.5 -159.5 -79.55 200.49
-79.5 -158.5 -79.55 201.49
-79.5 -157.5 -79.55 202.49
-79.5 -156.5 -79.55 203.49
-79.5 -155.5 -79.55 204.49
-79.5 -154.5 -79.55 205.49
-79.5 -153.5 -79.55 206.49
-79.5 -152.5 -79.55 207.5
-79.5 -151.5 -79.55 208.5
-79.5 -150.5 -79.55 209.5
-79.5 -149.5 -79.55 210.5
-79.5 -148.5 -79.55 211.5
-79.5 -147.5 -79.55 212.5
-79.5 -146.5 -79.55 213.5
-79.5 -145.5 -79.55 214.5
-79.5 -144.5 -79.55 215.5
-79.5 -143.5 -79.54 216.5
-79.5 -142.5 -79.54 217.5
-79.5 -141.5 -79.54 218.5
-79.5 -140.5 -79.54 219.5
-79.5 -139.5 -79.54 220.5
-79.5 -138.5 -79.54 221.5
-79.5 -137.5 -79.54 222.5
-79.5 -136.5 -79.54 223.5
-79.5 -135.5 -79.54 224.5
-79.5 -134.5 -79.54 225.5
-79.5 -133.5 -79.54 226.5
-79.5 -132.5 -79.54 227.5
-79.5 -131.5 -79.54 228.5
-79.5 -130.5 -79.54 229.5
-79.5 -129.5 -79.54 230.49
-79.5 -128.5 -79.54 231.49
-79.5 -127.5 -79.54 232.49
-79.5 -126.5 -79.54 233.49
-79.5 -125.5 -79.54 234.49
-79.5 -124.5 -79.54 235.49
-79.5 -123.5 -79.54 236.49
-79.5 -122.5 -79.54 237.49
-79.5 -121.5 -79.54 238.48
-79.5 -120.5 -79.54 239.48
-79.5 -119.5 -79.54 240.48
-79.5 -118.5 -79.54 241.48
-79.5 -117.5 -79.54 242.48
-79.5 -116.5 -79.54 243.48
-79.5 -115.5 -79.54 244.48
-79.5 -114.5 -79.54 245.47
-79.5 -113.5 -79.54 246.47
-79.5 -112.5 -79.54 247.47
-79.5 -111.5 -79.54 248.47
-79.5 -110.5 -79.54 249.47
-79.5 -109.5 -79.54 250.47
-79.5 -108.5 -79.54 251.47
-79.5 -107.5 -79.54 252.47
-79.5 -106.5 -79.54 253.46
-79.5 -105.5 -79.54 254.46
-79.5 -104.5 -79.54 255.46
-79.5 -103.5 -79.54 256.46
-79.5 -102.5 -79.54 257.46
-79.5 -101.5 -79.54 258.46
-79.5 -100.5 -79.54 259.46
-79.5 -99.5 -79.54 260.46
-79.5 -98.5 -79.54 261.46
-79.5 -97.5 -79.54 262.46
-79.5 -96.5 -79.54 263.46
-79.5 -95.5 -79.54 264.46
-79.5 -94.5 -79.55 265.46
-79.5 -93.5 -79.55 266.46
-79.5 -92.5 -79.55 267.46
-79.5 -91.5 -79.55 268.46
-79.5 -90.5 -79.55 269.46
-79.5 -89.5 -79.55 270.46
-79.5 -88.5 -79.55 271.46
-79.5 -87.5 -79.55 272.45
-79.5 -86.5 -79.55 273.45
-79.5 -85.5 -79.55 274.45
-79.5 -84.5 -79.55 275.45
-79.5 -83.5 -79.55 276.45
-79.5 -82.5 -79.55 277.44
-79.5 -81.5 -79.55 278.44
-79.5 -80.5 -79.55 279.43
-79.5 -79.5 -79.55 280.43
-79.5 -78.5 -79.55 281.42
-79.5 -77.5 -79.55 282.41
-79.5 -76.5 -79.55 283.4
-79.5 -75.5 -79.55 284.39
-79.5 -74.5 -79.55 285.38
-79.5 -73.5 -79.55 286.36
-79.5 -72.5 -79.55 287.35
-79.5 -71.5 -79.55 288.33
-79.5 -70.5 -79.55 289.32
-79.5 -69.5 -79.56 290.33
-79.5 -68.5 -79.56 291.33
-79.5 -67.5 -79.56 292.34
-79.5 -66.5 -79.56 293.35
-79.5 -65.5 -79.56 294.36
-79.5 -64.5 -79.56 295.36
-79.5 -63.5 -79.56 296.37
-79.5 -62.5 -79.56 297.38
-79.5 -61.5 -79.56 298.38
-79.5 -60.5 -79.56 299.39
-79.5 -59.5 -79.57 300.39
-79.5 -58.5 -79.57 301.39
-79.5 -57.5 -79.57 302.39
-79.5 -56.5 -79.57 303.39
-79.5 -55.5 -79.57 304.39
-79.5 -54.5 -79.57 305.38
-79.5 -53.5 -79.58 306.38
-79.5 -52.5 -79.58 307.37
-79.5 -51.5 -79.58 308.35
-79.5 -50.5 -79.58 309.34
-79.5 -49.5 -79.59 310.32
-79.5 -48.5 -79.59 311.3
-79.5 -47.5 -79.59 312.28
-79.5 -46.5 -79.59 313.25
-79.5 -45.5 -79.6 314.22
-79.5 -44.5 -79.6 315.19
-79.5 -43.5 -79.6 316.21
-79.5 -42.5 -79.6 317.22
-79.5 -41.5 -79.6 318.23
-79.5 -40.5 -79.6 319.24
-79.5 -39.5 -79.6 320.26
-79.5 -38.5 -79.6 321.27
-79.5 -37.5 -79.6 322.28
-79.5 -36.5 -79.6 323.29
-79.5 -35.5 -79.6 324.3
-79.5 -34.5 -79.6 325.31
-79.5 -33.5 -79.61 326.32
-79.5 -32.5 -79.61 327.33
-79.5 -31.5 -79.61 328.33
-79.5 -30.5 -79.61 329.34
-79.5 -29.5 -79.61 330.35
-79.5 -28.5 -79.62 331.35
-79.5 -27.5 -79.62 332.36
-79.5 -26.5 -79.62 333.36
-79.5 -25.5 -79.63 334.36
-79.5 -24.5 -79.63 335.36
-79.5 -23.5 -79.64 336.37
-79.5 -22.5 -79.64 337.37
-79.5 -21.5 -79.65 338.37
-79.5 -20.5 -79.65 339.37
-79.5 -19.5 -79.66 340.37
-79.5 -18.5 -79.67 341.37
-79.5 -17.5 -79.68 342.37
-79.5 -16.5 -79.68 343.37
-79.5 -15.5 -79.69 344.37
-79.5 -14.5 -79.7 345.37
-79.5 -13.5 -79.71 346.38
-79.5 -12.5 -79.72 347.38
-79.5 -11.5 -79.73 348.39
-79.5 -10.5 -79.74 349.4
-79.5 -9.5 -79.74 350.41
-79.5 -8.5 -79.75 351.43
-79.5 -7.5 -79.75 352.44
-79.5 -6.5 -79.75 353.47
-79.5 -5.5 -79.75 354.48
-79.5 -4.5 -79.75 355.5
-79.5 -3.5 -79.75 356.53
-79.5 -2.5 -79.75 357.55
-79.5 -1.5 -79.75 358.57
-79.5 -0.5 -79.75 359.59
-79.5 0.5 -79.75 0.62
-79.5 1.5 -79.75 1.64
-79.5 2.5 -79.75 2.67
-79.5 3.5 -79.75 3.69
-79.5 4.5 -79.75 4.72
-79.5 5.5 -79.75 5.75
-79.5 6.5 -79.75 6.78
-79.5 7.5 -79.75 7.81
-79.5 8.5 -79.75 8.84
-79.5 9.5 -79.75 9.88
-79.5 10.5 -79.75 10.91
-79.5 11.5 -79.75 11.95
-79.5 12.5 -79.75 12.98
-79.5 13.5 -79.74 14.02
-79.5 14.5 -79.74 15.06
-79.5 15.5 -79.74 16.1
-79.5 16.5 -79.73 17.14
-79.5 17.5 -79.73 18.18
-79.5 18.5 -79.72 19.23
-79.5 19.5 -79.72 20.27
-79.5 20.5 -79.71 21.32
-79.5 21.5 -79.71 22.36
-79.5 22.5 -79.7 23.4
-79.5 23.5 -79.68 24.4
-79.5 24.5 -79.67 25.4
-79.5 25.5 -79.66 26.39
-79.5 26.5 -79.64 27.38
-79.5 27.5 -79.63 28.37
-79.5 28.5 -79.62 29.36
-79.5 29.5 -79.61 30.35
-79.5 30.5 -79.6 31.34
-79.5 31.5 -79.59 32.33
-79.5 32.5 -79.58 33.31
-79.5 33.5 -79.57 34.3
-79.5 34.5 -79.57 35.29
-79.5 35.5 -79.56 36.28
-79.5 36.5 -79.56 37.26
-79.5 37.5 -79.56 38.25
-79.5 38.5 -79.56 39.24
-79.5 39.5 -79.55 40.22
-79.5 40.5 -79.55 41.21
-79.5 41.5 -79.55 42.2
-79.5 42.5 -79.54 43.19
-79.5 43.5 -79.54 44.18
-79.5 44.5 -79.54 45.18
-79.5 45.5 -79.53 46.17
-79.5 46.5 -79.53 47.17
-79.5 47.5 -79.53 48.16
-79.5 48.5 -79.52 49.16
-79.5 49.5 -79.52 50.16
-79.5 50.5 -79.51 51.15
-79.5 51.5 -79.51 52.15
-79.5 52.5 -79.5 53.15
-79.5 53.5 -79.5 54.15
-79.5 54.5 -79.49 55.15
-79.5 55.5 -79.49 56.15
-79.5 56.5 -79.49 57.14
-79.5 57.5 -79.49 58.14
-79.5 58.5 -79.49 59.13
-79.5 59.5 -79.49 60.13
-79.5 60.5 -79.49 61.12
-79.5 61.5 -79.49 62.12
-79.5 62.5 -79.49 63.11
-79.5 63.5 -79.48 64.1
-79.5 64.5 -79.48 65.09
-79.5 65.5 -79.48 66.08
-79.5 66.5 -79.48 67.07
-79.5 67.5 -79.48 68.06
-79.5 68.5 -79.48 69.05
-79.5 69.5 -79.47 70.04
-79.5 70.5 -79.47 71.02
-79.5 71.5 -79.47 72.01
-79.5 72.5 -79.47 72.99
-79.5 73.5 -79.47 73.98
-79.5 74.5 -79.47 74.96
-79.5 75.5 -79.46 75.94
-79.5 76.5 -79.47 76.9
-79.5 77.5 -79.47 77.87
-79.5 78.5 -79.47 78.84
-79.5 79.5 -79.48 79.81
-79.5 80.5 -79.48 80.78
-79.5 81.5 -79.48 81.75
-79.5 82.5 -79.48 82.73
-79.5 83.5 -79.49 83.71
-79.5 84.5 -79.49 84.69
-79.5 85.5 -79.49 85.67
-79.5 86.5 -79.5 86.65
-79.5 87.5 -79.5 87.64
-79.5 88.5 -79.5 88.62
-79.5 89.5 -79.5 89.61
-79.5 90.5 -79.51 90.59
-79.5 91.5 -79.51 91.58
-79.5 92.5 -79.51 92.57
-79.5 93.5 -79.51 93.56
-79.5 94.5 -79.51 94.55
-79.5 95.5 -79.52 95.54
-79.5 96.5 -79.52 96.54
-79.5 97.5 -79.52 97.53
-79.5 98.5 -79.52 98.52
-79.5 99.5 -79.52 99.52
-79.5 100.5 -79.53 100.51
-79.5 101.5 -79.53 101.5
-79.5 102.5 -79.53 102.5
-79.5 103.5 -79.53 103.5
-79.5 104.5 -79.53 104.49
-79.5 105.5 -79.53 105.49
-79.5 106.5 -79.53 106.48
-79.5 107.5 -79.53 107.48
-79.5 108.5 -79.54 108.48
-79.5 109.5 -79.54 109.47
-79.5 110.5 -79.54 110.47
-79.5 111.5 -79.54 111.47
-79.5 112.5 -79.54 112.47
-79.5 113.5 -79.54 113.46
-79.5 114.5 -79.54 114.46
-79.5 115.5 -79.54 115.46
-79.5 116.5 -79.54 116.46
-79.5 117.5 -79.54 117.46
-79.5 118.5 -79.54 118.46
-79.5 119.5 -79.55 119.46
-79.5 120.5 -79.55 120.46
-79.5 121.5 -79.55 121.45
-79.5 122.5 -79.55 122.45
-79.5 123.5 -79.55 123.45
-79.5 124.5 -79.55 124.45
-79.5 125.5 -79.55 125.45
-79.5 126.5 -79.55 126.45
-79.5 127.5 -79.55 127.45
-79.5 128.5 -79.55 128.45
-79.5 129.5 -79.55 129.45
-79.5 130.5 -79.55 130.45
-79.5 131.5 -79.55 131.45
-79.5 132.5 -79.55 132.45
-79.5 133.5 -79.55 133.45
-79.5 134.5 -79.55 134.45
-79.5 135.5 -79.55 135.45
-79.5 136.5 -79.55 136.46
-79.5 137.5 -79.55 137.46
-79.5 138.5 -79.55 138.46
-79.5 139.5 -79.55 139.46
-79.5 140.5 -79.55 140.46
-79.5 141.5 -79.55 141.46
-79.5 142.5 -79.55 142.46
-79.5 143.5 -79.55 143.46
-79.5 144.5 -79.55 144.46
-79.5 145.5 -79.55 145.46
-79.5 146.5 -79.55 146.46
-79.5 147.5 -79.55 147.46
-79.5 148.5 -79.55 148.46
-79.5 149.5 -79.55 149.47
-79.5 150.5 -79.55 150.47
-79.5 151.5 -79.55 151.47
-79.5 152.5 -79.55 152.47
-79.5 153.5 -79.55 153.47
-79.5 154.5 -79.55 154.47
-79.5 155.5 -79.55 155.47
-79.5 156.5 -79.55 156.47
-79.5 157.5 -79.55 157.47
-79.5 158.5 -79.55 158.48
-79.5 159.5 -79.55 159.48
-79.5 160.5 -79.55 160.48
