-89.5 -179.5 -76.79 178.17 -61.8 116.09
-89.5 -178.5 -76.8 179.17 -61.79 116.56
-89.5 -177.5 -76.8 180.17 -61.77 117.02
-89.5 -176.5 -76.81 181.17 -61.76 117.48
-89.5 -175.5 -76.81 182.16 -61.75 117.94
-89.5 -174.5 -76.82 183.16 -61.74 118.41
-89.5 -173.5 -76.82 184.15 -61.74 118.87
-89.5 -172.5 -76.83 185.14 -61.73 119.34
-89.5 -171.5 -76.83 186.14 -61.73 119.8
-89.5 -170.5 -76.84 187.13 -61.73 120.26
-89.5 -169.5 -76.84 188.12 -61.73 120.72
-89.5 -168.5 -76.84 189.11 -61.73 121.19
-89.5 -167.5 -76.85 190.1 -61.74 121.65
-89.5 -166.5 -76.85 191.09 -61.74 122.11
-89.5 -165.5 -76.86 192.07 -61.75 122.57
-89.5 -164.5 -76.86 193.06 -61.76 123.04
-89.5 -163.5 -76.86 194.05 -61.77 123.5
-89.5 -162.5 -76.87 195.04 -61.79 123.96
-89.5 -161.5 -76.87 196.02 -61.8 124.42
-89.5 -160.5 -76.87 197.01 -61.82 124.88
-89.5 -159.5 -76.88 197.99 -61.84 125.35
-89.5 -158.5 -76.88 198.98 -61.86 125.81
-89.5 -157.5 -76.89 199.96 -61.89 126.27
-89.5 -156.5 -76.89 200.95 -61.91 126.73
-89.5 -155.5 -76.89 201.93 -61.93 127.19
-89.5 -154.5 -76.89 202.91 -61.96 127.66
-89.5 -153.5 -76.9 203.9 -61.99 128.12
-89.5 -152.5 -76.9 204.88 -62.02 128.58
-89.5 -151.5 -76.91 205.86 -62.06 129.04
-89.5 -150.5 -76.91 206.85 -62.09 129.5
-89.5 -149.5 -76.91 207.83 -62.13 129.97
-89.5 -148.5 -76.91 208.81 -62.16 130.43
-89.5 -147.5 -76.92 209.8 -62.21 130.89
-89.5 -146.5 -76.92 210.78 -62.25 131.35
-89.5 -145.5 -76.92 211.76 -62.29 131.81
-89.5 -144.5 -76.93 212.75 -62.34 132.28
-89.5 -143.5 -76.93 213.73 -62.38 132.74
-89.5 -142.5 -76.93 214.72 -62.43 133.2
-89.5 -141.5 -76.93 215.7 -62.48 133.67
-89.5 -140.5 -76.94 216.69 -62.53 134.13
-89.5 -139.5 -76.94 217.67 -62.59 134.59
-89.5 -138.5 -76.94 218.66 -62.64 135.06
-89.5 -137.5 -76.94 219.65 -62.7 135.52
-89.5 -136.5 -76.95 220.63 -62.76 135.98
-89.5 -135.5 -76.94 221.62 -62.81 136.45
-89.5 -134.5 -76.95 222.61 -62.88 136.91
-89.5 -133.5 -76.95 223.6 -62.94 137.38
-89.5 -132.5 -76.95 224.59 -63.0 137.84
-89.5 -131.5 -76.96 225.58 -63.07 138.3
-89.5 -130.5 -76.96 226.58 -63.14 138.77
-89.5 -129.5 -76.96 227.57 -63.21 139.24
-89.5 -128.5 -76.96 228.56 -63.28 139.7
-89.5 -127.5 -76.97 229.56 -63.36 140.16
-89.5 -126.5 -76.97 230.56 -63.43 140.63
-89.5 -125.5 -76.97 231.55 -63.51 141.1
-89.5 -124.5 -76.97 232.55 -63.59 141.56
-89.5 -123.5 -76.98 233.55 -63.67 142.03
-89.5 -122.5 -76.97 234.55 -63.75 142.5
-89.5 -121.5 -76.98 235.55 -63.84 142.96
-89.5 -120.5 -76.98 236.56 -63.92 143.43
-89.5 -119.5 -76.98 237.56 -64.01 143.9
-89.5 -118.5 -76.99 238.57 -64.1 144.37
-89.5 -117.5 -76.99 239.57 -64.19 144.84
-89.5 -116.5 -76.99 240.58 -64.28 145.3
-89.5 -115.5 -76.99 241.59 -64.38 145.77
-89.5 -114.5 -76.99 242.61 -64.47 146.24
-89.5 -113.5 -77.0 243.62 -64.57 146.71
-89.5 -112.5 -77.0 244.63 -64.67 147.18
-89.5 -111.5 -77.0 245.65 -64.77 147.65
-89.5 -110.5 -77.0 246.67 -64.87 148.12
-89.5 -109.5 -77.0 247.69 -64.98 148.59
-89.5 -108.5 -77.0 248.71 -65.08 149.06
-89.5 -107.5 -77.0 249.73 -65.19 149.54
-89.5 -106.5 -77.01 250.75 -65.3 150.0
-89.5 -105.5 -77.01 251.78 -65.41 150.48
-89.5 -104.5 -77.01 252.81 -65.52 150.95
-89.5 -103.5 -77.01 253.84 -65.64 151.42
-89.5 -102.5 -77.01 254.87 -65.76 151.89
-89.5 -101.5 -77.01 255.9 -65.88 152.36
-89.5 -100.5 -77.01 256.94 -65.99 152.84
-89.5 -99.5 -77.02 257.97 -66.12 153.31
-89.5 -98.5 -77.02 259.01 -66.24 153.78
-89.5 -97.5 -77.02 260.05 -66.36 154.26
-89.5 -96.5 -77.02 261.09 -66.49 154.73
-89.5 -95.5 -77.01 262.14 -66.62 155.21
-89.5 -94.5 -77.02 263.18 -66.75 155.68
-89.5 -93.5 -77.01 264.23 -66.88 156.16
-89.5 -92.5 -77.02 265.27 -67.02 156.62
-89.5 -91.5 -77.01 266.33 -67.15 157.1
-89.5 -90.5 -77.01 267.38 -67.29 157.58
-89.5 -89.5 -77.01 268.43 -67.42 158.05
-89.5 -88.5 -77.01 269.49 -67.57 158.52
-89.5 -87.5 -77.01 270.55 -67.71 158.99
-89.5 -86.5 -77.01 271.61 -67.85 159.47
-89.5 -85.5 -77.01 272.67 -68.0 159.95
-89.5 -84.5 -77.01 273.73 -68.15 160.42
-89.5 -83.5 -77.01 274.79 -68.29 160.89
-89.5 -82.5 -77.01 275.86 -68.44 161.36
-89.5 -81.5 -77.01 276.93 -68.6 161.83
-89.5 -80.5 -77.0 278.0 -68.75 162.3
-89.5 -79.5 -77.0 279.07 -68.91 162.77
-89.5 -78.5 -77.0 280.14 -69.07 163.25
-89.5 -77.5 -76.99 281.21 -69.22 163.73
-89.5 -76.5 -76.99 282.29 -69.38 164.2
-89.5 -75.5 -76.99 283.36 -69.55 164.66
-89.5 -74.5 -76.98 284.44 -69.71 165.14
-89.5 -73.5 -76.98 285.52 -69.88 165.61
-89.5 -72.5 -76.98 286.6 -70.05 166.07
-89.5 -71.5 -76.97 287.69 -70.21 166.55
-89.5 -70.5 -76.97 288.77 -70.39 167.01
-89.5 -69.5 -76.96 289.85 -70.56 167.48
-89.5 -68.5 -76.96 290.94 -70.73 167.94
-89.5 -67.5 -76.95 292.02 -70.91 168.41
-89.5 -66.5 -76.95 293.11 -71.09 168.87
-89.5 -65.5 -76.94 294.2 -71.27 169.34
-89.5 -64.5 -76.94 295.29 -71.45 169.8
-89.5 -63.5 -76.93 296.38 -71.63 170.26
-89.5 -62.5 -76.92 297.47 -71.81 170.72
-89.5 -61.5 -76.92 298.56 -72.0 171.17
-89.5 -60.5 -76.91 299.65 -72.18 171.63
-89.5 -59.5 -76.9 300.74 -72.37 172.1
-89.5 -58.5 -76.89 301.83 -72.56 172.55
-89.5 -57.5 -76.88 302.93 -72.75 173.01
-89.5 -56.5 -76.87 304.02 -72.94 173.46
-89.5 -55.5 -76.86 305.11 -73.14 173.91
-89.5 -54.5 -76.86 306.2 -73.34 174.34
-89.5 -53.5 -76.85 307.29 -73.53 174.78
-89.5 -52.5 -76.84 308.39 -73.73 175.24
-89.5 -51.5 -76.82 309.48 -73.93 175.68
-89.5 -50.5 -76.81 310.57 -74.13 176.13
-89.5 -49.5 -76.81 311.66 -74.34 176.53
-89.5 -48.5 -76.8 312.75 -74.54 176.97
-89.5 -47.5 -76.79 313.83 -74.75 177.4
-89.5 -46.5 -76.77 314.92 -74.95 177.83
-89.5 -45.5 -76.76 316.01 -75.16 178.26
-89.5 -44.5 -76.74 317.1 -75.37 178.68
-89.5 -43.5 -76.74 318.18 -75.58 179.08
-89.5 -42.5 -76.72 319.27 -75.79 179.51
-89.5 -41.5 -76.71 320.35 -76.01 179.92
-89.5 -40.5 -76.69 321.44 -76.22 -179.67
-89.5 -39.5 -76.67 322.52 -76.44 -179.25
-89.5 -38.5 -76.66 323.59 -76.66 -178.88
-89.5 -37.5 -76.65 324.67 -76.87 -178.48
-89.5 -36.5 -76.63 325.74 -77.09 -178.1
-89.5 -35.5 -76.62 326.82 -77.31 -177.72
-89.5 -34.5 -76.6 327.89 -77.54 -177.32
-89.5 -33.5 -76.59 328.96 -77.76 -176.97
-89.5 -32.5 -76.56 330.03 -77.98 -176.58
-89.5 -31.5 -76.55 331.1 -78.21 -176.24
-89.5 -30.5 -76.54 332.16 -78.43 -175.9
-89.5 -29.5 -76.52 333.22 -78.66 -175.55
-89.5 -28.5 -76.51 334.28 -78.89 -175.23
-89.5 -27.5 -76.48 335.34 -79.12 -174.88
-89.5 -26.5 -76.47 336.39 -79.35 -174.56
-89.5 -25.5 -76.45 337.44 -79.58 -174.28
-89.5 -24.5 -76.44 338.49 -79.81 -173.98
-89.5 -23.5 -76.41 339.54 -80.04 -173.66
-89.5 -22.5 -76.4 340.59 -80.28 -173.39
-89.5 -21.5 -76.38 341.63 -80.51 -173.13
-89.5 -20.5 -76.36 342.67 -80.74 -172.86
-89.5 -19.5 -76.34 343.71 -80.98 -172.63
-89.5 -18.5 -76.32 344.74 -81.22 -172.42
-89.5 -17.5 -76.31 345.77 -81.45 -172.23
-89.5 -16.5 -76.28 346.8 -81.69 -172.03
-89.5 -15.5 -76.27 347.83 -81.93 -171.88
-89.5 -14.5 -76.24 348.86 -82.17 -171.69
-89.5 -13.5 -76.23 349.87 -82.41 -171.64
-89.5 -12.5 -76.21 350.9 -82.65 -171.51
-89.5 -11.5 -76.19 351.91 -82.89 -171.44
-89.5 -10.5 -76.18 352.93 -83.12 -171.44
-89.5 -9.5 -76.15 353.94 -83.37 -171.39
-89.5 -8.5 -76.13 354.95 -83.61 -171.44
-89.5 -7.5 -76.11 355.96 -83.85 -171.46
-89.5 -6.5 -76.09 356.97 -84.09 -171.6
-89.5 -5.5 -76.08 357.97 -84.33 -171.82
-89.5 -4.5 -76.06 358.97 -84.57 -172.05
-89.5 -3.5 -76.04 359.97 -84.81 -172.37
-89.5 -2.5 -76.02 0.96 -85.05 -172.72
-89.5 -1.5 -76.0 1.96 -85.29 -173.21
-89.5 -0.5 -75.98 2.95 -85.53 -173.75
-89.5 0.5 -75.96 3.94 -85.77 -174.45
-89.5 1.5 -75.94 4.93 -86.0 -175.36
-89.5 2.5 -75.93 5.91 -86.23 -176.38
-89.5 3.5 -75.9 6.9 -86.47 -177.54
-89.5 4.5 -75.88 7.88 -86.69 -178.98
-89.5 5.5 -75.87 8.86 -86.92 179.25
-89.5 6.5 -75.85 9.84 -87.14 177.22
-89.5 7.5 -75.83 10.81 -87.35 174.6
-89.5 8.5 -75.81 11.79 -87.56 171.74
-89.5 9.5 -75.79 12.76 -87.75 168.11
-89.5 10.5 -75.78 13.73 -87.93 163.59
-89.5 11.5 -75.76 14.7 -88.1 158.36
-89.5 12.5 -75.74 15.67 -88.24 152.05
-89.5 13.5 -75.72 16.64 -88.35 144.73
-89.5 14.5 -75.7 17.6 -88.43 136.39
-89.5 15.5 -75.68 18.57 -88.47 127.36
-89.5 16.5 -75.66 19.53 -88.47 118.09
-89.5 17.5 -75.65 20.49 -88.42 109.21
-89.5 18.5 -75.63 21.45 -88.33 101.02
-89.5 19.5 -75.61 22.41 -88.21 93.87
-89.5 20.5 -75.6 23.36 -88.06 87.75
-89.5 21.5 -75.58 24.32 -87.89 82.56
-89.5 22.5 -75.57 25.27 -87.7 78.52
-89.5 23.5 -75.54 26.23 -87.5 74.82
-89.5 24.5 -75.53 27.18 -87.29 72.06
-89.5 25.5 -75.52 28.13 -87.07 69.69
-89.5 26.5 -75.5 29.09 -86.84 67.57
-89.5 27.5 -75.49 30.03 -86.61 65.92
-89.5 28.5 -75.48 30.98 -86.38 64.61
-89.5 29.5 -75.46 31.93 -86.14 63.39
-89.5 30.5 -75.44 32.88 -85.9 62.32
-89.5 31.5 -75.43 33.82 -85.65 61.58
-89.5 32.5 -75.41 34.77 -85.41 60.85
-89.5 33.5 -75.41 35.72 -85.16 60.4
-89.5 34.5 -75.39 36.66 -84.91 59.96
-89.5 35.5 -75.38 37.61 -84.66 59.56
-89.5 36.5 -75.37 38.55 -84.41 59.26
-89.5 37.5 -75.35 39.49 -84.16 59.02
-89.5 38.5 -75.34 40.43 -83.91 58.86
-89.5 39.5 -75.33 41.37 -83.66 58.74
-89.5 40.5 -75.32 42.3 -83.41 58.7
-89.5 41.5 -75.3 43.24 -83.16 58.61
-89.5 42.5 -75.29 44.18 -82.91 58.6
-89.5 43.5 -75.28 45.12 -82.65 58.61
-89.5 44.5 -75.27 46.05 -82.4 58.69
-89.5 45.5 -75.26 46.99 -82.15 58.78
-89.5 46.5 -75.25 47.92 -81.9 58.86
-89.5 47.5 -75.24 48.85 -81.65 59.02
-89.5 48.5 -75.24 49.79 -81.4 59.22
-89.5 49.5 -75.22 50.72 -81.15 59.35
-89.5 50.5 -75.22 51.65 -80.9 59.58
-89.5 51.5 -75.21 52.58 -80.65 59.81
-89.5 52.5 -75.2 53.51 -80.39 59.99
-89.5 53.5 -75.18 54.45 -80.14 60.17
-89.5 54.5 -75.18 55.38 -79.9 60.46
-89.5 55.5 -75.18 56.31 -79.65 60.73
-89.5 56.5 -75.17 57.23 -79.4 61.0
-89.5 57.5 -75.16 58.16 -79.15 61.28
-89.5 58.5 -75.16 59.09 -78.91 61.6
-89.5 59.5 -75.15 60.02 -78.66 61.88
-89.5 60.5 -75.16 60.95 -78.42 62.23
-89.5 61.5 -75.16 61.87 -78.18 62.57
-89.5 62.5 -75.15 62.8 -77.93 62.88
-89.5 63.5 -75.15 63.73 -77.69 63.21
-89.5 64.5 -75.14 64.65 -77.45 63.55
-89.5 65.5 -75.15 65.58 -77.21 63.93
-89.5 66.5 -75.14 66.51 -76.97 64.27
-89.5 67.5 -75.14 67.43 -76.73 64.61
-89.5 68.5 -75.14 68.36 -76.5 65.0
-89.5 69.5 -75.15 69.29 -76.26 65.38
-89.5 70.5 -75.15 70.21 -76.03 65.76
-89.5 71.5 -75.15 71.14 -75.8 66.15
-89.5 72.5 -75.15 72.06 -75.56 66.5
-89.5 73.5 -75.16 72.99 -75.33 66.92
-89.5 74.5 -75.17 73.92 -75.11 67.32
-89.5 75.5 -75.17 74.85 -74.88 67.72
-89.5 76.5 -75.17 75.77 -74.65 68.11
-89.5 77.5 -75.18 76.7 -74.43 68.52
-89.5 78.5 -75.19 77.63 -74.2 68.94
-89.5 79.5 -75.2 78.56 -73.98 69.37
-89.5 80.5 -75.2 79.49 -73.76 69.77
-89.5 81.5 -75.21 80.42 -73.54 70.19
-89.5 82.5 -75.22 81.35 -73.33 70.62
-89.5 83.5 -75.23 82.28 -73.11 71.04
-89.5 84.5 -75.24 83.21 -72.9 71.46
-89.5 85.5 -75.25 84.15 -72.68 71.9
-89.5 86.5 -75.27 85.08 -72.48 72.35
-89.5 87.5 -75.27 86.02 -72.26 72.76
-89.5 88.5 -75.29 86.95 -72.06 73.21
-89.5 89.5 -75.3 87.89 -71.85 73.64
-89.5 90.5 -75.31 88.83 -71.65 74.08
-89.5 91.5 -75.33 89.77 -71.44 74.51
-89.5 92.5 -75.34 90.71 -71.25 74.97
-89.5 93.5 -75.36 91.65 -71.05 75.42
-89.5 94.5 -75.38 92.59 -70.85 75.87
-89.5 95.5 -75.4 93.54 -70.66 76.33
-89.5 96.5 -75.41 94.48 -70.47 76.77
-89.5 97.5 -75.43 95.43 -70.27 77.22
-89.5 98.5 -75.44 96.38 -70.09 77.68
-89.5 99.5 -75.46 97.33 -69.9 78.13
-89.5 100.5 -75.48 98.28 -69.72 78.6
-89.5 101.5 -75.5 99.24 -69.53 79.04
-89.5 102.5 -75.52 100.19 -69.35 79.51
-89.5 103.5 -75.54 101.15 -69.17 79.96
-89.5 104.5 -75.55 102.1 -68.99 80.42
-89.5 105.5 -75.58 103.07 -68.82 80.89
-89.5 106.5 -75.6 104.03 -68.65 81.35
-89.5 107.5 -75.62 104.99 -68.48 81.82
-89.5 108.5 -75.64 105.96 -68.31 82.27
-89.5 109.5 -75.66 106.92 -68.14 82.74
-89.5 110.5 -75.69 107.89 -67.98 83.21
-89.5 111.5 -75.7 108.86 -67.81 83.67
-89.5 112.5 -75.72 109.83 -67.65 84.14
-89.5 113.5 -75.75 110.81 -67.5 84.61
-89.5 114.5 -75.77 111.79 -67.34 85.08
-89.5 115.5 -75.8 112.77 -67.19 85.56
-89.5 116.5 -75.82 113.74 -67.04 86.02
-89.5 117.5 -75.84 114.72 -66.88 86.48
-89.5 118.5 -75.86 115.71 -66.74 86.96
-89.5 119.5 -75.88 116.69 -66.59 87.43
-89.5 120.5 -75.9 117.68 -66.45 87.89
-89.5 121.5 -75.93 118.67 -66.31 88.37
-89.5 122.5 -75.95 119.66 -66.17 88.84
-89.5 123.5 -75.98 120.65 -66.04 89.32
-89.5 124.5 -75.99 121.64 -65.9 89.78
-89.5 125.5 -76.02 122.64 -65.77 90.25
-89.5 126.5 -76.04 123.63 -65.64 90.73
-89.5 127.5 -76.06 124.63 -65.51 91.2
-89.5 128.5 -76.08 125.63 -65.38 91.67
-89.5 129.5 -76.1 126.63 -65.26 92.14
-89.5 130.5 -76.12 127.63 -65.14 92.62
-89.5 131.5 -76.15 128.63 -65.02 93.09
-89.5 132.5 -76.17 129.64 -64.91 93.57
-89.5 133.5 -76.19 130.65 -64.79 94.04
-89.5 134.5 -76.21 131.65 -64.68 94.51
-89.5 135.5 -76.23 132.66 -64.57 94.98
-89.5 136.5 -76.24 133.67 -64.46 95.45
-89.5 137.5 -76.27 134.68 -64.35 95.92
-89.5 138.5 -76.29 135.69 -64.25 96.4
-89.5 139.5 -76.3 136.7 -64.15 96.87
-89.5 140.5 -76.32 137.71 -64.05 97.34
-89.5 141.5 -76.34 138.73 -63.96 97.82
-89.5 142.5 -76.36 139.74 -63.86 98.28
-89.5 143.5 -76.38 140.75 -63.77 98.76
-89.5 144.5 -76.39 141.77 -63.67 99.23
-89.5 145.5 -76.41 142.79 -63.59 99.71
-89.5 146.5 -76.43 143.8 -63.5 100.17
-89.5 147.5 -76.45 144.82 -63.42 100.65
-89.5 148.5 -76.46 145.83 -63.34 101.12
-89.5 149.5 -76.48 146.85 -63.25 101.59
-89.5 150.5 -76.49 147.87 -63.18 102.06
-89.5 151.5 -76.51 148.88 -63.1 102.54
-89.5 152.5 -76.52 149.9 -63.03 103.0
-89.5 153.5 -76.54 150.92 -62.96 103.48
-89.5 154.5 -76.55 151.93 -62.89 103.94
-89.5 155.5 -76.56 152.95 -62.82 104.41
-89.5 156.5 -76.58 153.97 -62.76 104.89
-89.5 157.5 -76.58 154.98 -62.69 105.35
-89.5 158.5 -76.6 156.0 -62.63 105.82
-89.5 159.5 -76.61 157.01 -62.57 106.29
-89.5 160.5 -76.62 158.03 -62.52 106.76
-89.5 161.5 -76.64 159.04 -62.46 107.23
-89.5 162.5 -76.65 160.06 -62.41 107.7
-89.5 163.5 -76.66 161.07 -62.36 108.17
-89.5 164.5 -76.67 162.08 -62.31 108.63
-89.5 165.5 -76.68 163.09 -62.26 109.1
-89.5 166.5 -76.69 164.1 -62.22 109.57
-89.5 167.5 -76.69 165.11 -62.17 110.04
-89.5 168.5 -76.7 166.12 -62.13 110.5
-89.5 169.5 -76.71 167.13 -62.09 110.97
-89.5 170.5 -76.72 168.14 -62.06 111.44
-89.5 171.5 -76.73 169.15 -62.03 111.9
-89.5 172.5 -76.74 170.15 -61.99 112.37
-89.5 173.5 -76.75 171.16 -61.96 112.84
-89.5 174.5 -76.75 172.16 -61.93 113.3
-89.5 175.5 -76.76 173.17 -61.91 113.77
-89.5 176.5 -76.77 174.17 -61.88 114.23
-89.5 177.5 -76.77 175.17 -61.86 114.7
-89.5 178.5 -76.78 176.17 -61.84 115.16
-89.5 179.5 -76.78 177.17 -61.82 115.63
-88.5 -179.5 -87.59 189.27 -71.61 124.84
-88.5 -178.5 -87.58 190.02 -71.6 124.95
-88.5 -177.5 -87.58 190.76 -71.6 125.05
-88.5 -176.5 -87.57 191.5 -71.59 125.16
-88.5 -175.5 -87.57 192.24 -71.59 125.27
-88.5 -174.5 -87.56 192.98 -71.58 125.37
-88.5 -173.5 -87.56 193.71 -71.58 125.48
-88.5 -172.5 -87.55 194.45 -71.58 125.59
-88.5 -171.5 -87.55 195.19 -71.57 125.69
-88.5 -170.5 -87.55 195.92 -71.57 125.8
-88.5 -169.5 -87.54 196.66 -71.57 125.91
-88.5 -168.5 -87.54 197.4 -71.57 126.02
-88.5 -167.5 -87.54 198.14 -71.57 126.13
-88.5 -166.5 -87.54 198.88 -71.57 126.24
-88.5 -165.5 -87.53 199.63 -71.58 126.35
-88.5 -164.5 -87.53 200.37 -71.58 126.46
-88.5 -163.5 -87.53 201.11 -71.58 126.57
-88.5 -162.5 -87.53 201.86 -71.58 126.68
-88.5 -161.5 -87.53 202.61 -71.59 126.79
-88.5 -160.5 -87.53 203.37 -71.59 126.9
-88.5 -159.5 -87.53 204.12 -71.6 127.02
-88.5 -158.5 -87.53 204.88 -71.6 127.13
-88.5 -157.5 -87.52 205.64 -71.61 127.24
-88.5 -156.5 -87.52 206.41 -71.61 127.36
-88.5 -155.5 -87.52 207.17 -71.62 127.47
-88.5 -154.5 -87.52 207.94 -71.63 127.58
-88.5 -153.5 -87.52 208.71 -71.64 127.7
-88.5 -152.5 -87.52 209.49 -71.64 127.82
-88.5 -151.5 -87.52 210.27 -71.65 127.93
-88.5 -150.5 -87.52 211.05 -71.66 128.05
-88.5 -149.5 -87.52 211.84 -71.67 128.16
-88.5 -148.5 -87.52 212.63 -71.68 128.28
-88.5 -147.5 -87.52 213.42 -71.69 128.4
-88.5 -146.5 -87.52 214.21 -71.7 128.51
-88.5 -145.5 -87.52 215.01 -71.71 128.63
-88.5 -144.5 -87.52 215.82 -71.72 128.75
-88.5 -143.5 -87.52 216.62 -71.74 128.87
-88.5 -142.5 -87.52 217.43 -71.75 128.99
-88.5 -141.5 -87.52 218.24 -71.76 129.11
-88.5 -140.5 -87.52 219.05 -71.77 129.23
-88.5 -139.5 -87.52 219.87 -71.79 129.35
-88.5 -138.5 -87.52 220.69 -71.8 129.46
-88.5 -137.5 -87.51 221.51 -71.82 129.58
-88.5 -136.5 -87.51 222.34 -71.83 129.7
-88.5 -135.5 -87.51 223.16 -71.85 129.83
-88.5 -134.5 -87.51 223.99 -71.86 129.95
-88.5 -133.5 -87.51 224.83 -71.88 130.07
-88.5 -132.5 -87.51 225.66 -71.89 130.19
-88.5 -131.5 -87.51 226.5 -71.91 130.31
-88.5 -130.5 -87.5 227.34 -71.93 130.43
-88.5 -129.5 -87.5 228.18 -71.94 130.55
-88.5 -128.5 -87.5 229.02 -71.96 130.67
-88.5 -127.5 -87.5 229.87 -71.98 130.79
-88.5 -126.5 -87.5 230.72 -72.0 130.91
-88.5 -125.5 -87.49 231.57 -72.02 131.04
-88.5 -124.5 -87.49 232.42 -72.04 131.16
-88.5 -123.5 -87.49 233.27 -72.05 131.28
-88.5 -122.5 -87.49 234.12 -72.07 131.4
-88.5 -121.5 -87.48 234.97 -72.09 131.52
-88.5 -120.5 -87.48 235.83 -72.12 131.64
-88.5 -119.5 -87.48 236.68 -72.14 131.76
-88.5 -118.5 -87.47 237.54 -72.16 131.89
-88.5 -117.5 -87.47 238.4 -72.18 132.01
-88.5 -116.5 -87.47 239.25 -72.2 132.13
-88.5 -115.5 -87.47 240.11 -72.22 132.25
-88.5 -114.5 -87.46 240.97 -72.25 132.37
-88.5 -113.5 -87.46 241.83 -72.27 132.49
-88.5 -112.5 -87.46 242.69 -72.3 132.6
-88.5 -111.5 -87.45 243.55 -72.32 132.72
-88.5 -110.5 -87.45 244.41 -72.34 132.84
-88.5 -109.5 -87.45 245.27 -72.37 132.96
-88.5 -108.5 -87.44 246.12 -72.4 133.07
-88.5 -107.5 -87.44 246.99 -72.42 133.19
-88.5 -106.5 -87.44 247.84 -72.45 133.3
-88.5 -105.5 -87.43 248.7 -72.48 133.42
-88.5 -104.5 -87.43 249.56 -72.5 133.53
-88.5 -103.5 -87.43 250.43 -72.53 133.64
-88.5 -102.5 -87.43 251.29 -72.56 133.75
-88.5 -101.5 -87.43 252.15 -72.59 133.86
-88.5 -100.5 -87.42 253.01 -72.62 133.97
-88.5 -99.5 -87.42 253.87 -72.65 134.07
-88.5 -98.5 -87.42 254.74 -72.68 134.17
-88.5 -97.5 -87.42 255.6 -72.72 134.28
-88.5 -96.5 -87.42 256.47 -72.75 134.37
-88.5 -95.5 -87.43 257.34 -72.78 134.47
-88.5 -94.5 -87.43 258.22 -72.82 134.56
-88.5 -93.5 -87.43 259.09 -72.85 134.65
-88.5 -92.5 -87.44 259.97 -72.89 134.74
-88.5 -91.5 -87.44 260.86 -72.93 134.82
-88.5 -90.5 -87.45 261.76 -72.97 134.9
-88.5 -89.5 -87.46 262.66 -73.01 134.98
-88.5 -88.5 -87.47 263.57 -73.05 135.05
-88.5 -87.5 -87.48 264.49 -73.09 135.11
-88.5 -86.5 -87.5 265.42 -73.14 135.17
-88.5 -85.5 -87.51 266.37 -73.18 135.22
-88.5 -84.5 -87.53 267.34 -73.23 135.26
-88.5 -83.5 -87.55 268.32 -73.28 135.3
-88.5 -82.5 -87.58 269.33 -73.33 135.33
-88.5 -81.5 -87.61 270.36 -73.38 135.34
-88.5 -80.5 -87.64 271.43 -73.43 135.35
-88.5 -79.5 -87.67 272.53 -73.49 135.34
-88.5 -78.5 -87.71 273.68 -73.55 135.32
-88.5 -77.5 -87.76 274.88 -73.61 135.29
-88.5 -76.5 -87.81 276.14 -73.68 135.23
-88.5 -75.5 -87.87 277.48 -73.75 135.16
-88.5 -74.5 -87.93 278.91 -73.82 135.07
-88.5 -73.5 -88.0 280.45 -73.89 134.95
-88.5 -72.5 -88.08 282.14 -73.97 134.8
-88.5 -71.5 -88.17 283.99 -74.05 134.63
-88.5 -70.5 -88.27 286.07 -74.14 134.41
-88.5 -69.5 -88.38 288.41 -74.23 134.16
-88.5 -68.5 -88.51 291.16 -74.33 133.86
-88.5 -67.5 -88.64 294.41 -74.43 133.51
-88.5 -66.5 -88.78 298.32 -74.53 133.11
-88.5 -65.5 -88.92 303.28 -74.64 132.64
-88.5 -64.5 -89.03 309.43 -74.75 132.08
-88.5 -63.5 -89.13 317.2 -74.87 131.46
-88.5 -62.5 -89.23 327.79 -74.99 130.71
-88.5 -61.5 -89.3 341.48 -75.11 129.86
-88.5 -60.5 -89.31 357.23 -75.23 128.89
-88.5 -59.5 -89.28 7.68 -75.31 128.24
-88.5 -58.5 -89.26 7.9 -75.34 128.25
-88.5 -57.5 -89.24 8.1 -75.37 128.27
-88.5 -56.5 -89.22 8.43 -75.41 128.28
-88.5 -55.5 -89.19 8.69 -75.44 128.29
-88.5 -54.5 -89.17 9.01 -75.47 128.29
-88.5 -53.5 -89.14 9.32 -75.5 128.3
-88.5 -52.5 -89.12 9.71 -75.54 128.29
-88.5 -51.5 -89.09 10.08 -75.57 128.29
-88.5 -50.5 -89.07 10.5 -75.6 128.28
-88.5 -49.5 -89.04 10.91 -75.63 128.26
-88.5 -48.5 -89.01 11.34 -75.67 128.25
-88.5 -47.5 -88.99 11.82 -75.7 128.23
-88.5 -46.5 -88.96 12.28 -75.73 128.2
-88.5 -45.5 -88.94 12.75 -75.76 128.18
-88.5 -44.5 -88.91 13.26 -75.79 128.15
-88.5 -43.5 -88.89 13.76 -75.83 128.11
-88.5 -42.5 -88.86 14.3 -75.86 128.07
-88.5 -41.5 -88.84 14.83 -75.89 128.03
-88.5 -40.5 -88.82 15.37 -75.92 127.98
-88.5 -39.5 -88.79 15.93 -75.95 127.93
-88.5 -38.5 -88.77 16.49 -75.98 127.88
-88.5 -37.5 -88.74 17.06 -76.01 127.82
-88.5 -36.5 -88.72 17.63 -76.04 127.76
-88.5 -35.5 -88.7 18.18 -76.07 127.69
-88.5 -34.5 -88.68 18.75 -76.1 127.63
-88.5 -33.5 -88.65 19.31 -76.13 127.56
-88.5 -32.5 -88.63 19.87 -76.16 127.49
-88.5 -31.5 -88.61 20.39 -76.19 127.42
-88.5 -30.5 -88.58 20.87 -76.22 127.35
-88.5 -29.5 -88.55 20.94 -76.26 127.35
-88.5 -28.5 -88.5 20.77 -76.32 127.38
-88.5 -27.5 -88.45 20.65 -76.37 127.4
-88.5 -26.5 -88.4 20.6 -76.42 127.42
-88.5 -25.5 -88.35 20.59 -76.48 127.43
-88.5 -24.5 -88.3 20.65 -76.53 127.42
-88.5 -23.5 -88.25 20.71 -76.58 127.42
-88.5 -22.5 -88.2 20.85 -76.64 127.4
-88.5 -21.5 -88.15 21.03 -76.69 127.38
-88.5 -20.5 -88.1 21.24 -76.74 127.34
-88.5 -19.5 -88.05 21.48 -76.79 127.3
-88.5 -18.5 -88.0 21.77 -76.85 127.25
-88.5 -17.5 -87.95 22.07 -76.9 127.19
-88.5 -16.5 -87.9 22.42 -76.95 127.12
-88.5 -15.5 -87.85 22.78 -77.0 127.04
-88.5 -14.5 -87.8 23.17 -77.05 126.96
-88.5 -13.5 -87.76 23.6 -77.1 126.86
-88.5 -12.5 -87.71 24.05 -77.15 126.75
-88.5 -11.5 -87.66 24.5 -77.19 126.64
-88.5 -10.5 -87.61 24.97 -77.24 126.52
-88.5 -9.5 -87.57 25.48 -77.29 126.39
-88.5 -8.5 -87.52 25.99 -77.33 126.25
-88.5 -7.5 -87.47 26.53 -77.37 126.1
-88.5 -6.5 -87.43 27.07 -77.42 125.94
-88.5 -5.5 -87.38 27.64 -77.46 125.78
-88.5 -4.5 -87.34 28.22 -77.5 125.61
-88.5 -3.5 -87.3 28.81 -77.54 125.43
-88.5 -2.5 -87.25 29.4 -77.57 125.24
-88.5 -1.5 -87.21 30.02 -77.61 125.04
-88.5 -0.5 -87.17 30.65 -77.64 124.84
-88.5 0.5 -87.13 31.27 -77.67 124.63
-88.5 1.5 -87.09 31.9 -77.7 124.42
-88.5 2.5 -87.05 32.53 -77.73 124.19
-88.5 3.5 -87.01 33.16 -77.76 123.96
-88.5 4.5 -86.97 33.72 -77.78 123.73
-88.5 5.5 -86.92 34.29 -77.81 123.49
-88.5 6.5 -86.87 34.85 -77.83 123.25
-88.5 7.5 -86.83 35.43 -77.85 123.0
-88.5 8.5 -86.78 36.02 -77.87 122.75
-88.5 9.5 -86.74 36.61 -77.88 122.49
-88.5 10.5 -86.69 37.21 -77.89 122.23
-88.5 11.5 -86.65 37.8 -77.91 121.97
-88.5 12.5 -86.61 38.42 -77.92 121.7
-88.5 13.5 -86.57 39.04 -77.92 121.44
-88.5 14.5 -86.53 39.66 -77.93 121.17
-88.5 15.5 -86.5 40.28 -77.93 120.9
-88.5 16.5 -86.46 40.91 -77.93 120.63
-88.5 17.5 -86.43 41.54 -77.93 120.36
-88.5 18.5 -86.39 42.17 -77.93 120.09
-88.5 19.5 -86.36 42.81 -77.92 119.82
-88.5 20.5 -86.33 43.45 -77.92 119.55
-88.5 21.5 -86.3 44.1 -77.91 119.28
-88.5 22.5 -86.27 44.74 -77.9 119.01
-88.5 23.5 -86.24 45.39 -77.88 118.75
-88.5 24.5 -86.21 46.04 -77.87 118.49
-88.5 25.5 -86.19 46.69 -77.85 118.23
-88.5 26.5 -86.16 47.35 -77.83 117.97
-88.5 27.5 -86.14 48.0 -77.81 117.72
-88.5 28.5 -86.12 48.65 -77.79 117.47
-88.5 29.5 -86.1 49.31 -77.77 117.23
-88.5 30.5 -86.08 49.97 -77.74 116.99
-88.5 31.5 -86.06 50.62 -77.71 116.76
-88.5 32.5 -86.04 51.27 -77.68 116.53
-88.5 33.5 -86.03 51.93 -77.65 116.31
-88.5 34.5 -86.02 52.59 -77.62 116.09
-88.5 35.5 -86.0 53.25 -77.59 115.88
-88.5 36.5 -85.99 53.9 -77.55 115.68
-88.5 37.5 -85.98 54.56 -77.52 115.48
-88.5 38.5 -85.97 55.21 -77.48 115.29
-88.5 39.5 -85.97 55.87 -77.44 115.11
-88.5 40.5 -85.96 56.52 -77.4 114.93
-88.5 41.5 -85.95 57.17 -77.36 114.76
-88.5 42.5 -85.95 57.82 -77.32 114.59
-88.5 43.5 -85.95 58.47 -77.27 114.44
-88.5 44.5 -85.95 59.12 -77.23 114.29
-88.5 45.5 -85.95 59.76 -77.18 114.15
-88.5 46.5 -85.95 60.4 -77.14 114.01
-88.5 47.5 -85.95 61.04 -77.09 113.89
-88.5 48.5 -85.95 61.68 -77.05 113.77
-88.5 49.5 -85.96 62.32 -77.0 113.65
-88.5 50.5 -85.96 62.95 -76.95 113.55
-88.5 51.5 -85.97 63.59 -76.9 113.45
-88.5 52.5 -85.97 64.21 -76.85 113.36
-88.5 53.5 -85.98 64.84 -76.8 113.27
-88.5 54.5 -85.99 65.46 -76.75 113.2
-88.5 55.5 -86.0 66.08 -76.7 113.13
-88.5 56.5 -86.02 66.7 -76.65 113.07
-88.5 57.5 -86.03 67.31 -76.6 113.01
-88.5 58.5 -86.04 67.92 -76.55 112.97
-88.5 59.5 -86.06 68.53 -76.5 112.93
-88.5 60.5 -86.07 69.14 -76.45 112.89
-88.5 61.5 -86.09 69.74 -76.4 112.86
-88.5 62.5 -86.11 70.33 -76.35 112.84
-88.5 63.5 -86.13 70.92 -76.3 112.83
-88.5 64.5 -86.15 71.51 -76.25 112.82
-88.5 65.5 -86.17 72.09 -76.2 112.82
-88.5 66.5 -86.19 72.66 -76.15 112.82
-88.5 67.5 -86.21 73.23 -76.1 112.83
-88.5 68.5 -86.24 73.79 -76.06 112.84
-88.5 69.5 -86.27 74.34 -76.01 112.86
-88.5 70.5 -86.29 74.89 -75.96 112.88
-88.5 71.5 -86.32 75.44 -75.91 112.91
-88.5 72.5 -86.35 75.97 -75.87 112.95
-88.5 73.5 -86.38 76.51 -75.82 112.99
-88.5 74.5 -86.41 77.04 -75.78 113.04
-88.5 75.5 -86.44 77.56 -75.73 113.09
-88.5 76.5 -86.47 78.08 -75.69 113.14
-88.5 77.5 -86.5 78.59 -75.65 113.2
-88.5 78.5 -86.53 79.09 -75.6 113.26
-88.5 79.5 -86.56 79.59 -75.56 113.33
-88.5 80.5 -86.59 80.08 -75.52 113.4
-88.5 81.5 -86.63 80.57 -75.48 113.47
-88.5 82.5 -86.66 81.04 -75.44 113.55
-88.5 83.5 -86.69 81.51 -75.4 113.63
-88.5 84.5 -86.73 81.97 -75.36 113.72
-88.5 85.5 -86.76 82.43 -75.33 113.8
-88.5 86.5 -86.8 82.87 -75.29 113.9
-88.5 87.5 -86.81 83.32 -75.26 113.92
-88.5 88.5 -86.82 83.78 -75.23 113.91
-88.5 89.5 -86.82 84.23 -75.2 113.91
-88.5 90.5 -86.83 84.68 -75.17 113.9
-88.5 91.5 -86.83 85.13 -75.13 113.89
-88.5 92.5 -86.84 85.59 -75.1 113.88
-88.5 93.5 -86.84 86.04 -75.07 113.87
-88.5 94.5 -86.85 86.5 -75.04 113.87
-88.5 95.5 -86.85 86.94 -75.01 113.86
-88.5 96.5 -86.86 87.4 -74.98 113.86
-88.5 97.5 -86.86 87.86 -74.95 113.86
-88.5 98.5 -86.87 88.32 -74.92 113.87
-88.5 99.5 -86.88 88.78 -74.89 113.87
-88.5 100.5 -86.88 89.24 -74.86 113.88
-88.5 101.5 -86.89 89.71 -74.83 113.89
-88.5 102.5 -86.9 90.17 -74.79 113.91
-88.5 103.5 -86.91 90.63 -74.76 113.92
-88.5 104.5 -86.92 91.09 -74.73 113.94
-88.5 105.5 -86.93 91.55 -74.7 113.96
-88.5 106.5 -86.94 92.02 -74.67 113.99
-88.5 107.5 -86.95 92.48 -74.64 114.01
-88.5 108.5 -86.96 92.94 -74.61 114.04
-88.5 109.5 -86.97 93.41 -74.58 114.07
-88.5 110.5 -86.98 93.87 -74.55 114.11
-88.5 111.5 -86.99 94.33 -74.52 114.14
-88.5 112.5 -87.0 94.8 -74.49 114.18
-88.5 113.5 -87.02 95.26 -74.46 114.22
-88.5 114.5 -87.03 95.73 -74.44 114.26
-88.5 115.5 -87.05 96.19 -74.41 114.31
-88.5 116.5 -87.06 96.65 -74.38 114.36
-88.5 117.5 -87.07 97.12 -74.35 114.41
-88.5 118.5 -87.09 97.58 -74.32 114.46
-88.5 119.5 -87.1 98.04 -74.3 114.51
-88.5 120.5 -87.12 98.5 -74.27 114.57
-88.5 121.5 -87.14 98.96 -74.24 114.63
-88.5 122.5 -87.15 99.42 -74.22 114.69
-88.5 123.5 -87.17 99.88 -74.19 114.75
-88.5 124.5 -87.19 100.36 -74.17 114.82
-88.5 125.5 -87.21 100.81 -74.14 114.88
-88.5 126.5 -87.22 101.26 -74.12 114.95
-88.5 127.5 -87.29 102.25 -74.07 115.19
-88.5 128.5 -87.45 104.56 -73.96 115.79
-88.5 129.5 -87.59 107.02 -73.86 116.33
-88.5 130.5 -87.71 109.64 -73.76 116.83
-88.5 131.5 -87.82 112.4 -73.66 117.29
-88.5 132.5 -87.9 115.23 -73.56 117.7
-88.5 133.5 -87.98 118.16 -73.46 118.08
-88.5 134.5 -88.04 121.13 -73.37 118.43
-88.5 135.5 -88.08 124.08 -73.28 118.74
-88.5 136.5 -88.12 127.07 -73.2 119.04
-88.5 137.5 -88.15 130.05 -73.12 119.31
-88.5 138.5 -88.17 132.96 -73.04 119.57
-88.5 139.5 -88.18 135.77 -72.96 119.8
-88.5 140.5 -88.18 138.42 -72.89 120.01
-88.5 141.5 -88.18 141.04 -72.82 120.22
-88.5 142.5 -88.18 143.54 -72.75 120.41
-88.5 143.5 -88.17 145.94 -72.69 120.59
-88.5 144.5 -88.16 148.21 -72.63 120.76
-88.5 145.5 -88.14 150.37 -72.57 120.93
-88.5 146.5 -88.12 152.41 -72.51 121.08
-88.5 147.5 -88.1 154.34 -72.46 121.23
-88.5 148.5 -88.08 156.16 -72.4 121.37
-88.5 149.5 -88.06 157.92 -72.35 121.5
-88.5 150.5 -88.04 159.56 -72.31 121.63
-88.5 151.5 -88.02 161.11 -72.26 121.76
-88.5 152.5 -88.0 162.6 -72.22 121.88
-88.5 153.5 -87.97 164.03 -72.18 122.0
-88.5 154.5 -87.95 165.37 -72.14 122.12
-88.5 155.5 -87.93 166.66 -72.1 122.24
-88.5 156.5 -87.91 167.9 -72.07 122.35
-88.5 157.5 -87.89 169.08 -72.03 122.46
-88.5 158.5 -87.87 170.22 -72.0 122.57
-88.5 159.5 -87.85 171.32 -71.97 122.68
-88.5 160.5 -87.83 172.38 -71.94 122.78
-88.5 161.5 -87.81 173.4 -71.91 122.89
-88.5 162.5 -87.79 174.39 -71.89 122.99
-88.5 163.5 -87.78 175.36 -71.86 123.1
-88.5 164.5 -87.76 176.3 -71.84 123.2
-88.5 165.5 -87.75 177.21 -71.82 123.3
-88.5 166.5 -87.73 178.1 -71.8 123.4
-88.5 167.5 -87.72 178.98 -71.78 123.51
-88.5 168.5 -87.7 179.84 -71.76 123.61
-88.5 169.5 -87.69 180.68 -71.74 123.71
-88.5 170.5 -87.68 181.5 -71.72 123.81
-88.5 171.5 -87.67 182.32 -71.71 123.92
-88.5 172.5 -87.66 183.12 -71.69 124.02
-88.5 173.5 -87.64 183.92 -71.68 124.12
-88.5 174.5 -87.63 184.7 -71.67 124.22
-88.5 175.5 -87.63 185.48 -71.65 124.33
-88.5 176.5 -87.62 186.25 -71.64 124.43
-88.5 177.5 -87.61 187.01 -71.63 124.53
-88.5 178.5 -87.6 187.77 -71.62 124.64
-88.5 179.5 -87.59 188.52 -71.62 124.74
-87.5 -179.5 -87.4 181.02 -71.47 123.48
-87.5 -178.5 -87.39 182.16 -71.46 123.65
-87.5 -177.5 -87.39 183.29 -71.45 123.82
-87.5 -176.5 -87.39 184.41 -71.44 123.98
-87.5 -175.5 -87.38 185.52 -71.44 124.15
-87.5 -174.5 -87.38 186.61 -71.43 124.32
-87.5 -173.5 -87.38 187.7 -71.42 124.48
-87.5 -172.5 -87.37 188.77 -71.41 124.64
-87.5 -171.5 -87.37 189.84 -71.41 124.8
-87.5 -170.5 -87.36 190.9 -71.4 124.97
-87.5 -169.5 -87.36 191.94 -71.4 125.13
-87.5 -168.5 -87.36 192.98 -71.4 125.29
-87.5 -167.5 -87.35 194.01 -71.39 125.45
-87.5 -166.5 -87.35 195.03 -71.39 125.6
-87.5 -165.5 -87.35 196.05 -71.39 125.76
-87.5 -164.5 -87.34 197.06 -71.39 125.92
-87.5 -163.5 -87.34 198.06 -71.39 126.08
-87.5 -162.5 -87.34 199.06 -71.39 126.23
-87.5 -161.5 -87.33 200.05 -71.39 126.39
-87.5 -160.5 -87.33 201.04 -71.4 126.55
-87.5 -159.5 -87.32 202.02 -71.4 126.7
-87.5 -158.5 -87.32 203.0 -71.4 126.85
-87.5 -157.5 -87.32 203.97 -71.41 127.01
-87.5 -156.5 -87.32 204.94 -71.41 127.16
-87.5 -155.5 -87.31 205.91 -71.42 127.32
-87.5 -154.5 -87.31 206.87 -71.43 127.47
-87.5 -153.5 -87.31 207.83 -71.44 127.62
-87.5 -152.5 -87.3 208.79 -71.44 127.77
-87.5 -151.5 -87.3 209.74 -71.45 127.92
-87.5 -150.5 -87.3 210.69 -71.46 128.08
-87.5 -149.5 -87.3 211.64 -71.47 128.23
-87.5 -148.5 -87.29 212.59 -71.48 128.38
-87.5 -147.5 -87.29 213.53 -71.49 128.53
-87.5 -146.5 -87.29 214.48 -71.51 128.68
-87.5 -145.5 -87.29 215.42 -71.52 128.83
-87.5 -144.5 -87.29 216.36 -71.53 128.97
-87.5 -143.5 -87.28 217.3 -71.55 129.12
-87.5 -142.5 -87.28 218.24 -71.56 129.27
-87.5 -141.5 -87.28 219.18 -71.58 129.42
-87.5 -140.5 -87.28 220.12 -71.59 129.57
-87.5 -139.5 -87.28 221.05 -71.61 129.71
-87.5 -138.5 -87.28 221.99 -71.63 129.86
-87.5 -137.5 -87.28 222.92 -71.65 130.0
-87.5 -136.5 -87.27 223.86 -71.67 130.15
-87.5 -135.5 -87.27 224.79 -71.68 130.29
-87.5 -134.5 -87.27 225.73 -71.7 130.44
-87.5 -133.5 -87.27 226.66 -71.73 130.58
-87.5 -132.5 -87.27 227.59 -71.75 130.72
-87.5 -131.5 -87.27 228.53 -71.77 130.86
-87.5 -130.5 -87.27 229.46 -71.79 131.01
-87.5 -129.5 -87.27 230.4 -71.81 131.15
-87.5 -128.5 -87.27 231.33 -71.84 131.29
-87.5 -127.5 -87.27 232.27 -71.86 131.43
-87.5 -126.5 -87.27 233.2 -71.89 131.56
-87.5 -125.5 -87.27 234.14 -71.91 131.7
-87.5 -124.5 -87.27 235.07 -71.94 131.84
-87.5 -123.5 -87.27 236.01 -71.97 131.97
-87.5 -122.5 -87.27 236.95 -71.99 132.11
-87.5 -121.5 -87.27 237.89 -72.02 132.24
-87.5 -120.5 -87.27 238.82 -72.05 132.38
-87.5 -119.5 -87.27 239.76 -72.08 132.51
-87.5 -118.5 -87.27 240.7 -72.11 132.64
-87.5 -117.5 -87.28 241.65 -72.14 132.77
-87.5 -116.5 -87.28 242.59 -72.17 132.89
-87.5 -115.5 -87.28 243.53 -72.21 133.02
-87.5 -114.5 -87.28 244.48 -72.24 133.15
-87.5 -113.5 -87.29 245.42 -72.27 133.27
-87.5 -112.5 -87.29 246.37 -72.31 133.39
-87.5 -111.5 -87.29 247.32 -72.34 133.51
-87.5 -110.5 -87.29 248.27 -72.38 133.63
-87.5 -109.5 -87.3 249.22 -72.41 133.75
-87.5 -108.5 -87.3 250.17 -72.45 133.86
-87.5 -107.5 -87.31 251.13 -72.49 133.98
-87.5 -106.5 -87.31 252.08 -72.52 134.09
-87.5 -105.5 -87.32 253.04 -72.56 134.2
-87.5 -104.5 -87.32 254.0 -72.6 134.3
-87.5 -103.5 -87.33 254.97 -72.64 134.41
-87.5 -102.5 -87.34 255.94 -72.68 134.51
-87.5 -101.5 -87.35 256.91 -72.72 134.6
-87.5 -100.5 -87.35 257.88 -72.77 134.7
-87.5 -99.5 -87.36 258.85 -72.81 134.79
-87.5 -98.5 -87.37 259.83 -72.85 134.88
-87.5 -97.5 -87.38 260.82 -72.9 134.96
-87.5 -96.5 -87.39 261.8 -72.94 135.04
-87.5 -95.5 -87.41 262.8 -72.99 135.12
-87.5 -94.5 -87.42 263.79 -73.04 135.19
-87.5 -93.5 -87.44 264.79 -73.08 135.26
-87.5 -92.5 -87.45 265.79 -73.13 135.32
-87.5 -91.5 -87.47 266.8 -73.18 135.38
-87.5 -90.5 -87.49 267.82 -73.23 135.43
-87.5 -89.5 -87.51 268.83 -73.28 135.47
-87.5 -88.5 -87.53 269.86 -73.33 135.51
-87.5 -87.5 -87.55 270.88 -73.38 135.54
-87.5 -86.5 -87.57 271.91 -73.43 135.57
-87.5 -85.5 -87.6 272.95 -73.49 135.58
-87.5 -84.5 -87.63 273.98 -73.54 135.59
-87.5 -83.5 -87.66 275.02 -73.59 135.59
-87.5 -82.5 -87.69 276.06 -73.64 135.57
-87.5 -81.5 -87.73 277.1 -73.69 135.55
-87.5 -80.5 -87.76 278.13 -73.75 135.52
-87.5 -79.5 -87.8 279.15 -73.8 135.47
-87.5 -78.5 -87.84 280.16 -73.85 135.41
-87.5 -77.5 -87.89 281.15 -73.9 135.34
-87.5 -76.5 -87.94 282.1 -73.94 135.25
-87.5 -75.5 -87.99 283.04 -73.99 135.15
-87.5 -74.5 -87.98 284.13 -74.03 135.23
-87.5 -73.5 -87.97 285.22 -74.07 135.32
-87.5 -72.5 -87.96 286.34 -74.12 135.4
-87.5 -71.5 -87.95 287.43 -74.16 135.48
-87.5 -70.5 -87.94 288.52 -74.2 135.56
-87.5 -69.5 -87.94 289.59 -74.25 135.64
-87.5 -68.5 -87.93 290.67 -74.29 135.72
-87.5 -67.5 -87.92 291.74 -74.34 135.79
-87.5 -66.5 -87.91 292.81 -74.38 135.86
-87.5 -65.5 -87.9 293.87 -74.43 135.93
-87.5 -64.5 -87.89 294.93 -74.47 136.0
-87.5 -63.5 -87.88 295.99 -74.52 136.06
-87.5 -62.5 -87.88 297.04 -74.56 136.12
-87.5 -61.5 -87.87 298.08 -74.61 136.18
-87.5 -60.5 -87.86 299.13 -74.65 136.23
-87.5 -59.5 -87.85 300.17 -74.7 136.28
-87.5 -58.5 -87.85 301.2 -74.74 136.32
-87.5 -57.5 -87.84 302.24 -74.79 136.37
-87.5 -56.5 -87.83 303.27 -74.84 136.41
-87.5 -55.5 -87.83 304.31 -74.88 136.44
-87.5 -54.5 -87.82 305.33 -74.93 136.47
-87.5 -53.5 -87.82 306.36 -74.98 136.5
-87.5 -52.5 -87.81 307.39 -75.02 136.52
-87.5 -51.5 -87.81 308.42 -75.07 136.54
-87.5 -50.5 -87.8 309.44 -75.12 136.56
-87.5 -49.5 -87.8 310.47 -75.16 136.57
-87.5 -48.5 -87.8 311.5 -75.21 136.57
-87.5 -47.5 -87.8 312.52 -75.26 136.57
-87.5 -46.5 -87.79 313.55 -75.3 136.57
-87.5 -45.5 -87.79 314.58 -75.35 136.56
-87.5 -44.5 -87.79 315.62 -75.4 136.55
-87.5 -43.5 -87.79 316.66 -75.44 136.53
-87.5 -42.5 -87.79 317.7 -75.49 136.51
-87.5 -41.5 -87.79 318.71 -75.54 136.49
-87.5 -40.5 -87.79 319.75 -75.58 136.46
-87.5 -39.5 -87.8 320.79 -75.63 136.42
-87.5 -38.5 -87.8 321.83 -75.67 136.39
-87.5 -37.5 -87.8 322.87 -75.72 136.35
-87.5 -36.5 -87.8 323.91 -75.76 136.31
-87.5 -35.5 -87.8 324.93 -75.81 136.27
-87.5 -34.5 -87.79 325.95 -75.85 136.24
-87.5 -33.5 -87.79 326.96 -75.9 136.21
-87.5 -32.5 -87.78 327.93 -75.95 136.19
-87.5 -31.5 -87.76 328.86 -75.99 136.19
-87.5 -30.5 -87.75 329.8 -76.04 136.18
-87.5 -29.5 -87.74 330.74 -76.09 136.16
-87.5 -28.5 -87.72 331.69 -76.14 136.14
-87.5 -27.5 -87.71 332.64 -76.18 136.11
-87.5 -26.5 -87.7 333.61 -76.23 136.07
-87.5 -25.5 -87.69 334.57 -76.28 136.02
-87.5 -24.5 -87.68 335.53 -76.32 135.96
-87.5 -23.5 -87.67 336.49 -76.37 135.9
-87.5 -22.5 -87.66 337.46 -76.41 135.82
-87.5 -21.5 -87.65 338.44 -76.45 135.74
-87.5 -20.5 -87.65 339.43 -76.5 135.65
-87.5 -19.5 -87.64 340.43 -76.54 135.55
-87.5 -18.5 -87.64 341.43 -76.58 135.44
-87.5 -17.5 -87.63 342.45 -76.62 135.33
-87.5 -16.5 -87.63 343.49 -76.66 135.21
-87.5 -15.5 -87.63 344.53 -76.7 135.07
-87.5 -14.5 -87.62 345.53 -76.74 134.93
-87.5 -13.5 -87.61 346.54 -76.78 134.79
-87.5 -12.5 -87.61 347.56 -76.81 134.63
-87.5 -11.5 -87.6 348.58 -76.85 134.47
-87.5 -10.5 -87.6 349.62 -76.88 134.3
-87.5 -9.5 -87.59 350.66 -76.92 134.12
-87.5 -8.5 -87.59 351.71 -76.95 133.94
-87.5 -7.5 -87.59 352.77 -76.98 133.74
-87.5 -6.5 -87.59 353.83 -77.01 133.55
-87.5 -5.5 -87.58 354.9 -77.04 133.34
-87.5 -4.5 -87.58 355.99 -77.06 133.13
-87.5 -3.5 -87.58 357.07 -77.09 132.92
-87.5 -2.5 -87.58 358.17 -77.11 132.69
-87.5 -1.5 -87.58 359.27 -77.14 132.47
-87.5 -0.5 -87.58 0.37 -77.16 132.23
-87.5 0.5 -87.58 1.49 -77.18 132.0
-87.5 1.5 -87.57 2.61 -77.2 131.76
-87.5 2.5 -87.57 3.73 -77.22 131.51
-87.5 3.5 -87.57 4.86 -77.24 131.26
-87.5 4.5 -87.57 5.99 -77.26 131.01
-87.5 5.5 -87.57 7.12 -77.27 130.76
-87.5 6.5 -87.57 8.26 -77.29 130.5
-87.5 7.5 -87.56 9.39 -77.3 130.24
-87.5 8.5 -87.56 10.53 -77.31 129.97
-87.5 9.5 -87.56 11.68 -77.32 129.71
-87.5 10.5 -87.56 12.82 -77.33 129.44
-87.5 11.5 -87.55 13.96 -77.34 129.17
-87.5 12.5 -87.55 15.1 -77.35 128.9
-87.5 13.5 -87.55 16.24 -77.35 128.63
-87.5 14.5 -87.54 17.39 -77.36 128.35
-87.5 15.5 -87.54 18.53 -77.36 128.07
-87.5 16.5 -87.53 19.67 -77.37 127.8
-87.5 17.5 -87.52 20.81 -77.37 127.52
-87.5 18.5 -87.52 21.94 -77.37 127.24
-87.5 19.5 -87.51 23.08 -77.37 126.96
-87.5 20.5 -87.5 24.22 -77.37 126.68
-87.5 21.5 -87.5 25.36 -77.37 126.4
-87.5 22.5 -87.49 26.49 -77.36 126.11
-87.5 23.5 -87.48 27.62 -77.36 125.83
-87.5 24.5 -87.47 28.76 -77.35 125.54
-87.5 25.5 -87.46 29.89 -77.35 125.26
-87.5 26.5 -87.45 31.01 -77.34 124.97
-87.5 27.5 -87.44 32.14 -77.33 124.68
-87.5 28.5 -87.43 33.27 -77.32 124.4
-87.5 29.5 -87.41 34.39 -77.31 124.11
-87.5 30.5 -87.4 35.51 -77.29 123.82
-87.5 31.5 -87.39 36.63 -77.28 123.53
-87.5 32.5 -87.38 37.75 -77.27 123.24
-87.5 33.5 -87.36 38.87 -77.25 122.95
-87.5 34.5 -87.35 39.98 -77.23 122.66
-87.5 35.5 -87.34 41.1 -77.21 122.37
-87.5 36.5 -87.32 42.2 -77.19 122.08
-87.5 37.5 -87.31 43.31 -77.17 121.8
-87.5 38.5 -87.29 44.41 -77.15 121.51
-87.5 39.5 -87.28 45.49 -77.12 121.22
-87.5 40.5 -87.26 46.58 -77.1 120.94
-87.5 41.5 -87.25 47.66 -77.07 120.66
-87.5 42.5 -87.23 48.73 -77.04 120.38
-87.5 43.5 -87.21 49.8 -77.01 120.1
-87.5 44.5 -87.2 50.87 -76.98 119.82
-87.5 45.5 -87.18 51.93 -76.95 119.55
-87.5 46.5 -87.17 52.99 -76.91 119.28
-87.5 47.5 -87.15 54.04 -76.88 119.01
-87.5 48.5 -87.13 55.09 -76.84 118.75
-87.5 49.5 -87.12 56.12 -76.8 118.49
-87.5 50.5 -87.09 57.12 -76.76 118.24
-87.5 51.5 -87.07 58.12 -76.72 117.99
-87.5 52.5 -87.05 59.12 -76.68 117.74
-87.5 53.5 -87.03 60.11 -76.64 117.5
-87.5 54.5 -87.01 61.1 -76.59 117.27
-87.5 55.5 -86.99 62.08 -76.54 117.04
-87.5 56.5 -86.97 63.06 -76.5 116.82
-87.5 57.5 -86.95 64.02 -76.45 116.6
-87.5 58.5 -86.94 64.99 -76.4 116.39
-87.5 59.5 -86.92 65.94 -76.35 116.19
-87.5 60.5 -86.9 66.89 -76.3 115.99
-87.5 61.5 -86.89 67.84 -76.25 115.8
-87.5 62.5 -86.87 68.78 -76.2 115.61
-87.5 63.5 -86.86 69.71 -76.14 115.44
-87.5 64.5 -86.84 70.64 -76.09 115.27
-87.5 65.5 -86.83 71.57 -76.03 115.11
-87.5 66.5 -86.82 72.48 -75.98 114.95
-87.5 67.5 -86.81 73.4 -75.92 114.8
-87.5 68.5 -86.8 74.3 -75.87 114.66
-87.5 69.5 -86.79 75.21 -75.81 114.53
-87.5 70.5 -86.78 76.1 -75.75 114.4
-87.5 71.5 -86.77 76.99 -75.69 114.28
-87.5 72.5 -86.76 77.88 -75.64 114.17
-87.5 73.5 -86.75 78.76 -75.58 114.06
-87.5 74.5 -86.75 79.64 -75.52 113.96
-87.5 75.5 -86.74 80.51 -75.46 113.87
-87.5 76.5 -86.73 81.37 -75.4 113.79
-87.5 77.5 -86.73 82.23 -75.35 113.71
-87.5 78.5 -86.73 83.09 -75.29 113.64
-87.5 79.5 -86.72 83.94 -75.23 113.57
-87.5 80.5 -86.72 84.79 -75.17 113.51
-87.5 81.5 -86.72 85.63 -75.11 113.46
-87.5 82.5 -86.72 86.47 -75.06 113.42
-87.5 83.5 -86.72 87.3 -75.0 113.38
-87.5 84.5 -86.72 88.13 -74.94 113.35
-87.5 85.5 -86.72 88.95 -74.89 113.32
-87.5 86.5 -86.72 89.77 -74.83 113.3
-87.5 87.5 -86.73 90.58 -74.77 113.29
-87.5 88.5 -86.73 91.39 -74.72 113.28
-87.5 89.5 -86.73 92.2 -74.66 113.27
-87.5 90.5 -86.74 93.0 -74.61 113.27
-87.5 91.5 -86.75 93.8 -74.55 113.28
-87.5 92.5 -86.75 94.6 -74.5 113.29
-87.5 93.5 -86.76 95.39 -74.45 113.31
-87.5 94.5 -86.77 96.18 -74.39 113.33
-87.5 95.5 -86.78 96.96 -74.34 113.36
-87.5 96.5 -86.79 97.74 -74.29 113.39
-87.5 97.5 -86.79 98.52 -74.24 113.42
-87.5 98.5 -86.8 99.29 -74.19 113.46
-87.5 99.5 -86.82 100.07 -74.14 113.51
-87.5 100.5 -86.83 100.84 -74.09 113.55
-87.5 101.5 -86.83 101.62 -74.04 113.59
-87.5 102.5 -86.83 102.41 -73.99 113.61
-87.5 103.5 -86.84 103.21 -73.94 113.63
-87.5 104.5 -86.84 104.0 -73.89 113.66
-87.5 105.5 -86.84 104.8 -73.84 113.68
-87.5 106.5 -86.84 105.6 -73.79 113.7
-87.5 107.5 -86.83 106.41 -73.74 113.73
-87.5 108.5 -86.83 107.22 -73.69 113.75
-87.5 109.5 -86.83 108.03 -73.64 113.78
-87.5 110.5 -86.83 108.84 -73.6 113.82
-87.5 111.5 -86.83 109.63 -73.55 113.85
-87.5 112.5 -86.83 110.45 -73.5 113.89
-87.5 113.5 -86.83 111.26 -73.45 113.94
-87.5 114.5 -86.83 112.08 -73.4 113.98
-87.5 115.5 -86.83 112.9 -73.35 114.03
-87.5 116.5 -86.84 113.72 -73.31 114.09
-87.5 117.5 -86.84 114.54 -73.26 114.14
-87.5 118.5 -86.84 115.36 -73.21 114.2
-87.5 119.5 -86.84 116.18 -73.17 114.27
-87.5 120.5 -86.84 117.0 -73.12 114.33
-87.5 121.5 -86.85 117.82 -73.08 114.4
-87.5 122.5 -86.85 118.64 -73.03 114.47
-87.5 123.5 -86.85 119.47 -72.99 114.55
-87.5 124.5 -86.86 120.29 -72.95 114.63
-87.5 125.5 -86.86 121.11 -72.91 114.71
-87.5 126.5 -86.87 121.94 -72.86 114.79
-87.5 127.5 -86.87 122.76 -72.82 114.88
-87.5 128.5 -86.88 123.59 -72.78 114.96
-87.5 129.5 -86.88 124.42 -72.74 115.06
-87.5 130.5 -86.89 125.24 -72.7 115.15
-87.5 131.5 -86.89 126.07 -72.67 115.24
-87.5 132.5 -86.9 126.89 -72.63 115.34
-87.5 133.5 -86.91 127.72 -72.59 115.44
-87.5 134.5 -86.91 128.55 -72.56 115.54
-87.5 135.5 -86.92 129.38 -72.52 115.65
-87.5 136.5 -86.93 130.21 -72.48 115.75
-87.5 137.5 -86.94 131.03 -72.45 115.86
-87.5 138.5 -86.95 131.86 -72.42 115.97
-87.5 139.5 -86.95 132.69 -72.38 116.08
-87.5 140.5 -86.96 133.52 -72.35 116.2
-87.5 141.5 -86.97 134.35 -72.32 116.31
-87.5 142.5 -86.98 135.18 -72.29 116.43
-87.5 143.5 -86.99 136.02 -72.26 116.55
-87.5 144.5 -87.0 136.84 -72.23 116.67
-87.5 145.5 -87.01 137.68 -72.2 116.79
-87.5 146.5 -87.02 138.51 -72.18 116.91
-87.5 147.5 -87.03 139.34 -72.15 117.03
-87.5 148.5 -87.04 140.18 -72.13 117.16
-87.5 149.5 -87.05 141.01 -72.1 117.29
-87.5 150.5 -87.06 141.87 -72.07 117.42
-87.5 151.5 -87.07 142.7 -72.05 117.54
-87.5 152.5 -87.08 143.52 -72.03 117.67
-87.5 153.5 -87.09 144.36 -72.01 117.8
-87.5 154.5 -87.13 145.84 -71.98 118.08
-87.5 155.5 -87.17 147.32 -71.96 118.35
-87.5 156.5 -87.2 148.82 -71.93 118.61
-87.5 157.5 -87.23 150.32 -71.91 118.87
-87.5 158.5 -87.26 151.82 -71.88 119.12
-87.5 159.5 -87.28 153.31 -71.86 119.36
-87.5 160.5 -87.3 154.78 -71.84 119.59
-87.5 161.5 -87.32 156.25 -71.81 119.82
-87.5 162.5 -87.33 157.7 -71.79 120.05
-87.5 163.5 -87.35 159.14 -71.77 120.27
-87.5 164.5 -87.36 160.56 -71.74 120.48
-87.5 165.5 -87.37 161.97 -71.72 120.69
-87.5 166.5 -87.38 163.36 -71.7 120.9
-87.5 167.5 -87.38 164.73 -71.68 121.1
-87.5 168.5 -87.39 166.09 -71.66 121.3
-87.5 169.5 -87.4 167.42 -71.64 121.49
-87.5 170.5 -87.4 168.75 -71.62 121.69
-87.5 171.5 -87.4 170.04 -71.6 121.87
-87.5 172.5 -87.4 171.33 -71.59 122.06
-87.5 173.5 -87.4 172.6 -71.57 122.25
-87.5 174.5 -87.4 173.85 -71.55 122.43
-87.5 175.5 -87.4 175.08 -71.54 122.61
-87.5 176.5 -87.4 176.3 -71.52 122.79
-87.5 177.5 -87.4 177.5 -71.51 122.96
-87.5 178.5 -87.4 178.69 -71.5 123.14
-87.5 179.5 -87.4 179.86 -71.49 123.31
-86.5 -179.5 -86.43 179.73 -70.63 122.4
-86.5 -178.5 -86.44 180.72 -70.62 122.6
-86.5 -177.5 -86.45 181.72 -70.62 122.79
-86.5 -176.5 -86.45 182.73 -70.62 122.99
-86.5 -175.5 -86.46 183.74 -70.61 123.18
-86.5 -174.5 -86.47 184.73 -70.61 123.38
-86.5 -173.5 -86.47 185.74 -70.61 123.57
-86.5 -172.5 -86.48 186.76 -70.61 123.77
-86.5 -171.5 -86.48 187.77 -70.61 123.96
-86.5 -170.5 -86.48 188.79 -70.61 124.16
-86.5 -169.5 -86.49 189.81 -70.61 124.36
-86.5 -168.5 -86.49 190.82 -70.61 124.55
-86.5 -167.5 -86.49 191.84 -70.61 124.75
-86.5 -166.5 -86.5 192.86 -70.62 124.95
-86.5 -165.5 -86.5 193.88 -70.62 125.14
-86.5 -164.5 -86.5 194.9 -70.62 125.34
-86.5 -163.5 -86.5 195.92 -70.63 125.53
-86.5 -162.5 -86.51 196.94 -70.63 125.73
-86.5 -161.5 -86.51 197.96 -70.64 125.93
-86.5 -160.5 -86.51 198.98 -70.65 126.12
-86.5 -159.5 -86.51 199.99 -70.65 126.32
-86.5 -158.5 -86.51 201.01 -70.66 126.51
-86.5 -157.5 -86.51 202.03 -70.67 126.71
-86.5 -156.5 -86.51 203.04 -70.68 126.9
-86.5 -155.5 -86.52 204.06 -70.69 127.1
-86.5 -154.5 -86.52 205.07 -70.7 127.29
-86.5 -153.5 -86.52 206.08 -70.71 127.49
-86.5 -152.5 -86.52 207.09 -70.73 127.68
-86.5 -151.5 -86.52 208.1 -70.74 127.87
-86.5 -150.5 -86.52 209.11 -70.75 128.07
-86.5 -149.5 -86.52 210.12 -70.77 128.26
-86.5 -148.5 -86.52 211.12 -70.78 128.45
-86.5 -147.5 -86.52 212.13 -70.8 128.64
-86.5 -146.5 -86.52 213.13 -70.82 128.83
-86.5 -145.5 -86.52 214.14 -70.84 129.02
-86.5 -144.5 -86.52 215.14 -70.85 129.21
-86.5 -143.5 -86.52 216.14 -70.87 129.4
-86.5 -142.5 -86.52 217.14 -70.89 129.59
-86.5 -141.5 -86.52 218.14 -70.91 129.78
-86.5 -140.5 -86.52 219.13 -70.94 129.97
-86.5 -139.5 -86.52 220.13 -70.96 130.15
-86.5 -138.5 -86.52 221.13 -70.98 130.34
-86.5 -137.5 -86.52 222.12 -71.0 130.52
-86.5 -136.5 -86.52 223.11 -71.03 130.71
-86.5 -135.5 -86.52 224.11 -71.05 130.89
-86.5 -134.5 -86.52 225.1 -71.08 131.08
-86.5 -133.5 -86.52 226.09 -71.11 131.26
-86.5 -132.5 -86.52 227.08 -71.13 131.44
-86.5 -131.5 -86.52 228.07 -71.16 131.62
-86.5 -130.5 -86.52 229.05 -71.19 131.8
-86.5 -129.5 -86.52 230.04 -71.22 131.98
-86.5 -128.5 -86.52 231.02 -71.25 132.15
-86.5 -127.5 -86.52 232.01 -71.28 132.33
-86.5 -126.5 -86.52 232.99 -71.31 132.51
-86.5 -125.5 -86.52 233.98 -71.35 132.68
-86.5 -124.5 -86.52 234.96 -71.38 132.85
-86.5 -123.5 -86.52 235.94 -71.41 133.02
-86.5 -122.5 -86.52 236.92 -71.45 133.19
-86.5 -121.5 -86.52 237.9 -71.48 133.36
-86.5 -120.5 -86.52 238.88 -71.52 133.53
-86.5 -119.5 -86.53 239.85 -71.56 133.7
-86.5 -118.5 -86.53 240.83 -71.59 133.86
-86.5 -117.5 -86.53 241.8 -71.63 134.03
-86.5 -116.5 -86.53 242.78 -71.67 134.19
-86.5 -115.5 -86.53 243.75 -71.71 134.35
-86.5 -114.5 -86.53 244.72 -71.75 134.51
-86.5 -113.5 -86.53 245.69 -71.79 134.67
-86.5 -112.5 -86.53 246.66 -71.83 134.82
-86.5 -111.5 -86.53 247.62 -71.87 134.98
-86.5 -110.5 -86.53 248.59 -71.91 135.13
-86.5 -109.5 -86.54 249.55 -71.95 135.28
-86.5 -108.5 -86.54 250.51 -72.0 135.43
-86.5 -107.5 -86.54 251.47 -72.04 135.58
-86.5 -106.5 -86.54 252.42 -72.08 135.72
-86.5 -105.5 -86.54 253.37 -72.13 135.86
-86.5 -104.5 -86.54 254.32 -72.17 136.01
-86.5 -103.5 -86.54 255.26 -72.21 136.14
-86.5 -102.5 -86.55 256.2 -72.26 136.28
-86.5 -101.5 -86.55 257.14 -72.3 136.42
-86.5 -100.5 -86.55 258.07 -72.35 136.55
-86.5 -99.5 -86.55 258.99 -72.39 136.68
-86.5 -98.5 -86.55 259.91 -72.44 136.81
-86.5 -97.5 -86.55 260.82 -72.48 136.94
-86.5 -96.5 -86.55 261.72 -72.53 137.06
-86.5 -95.5 -86.55 262.62 -72.57 137.18
-86.5 -94.5 -86.55 263.5 -72.62 137.3
-86.5 -93.5 -86.55 264.37 -72.66 137.42
-86.5 -92.5 -86.55 265.24 -72.71 137.53
-86.5 -91.5 -86.55 266.08 -72.75 137.65
-86.5 -90.5 -86.55 266.92 -72.8 137.76
-86.5 -89.5 -86.55 267.74 -72.84 137.87
-86.5 -88.5 -86.54 268.54 -72.88 137.98
-86.5 -87.5 -86.54 269.51 -72.93 138.11
-86.5 -86.5 -86.54 270.5 -72.98 138.24
-86.5 -85.5 -86.53 271.49 -73.03 138.37
-86.5 -84.5 -86.53 272.47 -73.09 138.49
-86.5 -83.5 -86.53 273.47 -73.14 138.62
-86.5 -82.5 -86.52 274.46 -73.2 138.74
-86.5 -81.5 -86.52 275.45 -73.25 138.86
-86.5 -80.5 -86.52 276.43 -73.31 138.98
-86.5 -79.5 -86.51 277.42 -73.36 139.09
-86.5 -78.5 -86.51 278.41 -73.42 139.21
-86.5 -77.5 -86.51 279.39 -73.48 139.32
-86.5 -76.5 -86.5 280.38 -73.53 139.42
-86.5 -75.5 -86.5 281.36 -73.59 139.53
-86.5 -74.5 -86.5 282.35 -73.65 139.63
-86.5 -73.5 -86.5 283.34 -73.71 139.72
-86.5 -72.5 -86.49 284.32 -73.77 139.82
-86.5 -71.5 -86.49 285.31 -73.83 139.91
-86.5 -70.5 -86.49 286.3 -73.89 140.0
-86.5 -69.5 -86.49 287.29 -73.95 140.08
-86.5 -68.5 -86.49 288.28 -74.01 140.16
-86.5 -67.5 -86.49 289.28 -74.07 140.24
-86.5 -66.5 -86.49 290.28 -74.13 140.31
-86.5 -65.5 -86.49 291.27 -74.19 140.37
-86.5 -64.5 -86.49 292.28 -74.26 140.43
-86.5 -63.5 -86.49 293.28 -74.32 140.49
-86.5 -62.5 -86.5 294.3 -74.39 140.54
-86.5 -61.5 -86.5 295.31 -74.45 140.59
-86.5 -60.5 -86.5 296.34 -74.51 140.63
-86.5 -59.5 -86.51 297.36 -74.58 140.66
-86.5 -58.5 -86.51 298.4 -74.65 140.69
-86.5 -57.5 -86.52 299.44 -74.71 140.71
-86.5 -56.5 -86.53 300.5 -74.78 140.72
-86.5 -55.5 -86.54 301.56 -74.85 140.73
-86.5 -54.5 -86.55 302.64 -74.92 140.73
-86.5 -53.5 -86.56 303.73 -74.99 140.71
-86.5 -52.5 -86.57 304.83 -75.06 140.69
-86.5 -51.5 -86.59 305.95 -75.13 140.66
-86.5 -50.5 -86.6 307.08 -75.2 140.62
-86.5 -49.5 -86.62 308.24 -75.27 140.56
-86.5 -48.5 -86.64 309.42 -75.34 140.5
-86.5 -47.5 -86.67 310.62 -75.41 140.42
-86.5 -46.5 -86.69 311.86 -75.48 140.32
-86.5 -45.5 -86.72 313.12 -75.55 140.21
-86.5 -44.5 -86.75 314.42 -75.63 140.08
-86.5 -43.5 -86.79 315.75 -75.7 139.93
-86.5 -42.5 -86.82 317.14 -75.77 139.77
-86.5 -41.5 -86.87 318.57 -75.84 139.58
-86.5 -40.5 -86.91 320.06 -75.91 139.36
-86.5 -39.5 -86.97 321.61 -75.98 139.12
-86.5 -38.5 -87.02 323.24 -76.05 138.85
-86.5 -37.5 -87.09 324.96 -76.12 138.55
-86.5 -36.5 -87.16 326.77 -76.19 138.21
-86.5 -35.5 -87.24 328.71 -76.25 137.83
-86.5 -34.5 -87.32 330.78 -76.31 137.42
-86.5 -33.5 -87.42 333.01 -76.37 136.96
-86.5 -32.5 -87.52 335.44 -76.42 136.45
-86.5 -31.5 -87.59 337.42 -76.46 136.09
-86.5 -30.5 -87.58 338.58 -76.51 135.98
-86.5 -29.5 -87.57 339.73 -76.56 135.86
-86.5 -28.5 -87.57 340.89 -76.61 135.74
-86.5 -27.5 -87.56 342.06 -76.66 135.61
-86.5 -26.5 -87.56 343.23 -76.71 135.47
-86.5 -25.5 -87.55 344.4 -76.76 135.32
-86.5 -24.5 -87.55 345.56 -76.8 135.17
-86.5 -23.5 -87.54 346.69 -76.85 135.01
-86.5 -22.5 -87.53 347.82 -76.89 134.84
-86.5 -21.5 -87.52 348.95 -76.93 134.67
-86.5 -20.5 -87.51 350.08 -76.98 134.49
-86.5 -19.5 -87.5 351.21 -77.02 134.3
-86.5 -18.5 -87.49 352.35 -77.06 134.1
-86.5 -17.5 -87.48 353.48 -77.1 133.9
-86.5 -16.5 -87.48 354.62 -77.13 133.69
-86.5 -15.5 -87.47 355.76 -77.17 133.47
-86.5 -14.5 -87.46 356.9 -77.2 133.25
-86.5 -13.5 -87.45 358.04 -77.24 133.03
-86.5 -12.5 -87.45 359.18 -77.27 132.79
-86.5 -11.5 -87.44 0.33 -77.3 132.55
-86.5 -10.5 -87.43 1.47 -77.33 132.31
-86.5 -9.5 -87.42 2.62 -77.36 132.06
-86.5 -8.5 -87.42 3.77 -77.38 131.8
-86.5 -7.5 -87.41 4.91 -77.41 131.54
-86.5 -6.5 -87.4 6.06 -77.43 131.28
-86.5 -5.5 -87.4 7.21 -77.45 131.01
-86.5 -4.5 -87.39 8.34 -77.47 130.74
-86.5 -3.5 -87.38 9.48 -77.49 130.47
-86.5 -2.5 -87.37 10.62 -77.51 130.19
-86.5 -1.5 -87.37 11.76 -77.53 129.91
-86.5 -0.5 -87.36 12.9 -77.55 129.63
-86.5 0.5 -87.35 14.03 -77.56 129.34
-86.5 1.5 -87.34 15.15 -77.57 129.05
-86.5 2.5 -87.33 16.27 -77.59 128.77
-86.5 3.5 -87.32 17.39 -77.6 128.48
-86.5 4.5 -87.31 18.5 -77.61 128.19
-86.5 5.5 -87.3 19.6 -77.62 127.9
-86.5 6.5 -87.29 20.69 -77.63 127.61
-86.5 7.5 -87.28 21.77 -77.63 127.31
-86.5 8.5 -87.26 22.84 -77.64 127.02
-86.5 9.5 -87.25 23.91 -77.65 126.73
-86.5 10.5 -87.23 24.97 -77.66 126.44
-86.5 11.5 -87.21 26.02 -77.66 126.14
-86.5 12.5 -87.2 27.04 -77.67 125.85
-86.5 13.5 -87.18 28.06 -77.68 125.56
-86.5 14.5 -87.16 29.08 -77.68 125.26
-86.5 15.5 -87.14 30.1 -77.69 124.97
-86.5 16.5 -87.12 31.11 -77.69 124.67
-86.5 17.5 -87.1 32.12 -77.69 124.37
-86.5 18.5 -87.09 33.13 -77.68 124.07
-86.5 19.5 -87.07 34.11 -77.68 123.76
-86.5 20.5 -87.05 35.09 -77.67 123.46
-86.5 21.5 -87.04 36.07 -77.66 123.16
-86.5 22.5 -87.02 37.05 -77.65 122.86
-86.5 23.5 -87.0 38.01 -77.63 122.56
-86.5 24.5 -86.98 38.95 -77.62 122.26
-86.5 25.5 -86.97 39.88 -77.6 121.97
-86.5 26.5 -86.95 40.81 -77.58 121.68
-86.5 27.5 -86.93 41.74 -77.56 121.39
-86.5 28.5 -86.92 42.67 -77.54 121.1
-86.5 29.5 -86.9 43.6 -77.51 120.82
-86.5 30.5 -86.88 44.51 -77.49 120.54
-86.5 31.5 -86.87 45.43 -77.46 120.26
-86.5 32.5 -86.85 46.34 -77.43 119.99
-86.5 33.5 -86.84 47.26 -77.4 119.73
-86.5 34.5 -86.83 48.16 -77.36 119.47
-86.5 35.5 -86.81 49.04 -77.33 119.21
-86.5 36.5 -86.79 49.9 -77.3 118.96
-86.5 37.5 -86.78 50.76 -77.27 118.7
-86.5 38.5 -86.76 51.6 -77.24 118.45
-86.5 39.5 -86.74 52.44 -77.21 118.21
-86.5 40.5 -86.72 53.27 -77.18 117.96
-86.5 41.5 -86.7 54.08 -77.14 117.72
-86.5 42.5 -86.68 54.89 -77.11 117.48
-86.5 43.5 -86.66 55.69 -77.08 117.24
-86.5 44.5 -86.63 56.48 -77.05 117.0
-86.5 45.5 -86.61 57.27 -77.01 116.77
-86.5 46.5 -86.59 58.05 -76.98 116.54
-86.5 47.5 -86.57 58.82 -76.94 116.31
-86.5 48.5 -86.54 59.59 -76.91 116.09
-86.5 49.5 -86.52 60.36 -76.87 115.86
-86.5 50.5 -86.5 61.12 -76.84 115.65
-86.5 51.5 -86.47 61.88 -76.8 115.43
-86.5 52.5 -86.45 62.63 -76.76 115.22
-86.5 53.5 -86.43 63.38 -76.72 115.01
-86.5 54.5 -86.4 64.13 -76.68 114.81
-86.5 55.5 -86.38 64.87 -76.64 114.6
-86.5 56.5 -86.36 65.61 -76.6 114.41
-86.5 57.5 -86.34 66.35 -76.56 114.21
-86.5 58.5 -86.32 67.09 -76.51 114.03
-86.5 59.5 -86.3 67.83 -76.47 113.84
-86.5 60.5 -86.27 68.56 -76.43 113.67
-86.5 61.5 -86.25 69.3 -76.38 113.49
-86.5 62.5 -86.24 70.03 -76.33 113.32
-86.5 63.5 -86.22 70.76 -76.29 113.16
-86.5 64.5 -86.2 71.49 -76.24 113.0
-86.5 65.5 -86.18 72.22 -76.19 112.85
-86.5 66.5 -86.17 72.93 -76.14 112.7
-86.5 67.5 -86.15 73.65 -76.09 112.55
-86.5 68.5 -86.14 74.37 -76.04 112.41
-86.5 69.5 -86.13 75.08 -75.99 112.28
-86.5 70.5 -86.11 75.79 -75.94 112.15
-86.5 71.5 -86.1 76.5 -75.88 112.03
-86.5 72.5 -86.09 77.21 -75.83 111.91
-86.5 73.5 -86.08 77.92 -75.78 111.8
-86.5 74.5 -86.07 78.63 -75.72 111.69
-86.5 75.5 -86.06 79.34 -75.67 111.59
-86.5 76.5 -86.06 80.06 -75.61 111.5
-86.5 77.5 -86.05 80.77 -75.56 111.41
-86.5 78.5 -86.04 81.48 -75.5 111.32
-86.5 79.5 -86.03 82.2 -75.45 111.24
-86.5 80.5 -86.03 82.91 -75.39 111.17
-86.5 81.5 -86.02 83.63 -75.33 111.1
-86.5 82.5 -86.02 84.35 -75.28 111.03
-86.5 83.5 -86.01 85.06 -75.22 110.97
-86.5 84.5 -86.01 85.78 -75.16 110.92
-86.5 85.5 -86.04 86.48 -75.1 111.01
-86.5 86.5 -86.09 87.2 -75.04 111.14
-86.5 87.5 -86.13 87.98 -74.98 111.26
-86.5 88.5 -86.17 88.79 -74.92 111.38
-86.5 89.5 -86.21 89.65 -74.85 111.48
-86.5 90.5 -86.25 90.53 -74.78 111.57
-86.5 91.5 -86.28 91.45 -74.71 111.66
-86.5 92.5 -86.3 92.39 -74.64 111.74
-86.5 93.5 -86.33 93.35 -74.57 111.81
-86.5 94.5 -86.35 94.33 -74.5 111.88
-86.5 95.5 -86.37 95.33 -74.43 111.95
-86.5 96.5 -86.39 96.34 -74.36 112.02
-86.5 97.5 -86.41 97.36 -74.28 112.08
-86.5 98.5 -86.43 98.4 -74.21 112.14
-86.5 99.5 -86.44 99.44 -74.14 112.2
-86.5 100.5 -86.45 100.49 -74.07 112.26
-86.5 101.5 -86.46 101.55 -73.99 112.32
-86.5 102.5 -86.47 102.61 -73.92 112.38
-86.5 103.5 -86.48 103.67 -73.85 112.44
-86.5 104.5 -86.49 104.74 -73.78 112.5
-86.5 105.5 -86.5 105.81 -73.71 112.56
-86.5 106.5 -86.5 106.88 -73.64 112.63
-86.5 107.5 -86.51 107.96 -73.57 112.69
-86.5 108.5 -86.51 109.03 -73.5 112.76
-86.5 109.5 -86.51 110.1 -73.43 112.83
-86.5 110.5 -86.51 111.17 -73.36 112.89
-86.5 111.5 -86.52 112.24 -73.29 112.97
-86.5 112.5 -86.52 113.31 -73.23 113.04
-86.5 113.5 -86.52 114.38 -73.16 113.11
-86.5 114.5 -86.52 115.45 -73.09 113.19
-86.5 115.5 -86.52 116.51 -73.03 113.27
-86.5 116.5 -86.51 117.57 -72.97 113.35
-86.5 117.5 -86.51 118.63 -72.9 113.44
-86.5 118.5 -86.51 119.68 -72.84 113.52
-86.5 119.5 -86.51 120.73 -72.78 113.61
-86.5 120.5 -86.51 121.78 -72.71 113.7
-86.5 121.5 -86.5 122.83 -72.65 113.79
-86.5 122.5 -86.5 123.87 -72.59 113.89
-86.5 123.5 -86.5 124.9 -72.53 113.99
-86.5 124.5 -86.49 125.94 -72.48 114.09
-86.5 125.5 -86.49 126.97 -72.42 114.19
-86.5 126.5 -86.49 127.99 -72.36 114.29
-86.5 127.5 -86.48 129.01 -72.31 114.4
-86.5 128.5 -86.48 130.03 -72.25 114.51
-86.5 129.5 -86.48 131.05 -72.2 114.62
-86.5 130.5 -86.47 132.06 -72.14 114.73
-86.5 131.5 -86.47 133.06 -72.09 114.84
-86.5 132.5 -86.47 134.07 -72.04 114.96
-86.5 133.5 -86.46 135.07 -71.99 115.08
-86.5 134.5 -86.46 136.06 -71.94 115.2
-86.5 135.5 -86.45 137.05 -71.89 115.32
-86.5 136.5 -86.45 138.04 -71.84 115.45
-86.5 137.5 -86.45 139.03 -71.79 115.57
-86.5 138.5 -86.44 140.01 -71.75 115.7
-86.5 139.5 -86.44 140.99 -71.7 115.83
-86.5 140.5 -86.44 141.97 -71.65 115.97
-86.5 141.5 -86.43 142.94 -71.61 116.1
-86.5 142.5 -86.43 143.91 -71.57 116.23
-86.5 143.5 -86.43 144.88 -71.53 116.37
-86.5 144.5 -86.42 145.84 -71.48 116.51
-86.5 145.5 -86.42 146.8 -71.44 116.65
-86.5 146.5 -86.42 147.76 -71.41 116.79
-86.5 147.5 -86.42 148.72 -71.37 116.94
-86.5 148.5 -86.41 149.67 -71.33 117.08
-86.5 149.5 -86.41 150.63 -71.29 117.23
-86.5 150.5 -86.41 151.58 -71.26 117.38
-86.5 151.5 -86.41 152.52 -71.22 117.53
-86.5 152.5 -86.4 153.47 -71.19 117.68
-86.5 153.5 -86.4 154.41 -71.16 117.83
-86.5 154.5 -86.4 155.36 -71.12 117.98
-86.5 155.5 -86.4 156.3 -71.09 118.14
-86.5 156.5 -86.4 157.24 -71.06 118.3
-86.5 157.5 -86.4 158.17 -71.03 118.45
-86.5 158.5 -86.4 159.11 -71.0 118.61
-86.5 159.5 -86.4 160.04 -70.98 118.77
-86.5 160.5 -86.39 160.98 -70.95 118.93
-86.5 161.5 -86.39 161.91 -70.92 119.09
-86.5 162.5 -86.39 162.84 -70.9 119.26
-86.5 163.5 -86.39 163.77 -70.88 119.42
-86.5 164.5 -86.39 164.7 -70.85 119.59
-86.5 165.5 -86.39 165.63 -70.83 119.75
-86.5 166.5 -86.39 166.56 -70.81 119.92
-86.5 167.5 -86.39 167.48 -70.79 120.09
-86.5 168.5 -86.4 168.41 -70.77 120.26
-86.5 169.5 -86.4 169.34 -70.75 120.43
-86.5 170.5 -86.4 170.26 -70.74 120.6
-86.5 171.5 -86.4 171.2 -70.72 120.77
-86.5 172.5 -86.4 172.13 -70.7 120.94
-86.5 173.5 -86.4 173.05 -70.69 121.12
-86.5 174.5 -86.4 173.97 -70.67 121.29
-86.5 175.5 -86.4 174.89 -70.66 121.46
-86.5 176.5 -86.41 175.82 -70.65 121.64
-86.5 177.5 -86.41 176.77 -70.64 121.82
-86.5 178.5 -86.42 177.75 -70.64 122.02
-86.5 179.5 -86.43 178.73 -70.63 122.21
-85.5 -179.5 -85.52 180.9 -69.79 121.91
-85.5 -178.5 -85.52 181.89 -69.78 122.14
-85.5 -177.5 -85.52 182.88 -69.77 122.36
-85.5 -176.5 -85.52 183.86 -69.76 122.58
-85.5 -175.5 -85.52 184.85 -69.75 122.8
-85.5 -174.5 -85.51 185.84 -69.74 123.03
-85.5 -173.5 -85.51 186.82 -69.73 123.25
-85.5 -172.5 -85.51 187.81 -69.73 123.47
-85.5 -171.5 -85.51 188.79 -69.72 123.7
-85.5 -170.5 -85.51 189.77 -69.72 123.92
-85.5 -169.5 -85.51 190.76 -69.71 124.15
-85.5 -168.5 -85.51 191.74 -69.71 124.37
-85.5 -167.5 -85.51 192.72 -69.71 124.59
-85.5 -166.5 -85.5 193.7 -69.71 124.82
-85.5 -165.5 -85.5 194.68 -69.71 125.05
-85.5 -164.5 -85.5 195.66 -69.71 125.27
-85.5 -163.5 -85.5 196.64 -69.72 125.5
-85.5 -162.5 -85.5 197.62 -69.72 125.72
-85.5 -161.5 -85.5 198.59 -69.73 125.95
-85.5 -160.5 -85.5 199.57 -69.73 126.18
-85.5 -159.5 -85.5 200.55 -69.74 126.4
-85.5 -158.5 -85.5 201.52 -69.75 126.63
-85.5 -157.5 -85.5 202.5 -69.76 126.85
-85.5 -156.5 -85.5 203.47 -69.77 127.08
-85.5 -155.5 -85.5 204.45 -69.78 127.31
-85.5 -154.5 -85.5 205.42 -69.79 127.53
-85.5 -153.5 -85.5 206.4 -69.81 127.76
-85.5 -152.5 -85.5 207.37 -69.82 127.98
-85.5 -151.5 -85.5 208.35 -69.84 128.21
-85.5 -150.5 -85.5 209.32 -69.85 128.43
-85.5 -149.5 -85.5 210.3 -69.87 128.66
-85.5 -148.5 -85.5 211.27 -69.89 128.88
-85.5 -147.5 -85.5 212.25 -69.91 129.11
-85.5 -146.5 -85.5 213.24 -69.93 129.33
-85.5 -145.5 -85.5 214.22 -69.95 129.56
-85.5 -144.5 -85.5 215.2 -69.98 129.78
-85.5 -143.5 -85.5 216.19 -70.0 130.01
-85.5 -142.5 -85.5 217.17 -70.03 130.23
-85.5 -141.5 -85.51 218.16 -70.05 130.46
-85.5 -140.5 -85.51 219.15 -70.08 130.68
-85.5 -139.5 -85.51 220.13 -70.11 130.9
-85.5 -138.5 -85.51 221.12 -70.13 131.13
-85.5 -137.5 -85.51 222.11 -70.16 131.35
-85.5 -136.5 -85.51 223.09 -70.19 131.57
-85.5 -135.5 -85.51 224.08 -70.23 131.79
-85.5 -134.5 -85.51 225.07 -70.26 132.01
-85.5 -133.5 -85.51 226.06 -70.29 132.23
-85.5 -132.5 -85.51 227.04 -70.32 132.45
-85.5 -131.5 -85.51 228.03 -70.36 132.67
-85.5 -130.5 -85.52 229.01 -70.39 132.88
-85.5 -129.5 -85.52 230.0 -70.43 133.1
-85.5 -128.5 -85.52 230.98 -70.46 133.32
-85.5 -127.5 -85.52 231.97 -70.5 133.53
-85.5 -126.5 -85.52 232.95 -70.54 133.75
-85.5 -125.5 -85.52 233.93 -70.58 133.96
-85.5 -124.5 -85.52 234.92 -70.62 134.17
-85.5 -123.5 -85.52 235.9 -70.66 134.38
-85.5 -122.5 -85.51 236.88 -70.7 134.59
-85.5 -121.5 -85.51 237.86 -70.74 134.8
-85.5 -120.5 -85.51 238.83 -70.78 135.01
-85.5 -119.5 -85.51 239.81 -70.82 135.22
-85.5 -118.5 -85.51 240.78 -70.87 135.42
-85.5 -117.5 -85.51 241.76 -70.91 135.62
-85.5 -116.5 -85.51 242.73 -70.96 135.83
-85.5 -115.5 -85.51 243.7 -71.0 136.03
-85.5 -114.5 -85.51 244.67 -71.05 136.23
-85.5 -113.5 -85.51 245.63 -71.09 136.43
-85.5 -112.5 -85.5 246.6 -71.14 136.63
-85.5 -111.5 -85.5 247.56 -71.19 136.82
-85.5 -110.5 -85.5 248.55 -71.24 137.02
-85.5 -109.5 -85.5 249.53 -71.29 137.22
-85.5 -108.5 -85.5 250.52 -71.34 137.41
-85.5 -107.5 -85.5 251.51 -71.4 137.6
-85.5 -106.5 -85.5 252.5 -71.45 137.79
-85.5 -105.5 -85.5 253.49 -71.51 137.98
-85.5 -104.5 -85.5 254.48 -71.56 138.17
-85.5 -103.5 -85.5 255.48 -71.62 138.36
-85.5 -102.5 -85.5 256.47 -71.67 138.54
-85.5 -101.5 -85.5 257.46 -71.73 138.73
-85.5 -100.5 -85.5 258.45 -71.79 138.91
-85.5 -99.5 -85.51 259.45 -71.85 139.09
-85.5 -98.5 -85.51 260.44 -71.91 139.26
-85.5 -97.5 -85.51 261.43 -71.97 139.44
-85.5 -96.5 -85.51 262.43 -72.03 139.61
-85.5 -95.5 -85.51 263.43 -72.09 139.78
-85.5 -94.5 -85.51 264.43 -72.16 139.95
-85.5 -93.5 -85.51 265.43 -72.22 140.12
-85.5 -92.5 -85.51 266.42 -72.28 140.28
-85.5 -91.5 -85.51 267.42 -72.35 140.44
-85.5 -90.5 -85.51 268.42 -72.42 140.6
-85.5 -89.5 -85.51 269.42 -72.48 140.76
-85.5 -88.5 -85.52 270.42 -72.55 140.91
-85.5 -87.5 -85.52 271.43 -72.62 141.06
-85.5 -86.5 -85.52 272.43 -72.68 141.21
-85.5 -85.5 -85.52 273.43 -72.75 141.35
-85.5 -84.5 -85.52 274.44 -72.82 141.49
-85.5 -83.5 -85.53 275.45 -72.89 141.63
-85.5 -82.5 -85.53 276.45 -72.96 141.76
-85.5 -81.5 -85.53 277.46 -73.04 141.89
-85.5 -80.5 -85.54 278.47 -73.11 142.02
-85.5 -79.5 -85.54 279.48 -73.18 142.14
-85.5 -78.5 -85.54 280.49 -73.25 142.26
-85.5 -77.5 -85.55 281.5 -73.33 142.37
-85.5 -76.5 -85.55 282.51 -73.4 142.48
-85.5 -75.5 -85.56 283.53 -73.48 142.59
-85.5 -74.5 -85.56 284.54 -73.55 142.69
-85.5 -73.5 -85.57 285.56 -73.63 142.79
-85.5 -72.5 -85.57 286.57 -73.71 142.88
-85.5 -71.5 -85.58 287.58 -73.78 142.96
-85.5 -70.5 -85.59 288.6 -73.86 143.04
-85.5 -69.5 -85.59 289.61 -73.94 143.11
-85.5 -68.5 -85.6 290.63 -74.01 143.18
-85.5 -67.5 -85.61 291.64 -74.09 143.24
-85.5 -66.5 -85.62 292.64 -74.17 143.3
-85.5 -65.5 -85.63 293.65 -74.24 143.35
-85.5 -64.5 -85.64 294.65 -74.32 143.39
-85.5 -63.5 -85.65 295.65 -74.4 143.42
-85.5 -62.5 -85.67 296.64 -74.47 143.45
-85.5 -61.5 -85.68 297.62 -74.55 143.47
-85.5 -60.5 -85.69 298.6 -74.63 143.48
-85.5 -59.5 -85.71 299.56 -74.7 143.48
-85.5 -58.5 -85.73 300.51 -74.77 143.47
-85.5 -57.5 -85.74 301.45 -74.84 143.45
-85.5 -56.5 -85.76 302.36 -74.91 143.43
-85.5 -55.5 -85.78 303.24 -74.98 143.39
-85.5 -54.5 -85.8 304.11 -75.04 143.35
-85.5 -53.5 -85.82 304.94 -75.11 143.29
-85.5 -52.5 -85.83 305.86 -75.17 143.29
-85.5 -51.5 -85.83 306.85 -75.25 143.32
-85.5 -50.5 -85.83 307.85 -75.32 143.35
-85.5 -49.5 -85.82 308.85 -75.4 143.36
-85.5 -48.5 -85.82 309.85 -75.47 143.38
-85.5 -47.5 -85.82 310.84 -75.55 143.38
-85.5 -46.5 -85.82 311.84 -75.62 143.38
-85.5 -45.5 -85.82 312.84 -75.7 143.37
-85.5 -44.5 -85.82 313.85 -75.77 143.36
-85.5 -43.5 -85.82 314.85 -75.85 143.34
-85.5 -42.5 -85.82 315.86 -75.93 143.31
-85.5 -41.5 -85.83 316.87 -76.0 143.27
-85.5 -40.5 -85.83 317.88 -76.08 143.23
-85.5 -39.5 -85.83 318.9 -76.15 143.18
-85.5 -38.5 -85.83 319.92 -76.22 143.11
-85.5 -37.5 -85.84 320.94 -76.3 143.05
-85.5 -36.5 -85.84 321.97 -76.37 142.97
-85.5 -35.5 -85.85 323.0 -76.45 142.88
-85.5 -34.5 -85.86 324.04 -76.52 142.79
-85.5 -33.5 -85.86 325.08 -76.59 142.68
-85.5 -32.5 -85.87 326.13 -76.67 142.57
-85.5 -31.5 -85.88 327.19 -76.74 142.45
-85.5 -30.5 -85.89 328.25 -76.81 142.31
-85.5 -29.5 -85.9 329.32 -76.88 142.17
-85.5 -28.5 -85.91 330.4 -76.95 142.02
-85.5 -27.5 -85.92 331.49 -77.02 141.86
-85.5 -26.5 -85.93 332.58 -77.09 141.68
-85.5 -25.5 -85.94 333.69 -77.16 141.5
-85.5 -24.5 -85.95 334.8 -77.23 141.3
-85.5 -23.5 -85.97 335.92 -77.3 141.1
-85.5 -22.5 -85.98 337.06 -77.36 140.88
-85.5 -21.5 -85.99 338.2 -77.43 140.65
-85.5 -20.5 -86.01 339.36 -77.49 140.41
-85.5 -19.5 -86.02 340.53 -77.55 140.16
-85.5 -18.5 -86.04 341.7 -77.62 139.9
-85.5 -17.5 -86.05 342.89 -77.68 139.63
-85.5 -16.5 -86.07 344.09 -77.74 139.35
-85.5 -15.5 -86.08 345.3 -77.79 139.06
-85.5 -14.5 -86.1 346.52 -77.85 138.75
-85.5 -13.5 -86.11 347.75 -77.9 138.44
-85.5 -12.5 -86.13 348.98 -77.96 138.12
-85.5 -11.5 -86.14 350.22 -78.01 137.79
-85.5 -10.5 -86.15 351.47 -78.06 137.45
-85.5 -9.5 -86.16 352.71 -78.11 137.11
-85.5 -8.5 -86.17 353.97 -78.16 136.75
-85.5 -7.5 -86.18 355.21 -78.2 136.4
-85.5 -6.5 -86.19 356.46 -78.25 136.03
-85.5 -5.5 -86.19 357.67 -78.29 135.67
-85.5 -4.5 -86.19 358.85 -78.33 135.31
-85.5 -3.5 -86.18 0.02 -78.38 134.94
-85.5 -2.5 -86.19 1.23 -78.41 134.55
-85.5 -1.5 -86.18 2.44 -78.45 134.15
-85.5 -0.5 -86.18 3.65 -78.48 133.74
-85.5 0.5 -86.18 4.86 -78.51 133.33
-85.5 1.5 -86.18 6.07 -78.54 132.91
-85.5 2.5 -86.18 7.27 -78.57 132.48
-85.5 3.5 -86.18 8.48 -78.59 132.05
-85.5 4.5 -86.17 9.67 -78.61 131.62
-85.5 5.5 -86.17 10.85 -78.63 131.19
-85.5 6.5 -86.16 12.03 -78.65 130.76
-85.5 7.5 -86.16 13.19 -78.67 130.32
-85.5 8.5 -86.15 14.34 -78.68 129.89
-85.5 9.5 -86.14 15.48 -78.69 129.46
-85.5 10.5 -86.13 16.6 -78.7 129.03
-85.5 11.5 -86.12 17.71 -78.71 128.6
-85.5 12.5 -86.11 18.8 -78.72 128.18
-85.5 13.5 -86.09 19.87 -78.72 127.75
-85.5 14.5 -86.08 20.93 -78.73 127.34
-85.5 15.5 -86.07 21.96 -78.73 126.92
-85.5 16.5 -86.06 22.96 -78.73 126.52
-85.5 17.5 -86.04 23.95 -78.73 126.11
-85.5 18.5 -86.03 24.93 -78.73 125.71
-85.5 19.5 -86.02 25.89 -78.72 125.31
-85.5 20.5 -86.0 26.84 -78.72 124.92
-85.5 21.5 -85.99 27.78 -78.71 124.53
-85.5 22.5 -85.97 28.7 -78.7 124.15
-85.5 23.5 -85.96 29.62 -78.69 123.76
-85.5 24.5 -85.95 30.52 -78.68 123.39
-85.5 25.5 -85.93 31.43 -78.67 123.01
-85.5 26.5 -85.92 32.32 -78.65 122.63
-85.5 27.5 -85.9 33.22 -78.63 122.26
-85.5 28.5 -85.89 34.11 -78.62 121.89
-85.5 29.5 -85.88 35.0 -78.59 121.52
-85.5 30.5 -85.86 35.88 -78.57 121.16
-85.5 31.5 -85.85 36.78 -78.55 120.79
-85.5 32.5 -85.84 37.67 -78.52 120.43
-85.5 33.5 -85.82 38.57 -78.49 120.07
-85.5 34.5 -85.81 39.47 -78.46 119.71
-85.5 35.5 -85.8 40.38 -78.43 119.35
-85.5 36.5 -85.79 41.29 -78.4 118.99
-85.5 37.5 -85.77 42.21 -78.36 118.64
-85.5 38.5 -85.76 43.14 -78.32 118.29
-85.5 39.5 -85.75 44.07 -78.28 117.94
-85.5 40.5 -85.74 45.0 -78.24 117.59
-85.5 41.5 -85.73 45.95 -78.19 117.25
-85.5 42.5 -85.72 46.89 -78.15 116.91
-85.5 43.5 -85.7 47.85 -78.1 116.57
-85.5 44.5 -85.69 48.81 -78.05 116.24
-85.5 45.5 -85.68 49.77 -77.99 115.92
-85.5 46.5 -85.67 50.74 -77.94 115.59
-85.5 47.5 -85.66 51.71 -77.88 115.28
-85.5 48.5 -85.65 52.68 -77.82 114.97
-85.5 49.5 -85.64 53.66 -77.76 114.66
-85.5 50.5 -85.63 54.64 -77.7 114.37
-85.5 51.5 -85.62 55.62 -77.64 114.08
-85.5 52.5 -85.61 56.6 -77.57 113.8
-85.5 53.5 -85.6 57.58 -77.5 113.52
-85.5 54.5 -85.59 58.55 -77.44 113.26
-85.5 55.5 -85.59 59.52 -77.37 113.0
-85.5 56.5 -85.58 60.49 -77.3 112.75
-85.5 57.5 -85.57 61.46 -77.23 112.51
-85.5 58.5 -85.57 62.42 -77.15 112.27
-85.5 59.5 -85.56 63.39 -77.08 112.05
-85.5 60.5 -85.55 64.36 -77.0 111.83
-85.5 61.5 -85.55 65.32 -76.93 111.63
-85.5 62.5 -85.54 66.28 -76.85 111.43
-85.5 63.5 -85.54 67.24 -76.78 111.24
-85.5 64.5 -85.53 68.19 -76.7 111.07
-85.5 65.5 -85.53 69.14 -76.62 110.9
-85.5 66.5 -85.52 70.09 -76.54 110.74
-85.5 67.5 -85.52 71.04 -76.46 110.59
-85.5 68.5 -85.52 71.98 -76.38 110.44
-85.5 69.5 -85.52 72.92 -76.3 110.31
-85.5 70.5 -85.51 73.86 -76.23 110.18
-85.5 71.5 -85.51 74.79 -76.15 110.07
-85.5 72.5 -85.51 75.72 -76.07 109.96
-85.5 73.5 -85.51 76.63 -75.99 109.85
-85.5 74.5 -85.51 77.54 -75.91 109.74
-85.5 75.5 -85.51 78.44 -75.83 109.63
-85.5 76.5 -85.5 79.34 -75.75 109.52
-85.5 77.5 -85.49 80.24 -75.67 109.42
-85.5 78.5 -85.49 81.14 -75.59 109.32
-85.5 79.5 -85.48 82.04 -75.52 109.22
-85.5 80.5 -85.47 82.94 -75.44 109.13
-85.5 81.5 -85.47 83.84 -75.36 109.04
-85.5 82.5 -85.46 84.74 -75.28 108.97
-85.5 83.5 -85.45 85.64 -75.2 108.89
-85.5 84.5 -85.45 86.53 -75.12 108.82
-85.5 85.5 -85.44 87.44 -75.04 108.76
-85.5 86.5 -85.43 88.34 -74.96 108.71
-85.5 87.5 -85.43 89.24 -74.87 108.66
-85.5 88.5 -85.42 90.15 -74.79 108.62
-85.5 89.5 -85.42 91.05 -74.71 108.59
-85.5 90.5 -85.41 91.96 -74.63 108.56
-85.5 91.5 -85.41 92.87 -74.55 108.54
-85.5 92.5 -85.4 93.77 -74.47 108.52
-85.5 93.5 -85.4 94.68 -74.39 108.51
-85.5 94.5 -85.39 95.59 -74.31 108.51
-85.5 95.5 -85.39 96.5 -74.23 108.51
-85.5 96.5 -85.39 97.41 -74.15 108.52
-85.5 97.5 -85.38 98.33 -74.06 108.53
-85.5 98.5 -85.38 99.24 -73.98 108.55
-85.5 99.5 -85.38 100.15 -73.9 108.57
-85.5 100.5 -85.38 101.07 -73.82 108.6
-85.5 101.5 -85.37 101.98 -73.75 108.64
-85.5 102.5 -85.37 102.9 -73.67 108.68
-85.5 103.5 -85.37 103.82 -73.59 108.72
-85.5 104.5 -85.37 104.74 -73.51 108.77
-85.5 105.5 -85.37 105.66 -73.43 108.83
-85.5 106.5 -85.37 106.58 -73.36 108.89
-85.5 107.5 -85.36 107.5 -73.28 108.95
-85.5 108.5 -85.36 108.43 -73.2 109.02
-85.5 109.5 -85.36 109.35 -73.13 109.1
-85.5 110.5 -85.36 110.28 -73.05 109.17
-85.5 111.5 -85.36 111.21 -72.98 109.26
-85.5 112.5 -85.36 112.13 -72.9 109.34
-85.5 113.5 -85.36 113.06 -72.83 109.43
-85.5 114.5 -85.36 113.99 -72.76 109.53
-85.5 115.5 -85.36 114.92 -72.68 109.63
-85.5 116.5 -85.37 115.85 -72.61 109.73
-85.5 117.5 -85.37 116.79 -72.54 109.84
-85.5 118.5 -85.37 117.72 -72.47 109.95
-85.5 119.5 -85.37 118.66 -72.4 110.06
-85.5 120.5 -85.37 119.59 -72.34 110.18
-85.5 121.5 -85.37 120.53 -72.27 110.3
-85.5 122.5 -85.37 121.46 -72.2 110.42
-85.5 123.5 -85.38 122.41 -72.13 110.55
-85.5 124.5 -85.38 123.34 -72.07 110.68
-85.5 125.5 -85.39 124.32 -72.01 110.83
-85.5 126.5 -85.4 125.34 -71.94 111.02
-85.5 127.5 -85.42 126.36 -71.88 111.2
-85.5 128.5 -85.43 127.4 -71.82 111.38
-85.5 129.5 -85.44 128.44 -71.76 111.57
-85.5 130.5 -85.46 129.48 -71.7 111.75
-85.5 131.5 -85.47 130.53 -71.64 111.94
-85.5 132.5 -85.48 131.57 -71.58 112.12
-85.5 133.5 -85.49 132.62 -71.52 112.31
-85.5 134.5 -85.49 133.67 -71.47 112.5
-85.5 135.5 -85.5 134.73 -71.41 112.68
-85.5 136.5 -85.51 135.78 -71.35 112.87
-85.5 137.5 -85.52 136.83 -71.3 113.06
-85.5 138.5 -85.52 137.89 -71.24 113.25
-85.5 139.5 -85.53 138.94 -71.19 113.44
-85.5 140.5 -85.53 139.99 -71.13 113.63
-85.5 141.5 -85.54 141.05 -71.08 113.82
-85.5 142.5 -85.54 142.1 -71.03 114.01
-85.5 143.5 -85.54 143.15 -70.98 114.2
-85.5 144.5 -85.55 144.2 -70.93 114.4
-85.5 145.5 -85.55 145.25 -70.88 114.59
-85.5 146.5 -85.55 146.3 -70.83 114.79
-85.5 147.5 -85.55 147.34 -70.78 114.98
-85.5 148.5 -85.55 148.39 -70.74 115.18
-85.5 149.5 -85.56 149.43 -70.69 115.38
-85.5 150.5 -85.56 150.47 -70.65 115.58
-85.5 151.5 -85.56 151.51 -70.61 115.78
-85.5 152.5 -85.56 152.55 -70.56 115.98
-85.5 153.5 -85.56 153.58 -70.52 116.18
-85.5 154.5 -85.56 154.62 -70.48 116.38
-85.5 155.5 -85.56 155.65 -70.44 116.58
-85.5 156.5 -85.56 156.68 -70.4 116.79
-85.5 157.5 -85.56 157.71 -70.37 116.99
-85.5 158.5 -85.56 158.74 -70.33 117.2
-85.5 159.5 -85.55 159.76 -70.29 117.41
-85.5 160.5 -85.55 160.78 -70.26 117.61
-85.5 161.5 -85.55 161.81 -70.23 117.82
-85.5 162.5 -85.55 162.82 -70.19 118.03
-85.5 163.5 -85.55 163.84 -70.16 118.24
-85.5 164.5 -85.55 164.86 -70.13 118.45
-85.5 165.5 -85.55 165.87 -70.1 118.66
-85.5 166.5 -85.55 166.89 -70.08 118.87
-85.5 167.5 -85.54 167.9 -70.05 119.09
-85.5 168.5 -85.54 168.91 -70.02 119.3
-85.5 169.5 -85.54 169.91 -70.0 119.52
-85.5 170.5 -85.54 170.92 -69.97 119.73
-85.5 171.5 -85.54 171.92 -69.95 119.95
-85.5 172.5 -85.54 172.93 -69.93 120.16
-85.5 173.5 -85.53 173.93 -69.91 120.38
-85.5 174.5 -85.53 174.93 -69.89 120.6
-85.5 175.5 -85.53 175.92 -69.87 120.82
-85.5 176.5 -85.53 176.92 -69.85 121.03
-85.5 177.5 -85.53 177.92 -69.83 121.25
-85.5 178.5 -85.53 178.91 -69.82 121.47
-85.5 179.5 -85.52 179.9 -69.8 121.69
-84.5 -179.5 -84.57 180.44 -68.93 121.12
-84.5 -178.5 -84.57 181.44 -68.92 121.38
-84.5 -177.5 -84.57 182.45 -68.9 121.64
-84.5 -176.5 -84.57 183.46 -68.89 121.9
-84.5 -175.5 -84.57 184.46 -68.88 122.17
-84.5 -174.5 -84.57 185.47 -68.88 122.43
-84.5 -173.5 -84.57 186.47 -68.87 122.69
-84.5 -172.5 -84.57 187.48 -68.86 122.95
-84.5 -171.5 -84.57 188.49 -68.86 123.22
-84.5 -170.5 -84.57 189.49 -68.85 123.48
-84.5 -169.5 -84.56 190.5 -68.85 123.74
-84.5 -168.5 -84.56 191.5 -68.85 124.01
-84.5 -167.5 -84.56 192.51 -68.85 124.27
-84.5 -166.5 -84.56 193.51 -68.85 124.54
-84.5 -165.5 -84.56 194.51 -68.85 124.8
-84.5 -164.5 -84.56 195.52 -68.86 125.07
-84.5 -163.5 -84.56 196.52 -68.86 125.33
-84.5 -162.5 -84.56 197.52 -68.86 125.6
-84.5 -161.5 -84.56 198.53 -68.87 125.86
-84.5 -160.5 -84.56 199.53 -68.88 126.13
-84.5 -159.5 -84.56 200.53 -68.89 126.39
-84.5 -158.5 -84.56 201.53 -68.9 126.66
-84.5 -157.5 -84.56 202.53 -68.91 126.93
-84.5 -156.5 -84.56 203.53 -68.92 127.19
-84.5 -155.5 -84.55 204.53 -68.93 127.46
-84.5 -154.5 -84.55 205.53 -68.95 127.72
-84.5 -153.5 -84.55 206.53 -68.96 127.99
-84.5 -152.5 -84.55 207.53 -68.98 128.25
-84.5 -151.5 -84.55 208.53 -69.0 128.52
-84.5 -150.5 -84.55 209.53 -69.02 128.78
-84.5 -149.5 -84.55 210.52 -69.04 129.05
-84.5 -148.5 -84.55 211.52 -69.06 129.31
-84.5 -147.5 -84.55 212.52 -69.08 129.58
-84.5 -146.5 -84.55 213.51 -69.1 129.84
-84.5 -145.5 -84.55 214.51 -69.13 130.1
-84.5 -144.5 -84.55 215.5 -69.15 130.37
-84.5 -143.5 -84.55 216.5 -69.18 130.63
-84.5 -142.5 -84.54 217.5 -69.21 130.89
-84.5 -141.5 -84.54 218.49 -69.24 131.15
-84.5 -140.5 -84.54 219.48 -69.27 131.41
-84.5 -139.5 -84.54 220.48 -69.3 131.67
-84.5 -138.5 -84.54 221.47 -69.33 131.93
-84.5 -137.5 -84.54 222.46 -69.36 132.19
-84.5 -136.5 -84.54 223.46 -69.4 132.45
-84.5 -135.5 -84.54 224.45 -69.43 132.71
-84.5 -134.5 -84.54 225.44 -69.47 132.97
-84.5 -133.5 -84.54 226.44 -69.51 133.23
-84.5 -132.5 -84.54 227.43 -69.54 133.48
-84.5 -131.5 -84.54 228.42 -69.58 133.74
-84.5 -130.5 -84.54 229.41 -69.62 133.99
-84.5 -129.5 -84.54 230.41 -69.66 134.25
-84.5 -128.5 -84.54 231.4 -69.71 134.5
-84.5 -127.5 -84.54 232.39 -69.75 134.75
-84.5 -126.5 -84.54 233.38 -69.8 135.0
-84.5 -125.5 -84.54 234.38 -69.84 135.25
-84.5 -124.5 -84.54 235.37 -69.89 135.5
-84.5 -123.5 -84.54 236.36 -69.94 135.75
-84.5 -122.5 -84.54 237.35 -69.98 136.0
-84.5 -121.5 -84.54 238.35 -70.03 136.24
-84.5 -120.5 -84.54 239.34 -70.08 136.49
-84.5 -119.5 -84.54 240.33 -70.14 136.73
-84.5 -118.5 -84.54 241.32 -70.19 136.97
-84.5 -117.5 -84.54 242.32 -70.24 137.21
-84.5 -116.5 -84.54 243.31 -70.3 137.45
-84.5 -115.5 -84.54 244.3 -70.35 137.69
-84.5 -114.5 -84.54 245.3 -70.41 137.93
-84.5 -113.5 -84.54 246.29 -70.46 138.17
-84.5 -112.5 -84.54 247.28 -70.52 138.4
-84.5 -111.5 -84.54 248.28 -70.58 138.63
-84.5 -110.5 -84.54 249.27 -70.64 138.86
-84.5 -109.5 -84.54 250.26 -70.7 139.09
-84.5 -108.5 -84.54 251.26 -70.76 139.32
-84.5 -107.5 -84.55 252.25 -70.83 139.55
-84.5 -106.5 -84.55 253.25 -70.89 139.77
-84.5 -105.5 -84.55 254.24 -70.96 139.99
-84.5 -104.5 -84.55 255.24 -71.02 140.21
-84.5 -103.5 -84.55 256.24 -71.09 140.43
-84.5 -102.5 -84.55 257.23 -71.15 140.65
-84.5 -101.5 -84.55 258.23 -71.22 140.86
-84.5 -100.5 -84.55 259.22 -71.29 141.08
-84.5 -99.5 -84.56 260.22 -71.36 141.29
-84.5 -98.5 -84.56 261.21 -71.43 141.49
-84.5 -97.5 -84.56 262.21 -71.5 141.7
-84.5 -96.5 -84.56 263.2 -71.57 141.9
-84.5 -95.5 -84.56 264.2 -71.65 142.1
-84.5 -94.5 -84.56 265.19 -71.72 142.3
-84.5 -93.5 -84.57 266.19 -71.79 142.5
-84.5 -92.5 -84.57 267.18 -71.87 142.69
-84.5 -91.5 -84.57 268.17 -71.94 142.88
-84.5 -90.5 -84.57 269.16 -72.02 143.06
-84.5 -89.5 -84.57 270.15 -72.1 143.25
-84.5 -88.5 -84.57 271.14 -72.17 143.43
-84.5 -87.5 -84.58 272.13 -72.25 143.61
-84.5 -86.5 -84.58 273.12 -72.33 143.78
-84.5 -85.5 -84.58 274.1 -72.41 143.95
-84.5 -84.5 -84.58 275.09 -72.49 144.12
-84.5 -83.5 -84.59 276.06 -72.57 144.28
-84.5 -82.5 -84.59 277.04 -72.65 144.44
-84.5 -81.5 -84.59 278.01 -72.73 144.6
-84.5 -80.5 -84.59 278.98 -72.81 144.76
-84.5 -79.5 -84.59 279.95 -72.89 144.9
-84.5 -78.5 -84.6 280.91 -72.97 145.05
-84.5 -77.5 -84.6 281.86 -73.05 145.19
-84.5 -76.5 -84.6 282.81 -73.13 145.33
-84.5 -75.5 -84.6 283.75 -73.21 145.46
-84.5 -74.5 -84.6 284.69 -73.29 145.59
-84.5 -73.5 -84.61 285.61 -73.37 145.72
-84.5 -72.5 -84.61 286.53 -73.45 145.84
-84.5 -71.5 -84.61 287.43 -73.53 145.96
-84.5 -70.5 -84.61 288.33 -73.6 146.07
-84.5 -69.5 -84.61 289.21 -73.68 146.18
-84.5 -68.5 -84.61 290.16 -73.77 146.3
-84.5 -67.5 -84.61 291.17 -73.85 146.42
-84.5 -66.5 -84.61 292.17 -73.94 146.54
-84.5 -65.5 -84.61 293.18 -74.03 146.66
-84.5 -64.5 -84.61 294.19 -74.12 146.76
-84.5 -63.5 -84.61 295.2 -74.21 146.87
-84.5 -62.5 -84.61 296.22 -74.3 146.97
-84.5 -61.5 -84.61 297.23 -74.4 147.06
-84.5 -60.5 -84.61 298.24 -74.49 147.14
-84.5 -59.5 -84.61 299.26 -74.58 147.22
-84.5 -58.5 -84.61 300.28 -74.68 147.3
-84.5 -57.5 -84.62 301.29 -74.77 147.37
-84.5 -56.5 -84.62 302.31 -74.86 147.43
-84.5 -55.5 -84.62 303.34 -74.96 147.48
-84.5 -54.5 -84.62 304.36 -75.05 147.53
-84.5 -53.5 -84.63 305.38 -75.15 147.56
-84.5 -52.5 -84.63 306.41 -75.24 147.6
-84.5 -51.5 -84.64 307.44 -75.34 147.62
-84.5 -50.5 -84.64 308.47 -75.43 147.63
-84.5 -49.5 -84.65 309.51 -75.53 147.64
-84.5 -48.5 -84.65 310.54 -75.63 147.63
-84.5 -47.5 -84.66 311.58 -75.72 147.62
-84.5 -46.5 -84.67 312.63 -75.82 147.6
-84.5 -45.5 -84.68 313.67 -75.91 147.56
-84.5 -44.5 -84.69 314.72 -76.01 147.52
-84.5 -43.5 -84.7 315.77 -76.1 147.46
-84.5 -42.5 -84.71 316.82 -76.2 147.39
-84.5 -41.5 -84.73 317.88 -76.29 147.31
-84.5 -40.5 -84.74 318.93 -76.39 147.21
-84.5 -39.5 -84.76 320.0 -76.48 147.1
-84.5 -38.5 -84.77 321.06 -76.57 146.98
-84.5 -37.5 -84.79 322.13 -76.67 146.84
-84.5 -36.5 -84.81 323.2 -76.76 146.68
-84.5 -35.5 -84.84 324.27 -76.85 146.51
-84.5 -34.5 -84.86 325.34 -76.93 146.31
-84.5 -33.5 -84.89 326.42 -77.02 146.1
-84.5 -32.5 -84.92 327.49 -77.1 145.87
-84.5 -31.5 -84.96 328.57 -77.18 145.62
-84.5 -30.5 -85.0 329.65 -77.26 145.35
-84.5 -29.5 -85.04 330.73 -77.33 145.05
-84.5 -28.5 -85.09 331.81 -77.4 144.73
-84.5 -27.5 -85.11 332.86 -77.48 144.51
-84.5 -26.5 -85.11 333.91 -77.56 144.33
-84.5 -25.5 -85.11 334.96 -77.64 144.14
-84.5 -24.5 -85.12 336.01 -77.72 143.95
-84.5 -23.5 -85.12 337.07 -77.8 143.74
-84.5 -22.5 -85.13 338.13 -77.87 143.52
-84.5 -21.5 -85.13 339.19 -77.95 143.28
-84.5 -20.5 -85.14 340.26 -78.03 143.03
-84.5 -19.5 -85.14 341.33 -78.1 142.78
-84.5 -18.5 -85.15 342.41 -78.17 142.5
-84.5 -17.5 -85.16 343.49 -78.24 142.22
-84.5 -16.5 -85.16 344.58 -78.31 141.93
-84.5 -15.5 -85.17 345.67 -78.38 141.62
-84.5 -14.5 -85.18 346.77 -78.45 141.3
-84.5 -13.5 -85.19 347.86 -78.52 140.96
-84.5 -12.5 -85.19 348.97 -78.58 140.62
-84.5 -11.5 -85.2 350.08 -78.64 140.26
-84.5 -10.5 -85.21 351.19 -78.7 139.89
-84.5 -9.5 -85.21 352.31 -78.76 139.51
-84.5 -8.5 -85.22 353.43 -78.82 139.11
-84.5 -7.5 -85.23 354.55 -78.87 138.71
-84.5 -6.5 -85.23 355.68 -78.92 138.29
-84.5 -5.5 -85.24 356.81 -78.97 137.86
-84.5 -4.5 -85.24 357.95 -79.02 137.42
-84.5 -3.5 -85.25 359.09 -79.07 136.98
-84.5 -2.5 -85.25 0.23 -79.11 136.52
-84.5 -1.5 -85.26 1.37 -79.15 136.05
-84.5 -0.5 -85.26 2.51 -79.19 135.57
-84.5 0.5 -85.26 3.66 -79.22 135.09
-84.5 1.5 -85.26 4.8 -79.26 134.59
-84.5 2.5 -85.26 5.95 -79.29 134.09
-84.5 3.5 -85.26 7.09 -79.32 133.58
-84.5 4.5 -85.26 8.23 -79.34 133.07
-84.5 5.5 -85.26 9.37 -79.37 132.55
-84.5 6.5 -85.26 10.51 -79.39 132.02
-84.5 7.5 -85.26 11.64 -79.41 131.5
-84.5 8.5 -85.25 12.78 -79.42 130.96
-84.5 9.5 -85.25 13.91 -79.44 130.42
-84.5 10.5 -85.24 15.03 -79.45 129.88
-84.5 11.5 -85.23 16.15 -79.46 129.34
-84.5 12.5 -85.23 17.27 -79.46 128.8
-84.5 13.5 -85.22 18.38 -79.47 128.25
-84.5 14.5 -85.22 19.49 -79.47 127.71
-84.5 15.5 -85.21 20.59 -79.47 127.16
-84.5 16.5 -85.2 21.69 -79.46 126.61
-84.5 17.5 -85.2 22.78 -79.46 126.07
-84.5 18.5 -85.19 23.87 -79.45 125.52
-84.5 19.5 -85.18 24.95 -79.44 124.98
-84.5 20.5 -85.17 26.02 -79.42 124.44
-84.5 21.5 -85.16 27.09 -79.41 123.9
-84.5 22.5 -85.15 28.15 -79.39 123.37
-84.5 23.5 -85.13 29.21 -79.37 122.84
-84.5 24.5 -85.12 30.26 -79.35 122.31
-84.5 25.5 -85.11 31.3 -79.33 121.78
-84.5 26.5 -85.09 32.34 -79.3 121.26
-84.5 27.5 -85.08 33.37 -79.27 120.75
-84.5 28.5 -85.07 34.4 -79.24 120.24
-84.5 29.5 -85.05 35.41 -79.21 119.73
-84.5 30.5 -85.03 36.43 -79.17 119.23
-84.5 31.5 -85.02 37.43 -79.14 118.73
-84.5 32.5 -85.0 38.43 -79.1 118.25
-84.5 33.5 -84.98 39.43 -79.06 117.76
-84.5 34.5 -84.97 40.42 -79.02 117.29
-84.5 35.5 -84.95 41.4 -78.98 116.81
-84.5 36.5 -84.93 42.38 -78.93 116.35
-84.5 37.5 -84.91 43.35 -78.88 115.89
-84.5 38.5 -84.89 44.32 -78.83 115.44
-84.5 39.5 -84.87 45.29 -78.78 115.0
-84.5 40.5 -84.85 46.24 -78.73 114.56
-84.5 41.5 -84.83 47.2 -78.68 114.13
-84.5 42.5 -84.81 48.15 -78.62 113.71
-84.5 43.5 -84.8 49.1 -78.57 113.3
-84.5 44.5 -84.78 50.04 -78.51 112.9
-84.5 45.5 -84.76 50.98 -78.45 112.5
-84.5 46.5 -84.74 51.91 -78.38 112.11
-84.5 47.5 -84.72 52.84 -78.32 111.74
-84.5 48.5 -84.7 53.77 -78.25 111.37
-84.5 49.5 -84.68 54.69 -78.19 111.01
-84.5 50.5 -84.66 55.62 -78.12 110.65
-84.5 51.5 -84.64 56.53 -78.05 110.31
-84.5 52.5 -84.62 57.45 -77.98 109.98
-84.5 53.5 -84.6 58.36 -77.9 109.66
-84.5 54.5 -84.58 59.27 -77.83 109.35
-84.5 55.5 -84.56 60.18 -77.75 109.04
-84.5 56.5 -84.55 61.08 -77.67 108.75
-84.5 57.5 -84.53 61.98 -77.6 108.47
-84.5 58.5 -84.51 62.88 -77.52 108.2
-84.5 59.5 -84.49 63.78 -77.44 107.93
-84.5 60.5 -84.48 64.67 -77.35 107.68
-84.5 61.5 -84.46 65.56 -77.27 107.44
-84.5 62.5 -84.45 66.45 -77.19 107.21
-84.5 63.5 -84.43 67.34 -77.1 106.98
-84.5 64.5 -84.42 68.22 -77.02 106.77
-84.5 65.5 -84.4 69.11 -76.93 106.57
-84.5 66.5 -84.39 69.99 -76.84 106.38
-84.5 67.5 -84.37 70.87 -76.76 106.19
-84.5 68.5 -84.36 71.75 -76.67 106.02
-84.5 69.5 -84.35 72.62 -76.58 105.86
-84.5 70.5 -84.34 73.5 -76.49 105.7
-84.5 71.5 -84.33 74.32 -76.4 105.59
-84.5 72.5 -84.34 75.04 -76.32 105.55
-84.5 73.5 -84.35 75.8 -76.24 105.51
-84.5 74.5 -84.36 76.59 -76.16 105.47
-84.5 75.5 -84.37 77.4 -76.07 105.43
-84.5 76.5 -84.38 78.23 -75.98 105.4
-84.5 77.5 -84.4 79.08 -75.89 105.37
-84.5 78.5 -84.41 79.94 -75.8 105.34
-84.5 79.5 -84.42 80.83 -75.7 105.32
-84.5 80.5 -84.43 81.72 -75.61 105.3
-84.5 81.5 -84.44 82.63 -75.51 105.29
-84.5 82.5 -84.45 83.54 -75.42 105.28
-84.5 83.5 -84.46 84.46 -75.32 105.27
-84.5 84.5 -84.47 85.39 -75.22 105.27
-84.5 85.5 -84.48 86.33 -75.12 105.27
-84.5 86.5 -84.49 87.26 -75.02 105.27
-84.5 87.5 -84.49 88.21 -74.93 105.28
-84.5 88.5 -84.5 89.16 -74.83 105.3
-84.5 89.5 -84.51 90.12 -74.73 105.32
-84.5 90.5 -84.51 91.09 -74.63 105.34
-84.5 91.5 -84.52 92.05 -74.53 105.37
-84.5 92.5 -84.53 93.02 -74.43 105.41
-84.5 93.5 -84.53 93.99 -74.33 105.44
-84.5 94.5 -84.53 94.97 -74.23 105.49
-84.5 95.5 -84.54 95.95 -74.13 105.53
-84.5 96.5 -84.54 96.93 -74.04 105.59
-84.5 97.5 -84.55 97.92 -73.94 105.64
-84.5 98.5 -84.55 98.9 -73.84 105.71
-84.5 99.5 -84.55 99.89 -73.74 105.77
-84.5 100.5 -84.55 100.88 -73.64 105.84
-84.5 101.5 -84.56 101.87 -73.55 105.92
-84.5 102.5 -84.56 102.86 -73.45 106.0
-84.5 103.5 -84.56 103.86 -73.36 106.08
-84.5 104.5 -84.56 104.85 -73.26 106.17
-84.5 105.5 -84.56 105.85 -73.17 106.26
-84.5 106.5 -84.57 106.85 -73.07 106.36
-84.5 107.5 -84.57 107.84 -72.98 106.46
-84.5 108.5 -84.57 108.84 -72.89 106.56
-84.5 109.5 -84.57 109.84 -72.79 106.67
-84.5 110.5 -84.57 110.84 -72.7 106.78
-84.5 111.5 -84.57 111.84 -72.61 106.9
-84.5 112.5 -84.57 112.84 -72.52 107.02
-84.5 113.5 -84.57 113.84 -72.43 107.15
-84.5 114.5 -84.57 114.84 -72.35 107.27
-84.5 115.5 -84.57 115.84 -72.26 107.41
-84.5 116.5 -84.57 116.84 -72.17 107.54
-84.5 117.5 -84.57 117.84 -72.09 107.68
-84.5 118.5 -84.57 118.84 -72.0 107.82
-84.5 119.5 -84.57 119.84 -71.92 107.97
-84.5 120.5 -84.57 120.84 -71.84 108.12
-84.5 121.5 -84.56 121.84 -71.75 108.27
-84.5 122.5 -84.56 122.84 -71.67 108.42
-84.5 123.5 -84.56 123.83 -71.59 108.58
-84.5 124.5 -84.56 124.83 -71.51 108.74
-84.5 125.5 -84.56 125.83 -71.44 108.91
-84.5 126.5 -84.56 126.83 -71.36 109.07
-84.5 127.5 -84.56 127.83 -71.28 109.24
-84.5 128.5 -84.56 128.82 -71.21 109.42
-84.5 129.5 -84.56 129.82 -71.13 109.59
-84.5 130.5 -84.56 130.82 -71.06 109.77
-84.5 131.5 -84.55 131.81 -70.99 109.95
-84.5 132.5 -84.55 132.81 -70.92 110.13
-84.5 133.5 -84.55 133.8 -70.85 110.32
-84.5 134.5 -84.55 134.8 -70.78 110.51
-84.5 135.5 -84.55 135.79 -70.71 110.7
-84.5 136.5 -84.55 136.79 -70.65 110.89
-84.5 137.5 -84.55 137.78 -70.58 111.09
-84.5 138.5 -84.55 138.77 -70.52 111.28
-84.5 139.5 -84.55 139.76 -70.46 111.48
-84.5 140.5 -84.54 140.75 -70.39 111.68
-84.5 141.5 -84.54 141.74 -70.33 111.89
-84.5 142.5 -84.54 142.73 -70.27 112.09
-84.5 143.5 -84.54 143.72 -70.22 112.3
-84.5 144.5 -84.54 144.71 -70.16 112.51
-84.5 145.5 -84.54 145.7 -70.1 112.72
-84.5 146.5 -84.54 146.69 -70.05 112.94
-84.5 147.5 -84.54 147.68 -69.99 113.15
-84.5 148.5 -84.54 148.66 -69.94 113.37
-84.5 149.5 -84.54 149.65 -69.89 113.59
-84.5 150.5 -84.53 150.63 -69.84 113.81
-84.5 151.5 -84.53 151.62 -69.79 114.03
-84.5 152.5 -84.53 152.6 -69.74 114.25
-84.5 153.5 -84.53 153.59 -69.7 114.48
-84.5 154.5 -84.53 154.58 -69.65 114.7
-84.5 155.5 -84.53 155.56 -69.61 114.93
-84.5 156.5 -84.53 156.54 -69.57 115.16
-84.5 157.5 -84.53 157.52 -69.52 115.39
-84.5 158.5 -84.53 158.5 -69.48 115.62
-84.5 159.5 -84.53 159.48 -69.45 115.86
-84.5 160.5 -84.53 160.47 -69.41 116.1
-84.5 161.5 -84.54 161.46 -69.38 116.34
-84.5 162.5 -84.54 162.44 -69.34 116.58
-84.5 163.5 -84.54 163.43 -69.31 116.83
-84.5 164.5 -84.54 164.43 -69.28 117.07
-84.5 165.5 -84.55 165.42 -69.25 117.32
-84.5 166.5 -84.55 166.41 -69.22 117.56
-84.5 167.5 -84.55 167.4 -69.19 117.81
-84.5 168.5 -84.55 168.4 -69.17 118.06
-84.5 169.5 -84.55 169.4 -69.14 118.31
-84.5 170.5 -84.56 170.4 -69.12 118.56
-84.5 171.5 -84.56 171.4 -69.09 118.81
-84.5 172.5 -84.56 172.4 -69.07 119.07
-84.5 173.5 -84.56 173.41 -69.05 119.32
-84.5 174.5 -84.56 174.41 -69.03 119.58
-84.5 175.5 -84.56 175.41 -69.01 119.83
-84.5 176.5 -84.56 176.42 -68.99 120.09
-84.5 177.5 -84.56 177.42 -68.97 120.35
-84.5 178.5 -84.56 178.43 -68.96 120.6
-84.5 179.5 -84.56 179.43 -68.94 120.86
-83.5 -179.5 -83.55 180.58 -68.0 120.5
-83.5 -178.5 -83.55 181.58 -67.99 120.79
-83.5 -177.5 -83.55 182.57 -67.97 121.08
-83.5 -176.5 -83.55 183.57 -67.96 121.37
-83.5 -175.5 -83.55 184.56 -67.95 121.66
-83.5 -174.5 -83.55 185.56 -67.94 121.95
-83.5 -173.5 -83.55 186.55 -67.93 122.25
-83.5 -172.5 -83.55 187.54 -67.93 122.54
-83.5 -171.5 -83.55 188.54 -67.92 122.83
-83.5 -170.5 -83.55 189.53 -67.92 123.13
-83.5 -169.5 -83.55 190.52 -67.92 123.42
-83.5 -168.5 -83.55 191.51 -67.92 123.71
-83.5 -167.5 -83.55 192.5 -67.92 124.01
-83.5 -166.5 -83.55 193.5 -67.92 124.3
-83.5 -165.5 -83.55 194.49 -67.92 124.6
-83.5 -164.5 -83.55 195.48 -67.93 124.9
-83.5 -163.5 -83.55 196.48 -67.94 125.19
-83.5 -162.5 -83.55 197.47 -67.94 125.49
-83.5 -161.5 -83.55 198.47 -67.95 125.79
-83.5 -160.5 -83.56 199.46 -67.96 126.08
-83.5 -159.5 -83.56 200.46 -67.97 126.38
-83.5 -158.5 -83.56 201.46 -67.99 126.68
-83.5 -157.5 -83.56 202.46 -68.0 126.98
-83.5 -156.5 -83.56 203.45 -68.02 127.27
-83.5 -155.5 -83.56 204.45 -68.03 127.57
-83.5 -154.5 -83.56 205.45 -68.05 127.87
-83.5 -153.5 -83.56 206.45 -68.07 128.17
-83.5 -152.5 -83.56 207.45 -68.09 128.47
-83.5 -151.5 -83.56 208.45 -68.11 128.77
-83.5 -150.5 -83.56 209.45 -68.13 129.06
-83.5 -149.5 -83.56 210.45 -68.16 129.36
-83.5 -148.5 -83.56 211.45 -68.18 129.66
-83.5 -147.5 -83.56 212.45 -68.21 129.96
-83.5 -146.5 -83.56 213.45 -68.24 130.25
-83.5 -145.5 -83.56 214.45 -68.26 130.55
-83.5 -144.5 -83.56 215.45 -68.29 130.85
-83.5 -143.5 -83.56 216.45 -68.32 131.15
-83.5 -142.5 -83.56 217.45 -68.36 131.44
-83.5 -141.5 -83.56 218.45 -68.39 131.74
-83.5 -140.5 -83.56 219.45 -68.42 132.03
-83.5 -139.5 -83.56 220.45 -68.46 132.33
-83.5 -138.5 -83.56 221.45 -68.5 132.62
-83.5 -137.5 -83.56 222.45 -68.53 132.92
-83.5 -136.5 -83.56 223.44 -68.57 133.21
-83.5 -135.5 -83.56 224.44 -68.61 133.5
-83.5 -134.5 -83.56 225.44 -68.65 133.8
-83.5 -133.5 -83.56 226.44 -68.7 134.09
-83.5 -132.5 -83.56 227.44 -68.74 134.38
-83.5 -131.5 -83.56 228.44 -68.79 134.67
-83.5 -130.5 -83.56 229.44 -68.83 134.96
-83.5 -129.5 -83.56 230.44 -68.88 135.25
-83.5 -128.5 -83.56 231.43 -68.93 135.53
-83.5 -127.5 -83.56 232.43 -68.98 135.82
-83.5 -126.5 -83.56 233.43 -69.03 136.11
-83.5 -125.5 -83.56 234.43 -69.08 136.39
-83.5 -124.5 -83.56 235.42 -69.13 136.68
-83.5 -123.5 -83.56 236.42 -69.19 136.96
-83.5 -122.5 -83.56 237.42 -69.24 137.24
-83.5 -121.5 -83.56 238.42 -69.3 137.52
-83.5 -120.5 -83.56 239.41 -69.35 137.8
-83.5 -119.5 -83.56 240.41 -69.41 138.08
-83.5 -118.5 -83.56 241.41 -69.47 138.36
-83.5 -117.5 -83.56 242.4 -69.53 138.64
-83.5 -116.5 -83.56 243.4 -69.59 138.91
-83.5 -115.5 -83.56 244.39 -69.65 139.19
-83.5 -114.5 -83.56 245.39 -69.72 139.46
-83.5 -113.5 -83.56 246.39 -69.78 139.73
-83.5 -112.5 -83.56 247.38 -69.85 140.0
-83.5 -111.5 -83.56 248.38 -69.91 140.27
-83.5 -110.5 -83.56 249.37 -69.98 140.53
-83.5 -109.5 -83.56 250.36 -70.05 140.8
-83.5 -108.5 -83.56 251.36 -70.12 141.06
-83.5 -107.5 -83.56 252.35 -70.19 141.32
-83.5 -106.5 -83.56 253.34 -70.26 141.58
-83.5 -105.5 -83.56 254.34 -70.33 141.84
-83.5 -104.5 -83.57 255.33 -70.4 142.1
-83.5 -103.5 -83.57 256.32 -70.48 142.35
-83.5 -102.5 -83.57 257.31 -70.55 142.6
-83.5 -101.5 -83.57 258.3 -70.63 142.85
-83.5 -100.5 -83.57 259.29 -70.7 143.1
-83.5 -99.5 -83.57 260.27 -70.78 143.35
-83.5 -98.5 -83.57 261.26 -70.86 143.59
-83.5 -97.5 -83.57 262.24 -70.94 143.83
-83.5 -96.5 -83.57 263.23 -71.02 144.07
-83.5 -95.5 -83.57 264.21 -71.1 144.31
-83.5 -94.5 -83.57 265.19 -71.18 144.54
-83.5 -93.5 -83.57 266.17 -71.26 144.77
-83.5 -92.5 -83.56 267.15 -71.34 145.0
-83.5 -91.5 -83.56 268.12 -71.42 145.23
-83.5 -90.5 -83.56 269.09 -71.51 145.46
-83.5 -89.5 -83.56 270.06 -71.59 145.68
-83.5 -88.5 -83.56 271.03 -71.67 145.9
-83.5 -87.5 -83.56 272.0 -71.76 146.11
-83.5 -86.5 -83.56 272.96 -71.84 146.33
-83.5 -85.5 -83.56 273.91 -71.93 146.54
-83.5 -84.5 -83.56 274.91 -72.02 146.75
-83.5 -83.5 -83.56 275.92 -72.11 146.96
-83.5 -82.5 -83.56 276.92 -72.2 147.17
-83.5 -81.5 -83.56 277.93 -72.3 147.37
-83.5 -80.5 -83.56 278.94 -72.39 147.57
-83.5 -79.5 -83.56 279.95 -72.49 147.77
-83.5 -78.5 -83.56 280.95 -72.58 147.96
-83.5 -77.5 -83.57 281.96 -72.68 148.15
-83.5 -76.5 -83.57 282.97 -72.78 148.34
-83.5 -75.5 -83.57 283.98 -72.87 148.52
-83.5 -74.5 -83.57 284.99 -72.97 148.69
-83.5 -73.5 -83.57 286.0 -73.07 148.87
-83.5 -72.5 -83.57 287.01 -73.17 149.03
-83.5 -71.5 -83.58 288.02 -73.28 149.2
-83.5 -70.5 -83.58 289.03 -73.38 149.35
-83.5 -69.5 -83.58 290.04 -73.48 149.51
-83.5 -68.5 -83.58 291.05 -73.58 149.66
-83.5 -67.5 -83.59 292.06 -73.69 149.8
-83.5 -66.5 -83.59 293.07 -73.79 149.94
-83.5 -65.5 -83.59 294.08 -73.89 150.07
-83.5 -64.5 -83.6 295.08 -74.0 150.19
-83.5 -63.5 -83.6 296.09 -74.1 150.31
-83.5 -62.5 -83.61 297.09 -74.21 150.42
-83.5 -61.5 -83.61 298.09 -74.31 150.53
-83.5 -60.5 -83.62 299.09 -74.42 150.63
-83.5 -59.5 -83.62 300.08 -74.52 150.72
-83.5 -58.5 -83.63 301.07 -74.63 150.8
-83.5 -57.5 -83.63 302.06 -74.73 150.88
-83.5 -56.5 -83.64 303.04 -74.84 150.95
-83.5 -55.5 -83.64 304.02 -74.94 151.01
-83.5 -54.5 -83.65 304.99 -75.05 151.06
-83.5 -53.5 -83.66 305.95 -75.15 151.11
-83.5 -52.5 -83.67 306.9 -75.25 151.14
-83.5 -51.5 -83.68 307.84 -75.35 151.17
-83.5 -50.5 -83.68 308.77 -75.45 151.18
-83.5 -49.5 -83.69 309.69 -75.55 151.19
-83.5 -48.5 -83.71 310.6 -75.65 151.19
-83.5 -47.5 -83.72 311.49 -75.75 151.18
-83.5 -46.5 -83.72 312.45 -75.85 151.19
-83.5 -45.5 -83.72 313.46 -75.96 151.21
-83.5 -44.5 -83.72 314.47 -76.06 151.22
-83.5 -43.5 -83.72 315.49 -76.17 151.23
-83.5 -42.5 -83.72 316.5 -76.28 151.23
-83.5 -41.5 -83.72 317.51 -76.39 151.21
-83.5 -40.5 -83.72 318.53 -76.5 151.19
-83.5 -39.5 -83.72 319.54 -76.61 151.15
-83.5 -38.5 -83.72 320.56 -76.72 151.11
-83.5 -37.5 -83.73 321.58 -76.83 151.05
-83.5 -36.5 -83.73 322.6 -76.93 150.98
-83.5 -35.5 -83.73 323.63 -77.04 150.9
-83.5 -34.5 -83.74 324.65 -77.15 150.81
-83.5 -33.5 -83.74 325.68 -77.26 150.7
-83.5 -32.5 -83.74 326.71 -77.36 150.59
-83.5 -31.5 -83.75 327.74 -77.47 150.45
-83.5 -30.5 -83.75 328.78 -77.58 150.31
-83.5 -29.5 -83.76 329.81 -77.68 150.15
-83.5 -28.5 -83.77 330.85 -77.79 149.98
-83.5 -27.5 -83.77 331.9 -77.89 149.79
-83.5 -26.5 -83.78 332.94 -78.0 149.59
-83.5 -25.5 -83.79 333.99 -78.1 149.37
-83.5 -24.5 -83.8 335.05 -78.2 149.13
-83.5 -23.5 -83.81 336.1 -78.3 148.88
-83.5 -22.5 -83.81 337.17 -78.4 148.61
-83.5 -21.5 -83.82 338.23 -78.5 148.33
-83.5 -20.5 -83.84 339.3 -78.59 148.02
-83.5 -19.5 -83.85 340.38 -78.69 147.7
-83.5 -18.5 -83.86 341.46 -78.78 147.36
-83.5 -17.5 -83.87 342.54 -78.87 147.01
-83.5 -16.5 -83.88 343.63 -78.96 146.63
-83.5 -15.5 -83.89 344.72 -79.05 146.23
-83.5 -14.5 -83.91 345.82 -79.14 145.82
-83.5 -13.5 -83.92 346.93 -79.22 145.39
-83.5 -12.5 -83.93 348.04 -79.31 144.94
-83.5 -11.5 -83.95 349.16 -79.39 144.47
-83.5 -10.5 -83.96 350.28 -79.46 143.98
-83.5 -9.5 -83.98 351.41 -79.54 143.47
-83.5 -8.5 -83.99 352.54 -79.61 142.95
-83.5 -7.5 -84.0 353.68 -79.68 142.4
-83.5 -6.5 -84.02 354.83 -79.75 141.84
-83.5 -5.5 -84.03 355.98 -79.81 141.27
-83.5 -4.5 -84.04 357.13 -79.87 140.67
-83.5 -3.5 -84.05 358.29 -79.93 140.07
-83.5 -2.5 -84.07 359.44 -79.98 139.45
-83.5 -1.5 -84.08 0.61 -80.03 138.81
-83.5 -0.5 -84.08 1.77 -80.08 138.17
-83.5 0.5 -84.09 2.93 -80.13 137.51
-83.5 1.5 -84.1 4.1 -80.17 136.85
-83.5 2.5 -84.1 5.26 -80.21 136.17
-83.5 3.5 -84.11 6.42 -80.25 135.49
-83.5 4.5 -84.11 7.57 -80.28 134.8
-83.5 5.5 -84.11 8.72 -80.32 134.11
-83.5 6.5 -84.1 9.86 -80.34 133.41
-83.5 7.5 -84.1 10.99 -80.37 132.72
-83.5 8.5 -84.09 12.11 -80.4 132.02
-83.5 9.5 -84.08 13.22 -80.42 131.32
-83.5 10.5 -84.07 14.32 -80.44 130.63
-83.5 11.5 -84.06 15.41 -80.45 129.93
-83.5 12.5 -84.05 16.49 -80.46 129.23
-83.5 13.5 -84.04 17.56 -80.48 128.54
-83.5 14.5 -84.03 18.61 -80.48 127.85
-83.5 15.5 -84.02 19.64 -80.49 127.17
-83.5 16.5 -84.01 20.66 -80.49 126.49
-83.5 17.5 -83.99 21.67 -80.49 125.81
-83.5 18.5 -83.98 22.66 -80.49 125.15
-83.5 19.5 -83.96 23.63 -80.49 124.49
-83.5 20.5 -83.94 24.59 -80.48 123.83
-83.5 21.5 -83.93 25.55 -80.48 123.18
-83.5 22.5 -83.91 26.49 -80.46 122.54
-83.5 23.5 -83.89 27.41 -80.45 121.91
-83.5 24.5 -83.88 28.34 -80.43 121.28
-83.5 25.5 -83.86 29.25 -80.41 120.65
-83.5 26.5 -83.84 30.16 -80.39 120.03
-83.5 27.5 -83.83 31.07 -80.36 119.42
-83.5 28.5 -83.81 31.98 -80.34 118.82
-83.5 29.5 -83.8 32.88 -80.3 118.22
-83.5 30.5 -83.79 33.79 -80.27 117.62
-83.5 31.5 -83.77 34.7 -80.23 117.04
-83.5 32.5 -83.76 35.61 -80.18 116.46
-83.5 33.5 -83.75 36.52 -80.14 115.89
-83.5 34.5 -83.74 37.44 -80.09 115.33
-83.5 35.5 -83.73 38.36 -80.04 114.77
-83.5 36.5 -83.72 39.29 -79.98 114.22
-83.5 37.5 -83.71 40.22 -79.92 113.69
-83.5 38.5 -83.71 41.16 -79.86 113.16
-83.5 39.5 -83.7 42.1 -79.79 112.64
-83.5 40.5 -83.69 43.06 -79.72 112.13
-83.5 41.5 -83.69 44.01 -79.65 111.64
-83.5 42.5 -83.68 44.97 -79.57 111.15
-83.5 43.5 -83.68 45.94 -79.49 110.68
-83.5 44.5 -83.68 46.91 -79.41 110.22
-83.5 45.5 -83.67 47.89 -79.33 109.77
-83.5 46.5 -83.67 48.87 -79.24 109.34
-83.5 47.5 -83.67 49.85 -79.15 108.92
-83.5 48.5 -83.66 50.83 -79.06 108.51
-83.5 49.5 -83.66 51.82 -78.96 108.12
-83.5 50.5 -83.66 52.81 -78.87 107.75
-83.5 51.5 -83.66 53.8 -78.77 107.38
-83.5 52.5 -83.65 54.79 -78.67 107.03
-83.5 53.5 -83.65 55.78 -78.57 106.7
-83.5 54.5 -83.65 56.78 -78.47 106.38
-83.5 55.5 -83.65 57.77 -78.36 106.08
-83.5 56.5 -83.65 58.77 -78.26 105.79
-83.5 57.5 -83.65 59.75 -78.15 105.52
-83.5 58.5 -83.65 60.72 -78.05 105.24
-83.5 59.5 -83.64 61.69 -77.94 104.98
-83.5 60.5 -83.63 62.65 -77.84 104.72
-83.5 61.5 -83.63 63.61 -77.74 104.47
-83.5 62.5 -83.62 64.56 -77.63 104.23
-83.5 63.5 -83.61 65.52 -77.52 104.0
-83.5 64.5 -83.6 66.47 -77.42 103.78
-83.5 65.5 -83.59 67.43 -77.31 103.57
-83.5 66.5 -83.58 68.38 -77.2 103.38
-83.5 67.5 -83.57 69.34 -77.09 103.19
-83.5 68.5 -83.56 70.29 -76.98 103.01
-83.5 69.5 -83.55 71.25 -76.87 102.84
-83.5 70.5 -83.54 72.2 -76.76 102.69
-83.5 71.5 -83.53 73.16 -76.64 102.54
-83.5 72.5 -83.52 74.11 -76.53 102.41
-83.5 73.5 -83.52 75.07 -76.42 102.28
-83.5 74.5 -83.51 76.02 -76.3 102.17
-83.5 75.5 -83.5 76.97 -76.19 102.06
-83.5 76.5 -83.5 77.92 -76.07 101.97
-83.5 77.5 -83.5 78.87 -75.96 101.89
-83.5 78.5 -83.5 79.82 -75.84 101.81
-83.5 79.5 -83.49 80.77 -75.73 101.74
-83.5 80.5 -83.49 81.72 -75.61 101.69
-83.5 81.5 -83.49 82.67 -75.5 101.64
-83.5 82.5 -83.49 83.62 -75.38 101.6
-83.5 83.5 -83.49 84.57 -75.27 101.57
-83.5 84.5 -83.48 85.52 -75.15 101.55
-83.5 85.5 -83.48 86.47 -75.03 101.54
-83.5 86.5 -83.48 87.42 -74.92 101.53
-83.5 87.5 -83.48 88.37 -74.8 101.54
-83.5 88.5 -83.48 89.32 -74.69 101.55
-83.5 89.5 -83.47 90.27 -74.57 101.57
-83.5 90.5 -83.47 91.22 -74.46 101.6
-83.5 91.5 -83.47 92.17 -74.34 101.63
-83.5 92.5 -83.47 93.13 -74.23 101.67
-83.5 93.5 -83.47 94.08 -74.12 101.72
-83.5 94.5 -83.47 95.03 -74.0 101.78
-83.5 95.5 -83.47 95.99 -73.89 101.84
-83.5 96.5 -83.47 96.95 -73.78 101.91
-83.5 97.5 -83.47 97.9 -73.67 101.98
-83.5 98.5 -83.47 98.86 -73.56 102.06
-83.5 99.5 -83.47 99.82 -73.45 102.15
-83.5 100.5 -83.47 100.77 -73.34 102.24
-83.5 101.5 -83.47 101.73 -73.23 102.34
-83.5 102.5 -83.47 102.69 -73.12 102.45
-83.5 103.5 -83.47 103.66 -73.01 102.56
-83.5 104.5 -83.47 104.62 -72.9 102.67
-83.5 105.5 -83.47 105.58 -72.8 102.79
-83.5 106.5 -83.47 106.55 -72.69 102.92
-83.5 107.5 -83.47 107.51 -72.59 103.05
-83.5 108.5 -83.47 108.48 -72.48 103.19
-83.5 109.5 -83.47 109.44 -72.38 103.33
-83.5 110.5 -83.47 110.41 -72.28 103.47
-83.5 111.5 -83.48 111.39 -72.18 103.64
-83.5 112.5 -83.49 112.36 -72.08 103.81
-83.5 113.5 -83.49 113.35 -71.98 103.98
-83.5 114.5 -83.5 114.33 -71.89 104.16
-83.5 115.5 -83.5 115.32 -71.79 104.34
-83.5 116.5 -83.51 116.31 -71.69 104.53
-83.5 117.5 -83.52 117.3 -71.6 104.71
-83.5 118.5 -83.52 118.3 -71.51 104.9
-83.5 119.5 -83.53 119.3 -71.41 105.09
-83.5 120.5 -83.53 120.29 -71.32 105.29
-83.5 121.5 -83.53 121.29 -71.23 105.49
-83.5 122.5 -83.54 122.29 -71.14 105.69
-83.5 123.5 -83.54 123.3 -71.05 105.89
-83.5 124.5 -83.54 124.3 -70.96 106.1
-83.5 125.5 -83.55 125.3 -70.87 106.3
-83.5 126.5 -83.55 126.31 -70.79 106.51
-83.5 127.5 -83.55 127.32 -70.7 106.73
-83.5 128.5 -83.56 128.32 -70.62 106.94
-83.5 129.5 -83.56 129.33 -70.54 107.16
-83.5 130.5 -83.56 130.34 -70.45 107.38
-83.5 131.5 -83.56 131.34 -70.37 107.6
-83.5 132.5 -83.56 132.35 -70.29 107.83
-83.5 133.5 -83.57 133.36 -70.22 108.05
-83.5 134.5 -83.57 134.37 -70.14 108.28
-83.5 135.5 -83.57 135.38 -70.06 108.51
-83.5 136.5 -83.57 136.39 -69.99 108.75
-83.5 137.5 -83.57 137.39 -69.91 108.98
-83.5 138.5 -83.57 138.4 -69.84 109.22
-83.5 139.5 -83.57 139.41 -69.77 109.46
-83.5 140.5 -83.57 140.42 -69.7 109.7
-83.5 141.5 -83.57 141.43 -69.63 109.94
-83.5 142.5 -83.58 142.44 -69.57 110.19
-83.5 143.5 -83.58 143.45 -69.5 110.43
-83.5 144.5 -83.58 144.46 -69.44 110.68
-83.5 145.5 -83.58 145.46 -69.37 110.93
-83.5 146.5 -83.58 146.47 -69.31 111.18
-83.5 147.5 -83.58 147.48 -69.25 111.44
-83.5 148.5 -83.58 148.49 -69.19 111.69
-83.5 149.5 -83.58 149.5 -69.13 111.95
-83.5 150.5 -83.58 150.5 -69.08 112.2
-83.5 151.5 -83.58 151.51 -69.02 112.46
-83.5 152.5 -83.58 152.52 -68.97 112.72
-83.5 153.5 -83.57 153.52 -68.91 112.99
-83.5 154.5 -83.57 154.53 -68.86 113.25
-83.5 155.5 -83.57 155.54 -68.81 113.52
-83.5 156.5 -83.57 156.54 -68.76 113.78
-83.5 157.5 -83.57 157.55 -68.72 114.05
-83.5 158.5 -83.57 158.55 -68.67 114.32
-83.5 159.5 -83.57 159.56 -68.63 114.59
-83.5 160.5 -83.57 160.56 -68.58 114.86
-83.5 161.5 -83.57 161.57 -68.54 115.13
-83.5 162.5 -83.57 162.57 -68.5 115.41
-83.5 163.5 -83.57 163.58 -68.46 115.68
-83.5 164.5 -83.57 164.58 -68.42 115.96
-83.5 165.5 -83.57 165.58 -68.39 116.23
-83.5 166.5 -83.57 166.58 -68.35 116.51
-83.5 167.5 -83.57 167.59 -68.32 116.79
-83.5 168.5 -83.56 168.59 -68.28 117.07
-83.5 169.5 -83.56 169.59 -68.25 117.35
-83.5 170.5 -83.56 170.59 -68.22 117.63
-83.5 171.5 -83.56 171.59 -68.2 117.92
-83.5 172.5 -83.56 172.59 -68.17 118.2
-83.5 173.5 -83.56 173.59 -68.14 118.49
-83.5 174.5 -83.56 174.59 -68.12 118.77
-83.5 175.5 -83.56 175.59 -68.1 119.06
-83.5 176.5 -83.56 176.59 -68.07 119.34
-83.5 177.5 -83.56 177.59 -68.05 119.63
-83.5 178.5 -83.55 178.59 -68.03 119.92
-83.5 179.5 -83.55 179.58 -68.02 120.21
-82.5 -179.5 -82.57 180.48 -67.1 119.87
-82.5 -178.5 -82.57 181.48 -67.08 120.2
-82.5 -177.5 -82.57 182.48 -67.07 120.52
-82.5 -176.5 -82.57 183.48 -67.06 120.84
-82.5 -175.5 -82.57 184.49 -67.04 121.17
-82.5 -174.5 -82.56 185.49 -67.04 121.49
-82.5 -173.5 -82.56 186.49 -67.03 121.82
-82.5 -172.5 -82.56 187.49 -67.02 122.14
-82.5 -171.5 -82.56 188.5 -67.02 122.47
-82.5 -170.5 -82.56 189.5 -67.01 122.8
-82.5 -169.5 -82.56 190.5 -67.01 123.12
-82.5 -168.5 -82.56 191.51 -67.01 123.45
-82.5 -167.5 -82.56 192.51 -67.01 123.78
-82.5 -166.5 -82.56 193.51 -67.01 124.11
-82.5 -165.5 -82.56 194.51 -67.01 124.44
-82.5 -164.5 -82.56 195.51 -67.02 124.76
-82.5 -163.5 -82.56 196.51 -67.02 125.09
-82.5 -162.5 -82.56 197.51 -67.03 125.42
-82.5 -161.5 -82.56 198.52 -67.04 125.75
-82.5 -160.5 -82.56 199.52 -67.05 126.08
-82.5 -159.5 -82.56 200.52 -67.06 126.41
-82.5 -158.5 -82.56 201.52 -67.08 126.74
-82.5 -157.5 -82.55 202.52 -67.09 127.07
-82.5 -156.5 -82.55 203.52 -67.11 127.4
-82.5 -155.5 -82.55 204.52 -67.12 127.73
-82.5 -154.5 -82.55 205.51 -67.14 128.06
-82.5 -153.5 -82.55 206.51 -67.16 128.39
-82.5 -152.5 -82.55 207.51 -67.19 128.72
-82.5 -151.5 -82.55 208.51 -67.21 129.05
-82.5 -150.5 -82.55 209.51 -67.23 129.38
-82.5 -149.5 -82.55 210.51 -67.26 129.71
-82.5 -148.5 -82.55 211.5 -67.28 130.03
-82.5 -147.5 -82.55 212.5 -67.31 130.36
-82.5 -146.5 -82.55 213.5 -67.34 130.69
